solver_type L2R_LR
nr_class 2
label 1 0
nr_feature 133357
bias -1
w
-0.1026207840831818 
0.01714376979176739 
0.383411840510392 
0.2886638299323018 
0.0567775050217097 
0.07885480573201735 
-0.3445893572593354 
0.9365112203213111 
-0.5933530554983084 
-0.175642696791191 
-0.0737938937793209 
0.1655456367839639 
1.243312556220763 
-0.352275214511123 
0.0103254396912363 
0.398923884679447 
0.4677752846751328 
-0.03073911257169514 
-0.1561556270638053 
0.3715491429835189 
1.809679429425753 
-0.3018256881905542 
1.14932702117058 
-0.415507420535527 
0.7729794229852505 
0.792418767313304 
0.5886452874850505 
-0.4927352120891113 
1.400803080070095 
0.4780589057396867 
1.353490948032302 
0.5200406232916041 
0.08537038834912691 
0.4412427000589692 
0.09717011138545376 
0.09078971858760304 
0.05024554778686235 
0.3118230876075899 
0.471102525584506 
0.9142355395986083 
0.09745228775550967 
0.2143597115128085 
0.4780546752671192 
-0.554925222678796 
-0.02786422230004659 
0.06791229703695352 
-0.5150221715825937 
0.0409846468535587 
0.6917661085632659 
0.06354242136738493 
1.183484557536287 
0.8211836326091662 
0.06607153267649887 
0.129772383558421 
0.1147967902716158 
0.004922672014388236 
-0.008644929231958094 
0.07147437687827651 
-0.01363525166534681 
0.08995234102877731 
0.5168825184975532 
-0.3500516819304932 
0.8294488528199924 
1.176854125772571 
0.7678659516053207 
0.1448822220863651 
-0.0226579179991556 
0.0928421984090145 
-0.3255501955082835 
-0.1762696542029017 
-0.2485697887490144 
0.2950004182872293 
-0.5296959361857052 
-0.3246331019497201 
0.4324476950173594 
0.967339176856306 
-0.09169078339541792 
0.6849479235472754 
0.2608712126445784 
-0.2127031669321228 
-0.1189726925867975 
1.358521279546217 
-0.1357511417178741 
0.3899386298128862 
0.1661213801443295 
0.4488597737717034 
0.8521297188640957 
0.07597075643814169 
-0.378876513859747 
-0.09686241964790662 
0.2065814418553521 
0.3440074533983599 
0.2444293873184559 
-0.3452077080406407 
0.2630012945857574 
0.2390834348666066 
-0.4140264380229042 
-0.393345578923758 
-0.5644799601871702 
-0.04986243648546063 
-2.657721689081369 
-0.07705192907235858 
0.5007549155766823 
1.416854565889939 
-0.1613189307259162 
0.09269162220954567 
-0.1808338614800326 
0.1123675074898116 
0.9290559736236982 
-0.1443662882728751 
0.8943009715416818 
-0.0569574784902986 
0.4648928129317897 
1.75852894877354 
0.1104201695824101 
0.2141435091032114 
1.108146587865554 
-0.01292029083812012 
0.642042048806356 
0.01960974864114908 
0.3008091625466678 
0.09698202566005196 
-0.4831514932819 
-0.09672661496724738 
0.4786363471016885 
0.834444001774157 
0.7956098488969736 
0.1664670173585044 
0.9964503911693183 
0.6467139608424645 
-0.05063126579285739 
0.02011215596375803 
0.09933675926952758 
-0.01019887930549037 
-0.4031745919069571 
0.2319555755404219 
-0.26563440136385 
0.750759911076547 
-0.5019453292811276 
-0.09283928955188814 
-0.08334461946466241 
-0.4193066870594965 
0.2942012595962429 
1.359379764868751 
0.4817134718124773 
-0.6951229462367884 
0.02431426951648316 
1.421741214048941 
-0.143991550649042 
1.010389941114567 
0.1263158913464289 
1.511606194331216 
1.758927493727156 
0.6874357271491427 
0.2543809373730317 
0.3301870984241368 
0.8225608091514418 
0.3480276563058765 
1.246379794678979 
0.8169303603840335 
0.4012543245406899 
-0.06974090866929034 
1.421758556229877 
0.2079829654295333 
0.5611683113543693 
0.101186796492531 
0.06475348368982523 
0.6081146957260859 
0.01992260851609937 
0.2268504137113365 
-0.04821241509569116 
0.4331294812874232 
-0.08525041503672037 
0.4013103906806 
-0.2060957600495118 
0.3703168184351899 
-0.38038908402248 
1.146311681750848 
-0.6468725871515876 
-0.04935826382831675 
-0.1452783840906165 
0.3518102107936337 
-1.418071837273333 
0.1036594721538561 
-0.01910402314810823 
0.5410385515731271 
-1.134834652896307 
0.3593264152715075 
0.1316794432169766 
-0.1488502968361008 
-0.1770957151500752 
0.3504059817757884 
0.5146429134637805 
0.3373904136956278 
-0.2667983573248655 
-0.449028995104354 
-0.4613769132026675 
1.172647951135065 
0.005359831359056537 
0.1195326104705426 
-0.09904281961245071 
-0.2918072309170072 
0.9735599282633401 
0.07142342978777279 
0.0793653708394188 
-0.6700225130747985 
0.2961966263824608 
-0.03850493826571841 
0.8752955543712596 
0.2109904552190912 
0.8819968636130765 
0.2509303072131219 
-0.8058985548334113 
-0.2816773314784675 
-0.06528842606175603 
-0.3326996459489003 
0.06697338875662506 
0.1782737636491113 
-0.8896920116650707 
0.004350510289070214 
0.5237529927068871 
0.9662071738443965 
0.8848789341740506 
0.6276286734792692 
-0.3682135639823411 
0.1050074937859875 
-0.1015731181646726 
0.2222802899964121 
0.2417746976847681 
0.2956923210698122 
0.3274661929176604 
-0.293177076741107 
-1.160114948555085 
-0.311938623358366 
-0.4694446820481697 
-0.8694137264239673 
-0.06081320609394043 
-0.2591271529387142 
0.005760539477550414 
-0.02277934245755235 
-0.1891662145447769 
-0.5848783097954334 
0.3558992547790599 
0.4155483756421693 
-0.429529695339283 
-0.1755328506662331 
-0.1958918275276741 
0.8683841816284705 
0.2147145108445627 
0.02714939932718256 
0.1050564131846468 
0.4967339672831335 
-0.3230831520692863 
0.3861398516125474 
-0.1628208286298228 
0.1890491834404426 
0.001682227151774568 
-0.4052395454782238 
0.640692595990369 
0.1906154232094979 
0.3763753524480858 
-0.114710856623933 
1.113174220970578 
0.1104020110486798 
0.4741111221948174 
0.646140782976776 
0.001682227151774568 
-0.09062958792124014 
0.3491206783309171 
0.1225672761711339 
0.2051529056292028 
0.145238371551514 
0.5313205153971263 
0.3290371769056666 
-0.01322048014020998 
-0.587619984978078 
0.3013958194868895 
-0.04301788868677722 
-0.4220919335600438 
0.4501738561968605 
0.04065421856999229 
0.376435794437725 
1.103639048379141 
-0.6975196541271422 
0.4459082235963486 
0.2960547853909195 
0.4761805279953867 
0.3354485208563839 
0.5791230168562129 
0.267027978313403 
-0.007836675478988232 
0.569860132036202 
1.047797407329955 
-0.05212016209988663 
-1.13989749447569 
0.1008075331513159 
0.08071656419511009 
0.3006393036282908 
1.003761237200353 
-0.04341638516259899 
0.0996446283886103 
0 
0.3769395642750793 
-0.2972139402992197 
0.283700243014798 
-0.3637310669190608 
0.3841366288943664 
0.1753553552421065 
0.1196140504997955 
0.4118484199070591 
0.06373711761979621 
0.8610093218265695 
0.3465877786259386 
0.3872808826500632 
-0.3062105134278812 
-0.05544752115836843 
0.09983313800454249 
-0.18318952968961 
0.6455579136881797 
0.3039049312262609 
-0.2999959296908348 
0.6592056972401326 
0.1836640952298341 
-0.2961683823489099 
-0.09696715514687324 
0.3575564776226235 
-0.08138456045536004 
0.8852700045811817 
-1.311765690117842 
-0.3840553857183729 
-0.9941565142936132 
0.2255677880117243 
0.4358694186759476 
0.664675324284917 
0.309629723327673 
0.0542612466432746 
-0.1202823488167908 
0.08931002767521115 
0.750851937850723 
0.4558814053200056 
-0.2079519524848064 
-0.5549912456105809 
0.02932955888504711 
0.3035302041842511 
1.106770570142263 
0.57246208834796 
-0.4676914100888295 
0.3897873530479068 
-0.1519905574551113 
-0.5522577262844249 
-0.1010056586618061 
0.05535445832300318 
0.0004288714150081014 
0.5738863478693594 
0.1774557832734431 
0.1159242432979135 
0.3967234875266636 
0.4005485842806289 
0.5487371926754702 
-0.2649992717192775 
0.07312696378211303 
0.8936919651017707 
0.4758129925650171 
-0.1805384599518048 
0.2063400462289971 
0.4750860214165089 
-0.007874474493764747 
1.541070356720848 
0.7239760818267308 
-0.4910237736596373 
0.9286285418049426 
-0.2211461744047466 
0.2043550836554125 
0.6721854561589918 
0.1028760834392697 
0.1998833946948834 
0.2841108495298273 
-0.2286053720158078 
-0.4893754299992186 
0.3779020335969142 
0.3648448742089742 
0.6268578635413562 
1.004888916021149 
0.01616816929255877 
0.8333321861803287 
1.208771365513515 
-0.3665650918326632 
0.4670109861697527 
0.5065082578176757 
-0.4244002502840329 
0.2906194323066553 
0.05161399289784527 
0.2212042255753516 
-1.316684744666676 
0.2834757356648906 
0.1457776436503098 
0.3047119773441551 
0.7540511501950702 
0.1389712605805972 
-0.03701911358086173 
1.382747859527905 
-0.2208673185309923 
0.464218341830138 
0.5842055833843929 
0.1372692971607649 
0.4980339097932998 
0.9209506845497215 
0.1182024668831078 
0.03492626970759326 
0.3661748422318689 
0.1382339564939871 
1.450246679294594 
-0.0009295422446847839 
1.102288550475706 
0.1612430819467678 
0.2898497562090996 
-0.2922323229312259 
1.194758481430387 
0.2275746356869193 
1.107577360111082 
0.1640932033381245 
0.3536106465987789 
-0.1298684327546036 
0.6717755313879856 
-0.662096380467932 
-0.2422442184101652 
-0.2722948275229229 
0.01547208958479108 
1.31624495678908 
0.5518726962901828 
0.6920514476272573 
0.5706636765339653 
-0.08955740558628854 
0.165688875734476 
-0.2786482934589773 
0.7086252874198771 
0 
-0.4195042331645883 
-0.3759901218391358 
0.2094931848836143 
-0.4348747560793903 
0.251394240173039 
1.435945152371057 
0.5010237445458797 
1.064882912331849 
0.7393543563751921 
0.4144918015710706 
-0.5352430896041167 
0.04945080859707558 
-0.4112348965568381 
1.061303657704065 
0.5109832760957176 
-0.9049267113674966 
-0.004131910308966623 
-0.2257331040971594 
0.1772879113916995 
-0.4745791397767557 
0.1750494392491619 
0.8045909043617501 
0.02515051716884568 
-0.09987354918318272 
0.6203781312080101 
-0.3910802466931196 
0.7308183693119956 
0.8614376381911842 
0.2369314233403596 
0.1141645143142574 
0.4610322507356042 
-0.05584135909200795 
0.06348308037147644 
0.6448201298413384 
-0.6474964350007935 
0.4234321502263305 
-0.1890487773622488 
-1.306307737213808 
0.1133115435006495 
-0.858763377672537 
-0.2536077937127568 
0.1636693196196081 
-0.03148989236502622 
0.6325786990598954 
0.5798598448015108 
-0.806321737551577 
0.1502619371261652 
-0.4398403146073279 
0.0414076653902476 
-0.7158237330019007 
-0.2966418251518139 
-0.03177015864370546 
-0.07831343425364011 
0.1453194885911578 
-0.2051390333404864 
0.0152299628395971 
-0.2924823155348413 
0.08938969023014065 
0.008183996359645521 
0.0130049723787652 
0.2385861789786046 
0.5692427470978497 
-0.5954206804820537 
0.4652846871936708 
-0.2234666785037162 
-0.3852474791637506 
-0.8229144608221246 
-0.4552846346506349 
0.07982378840115927 
0.1696511595201551 
0.04148054893171562 
0.04249831427906514 
0.2490737831304588 
-0.4732926896718338 
-0.1761221814305912 
0.3276241748145706 
-0.05788796255294933 
0.3536254409205237 
-0.3795581836919245 
0.4408648901292972 
-0.05280211618647548 
0.8118065359988043 
0.3569165283082765 
-0.6824241397660649 
-0.6003535476418123 
0.6406495480765209 
-1.391691428790453 
0.356557921334514 
-0.04321452428790143 
1.006525828926996 
0.2388134491716769 
0.6725092091976657 
0.3499544764982567 
0.1477847712635931 
0.3732512350974518 
0.040179531200963 
0.855136601619633 
-0.1630437571764685 
0.6647995790803377 
-0.02557145516892585 
0.001358468712820128 
-0.01185020006238538 
0.234502422860523 
0.995411424972597 
-0.06667641464718095 
-0.4642025698111347 
1.032544552694399 
1.462823581575426 
0.6855594897486588 
0.4627182661693834 
1.375197623894221 
0.5653884478575367 
0.01175402429216792 
0.7539930755662264 
0.4643478675382267 
0.7829685328175089 
-1.076460352452598 
0.222657927604263 
-0.178711264737549 
1.557614316415052 
-0.2091422279757691 
0.08258485313724427 
0.4131611113236666 
-0.3682682719615227 
0.3308153998733174 
-0.1912732589886113 
-0.1789849219564313 
0.06116667927079775 
-1.138986441043991 
-0.201141963861557 
-0.8528369524196061 
0.5110194976098771 
-0.5352181996018132 
-0.1285789850198947 
0.3617176231283775 
-0.4798838660939212 
0.8186854974298449 
0.511471259525185 
0.214788305364739 
1.114874394913435 
0.02845232926856601 
0.3865186360326035 
0.09980918508479843 
0.3022562185197759 
0.158420779149537 
1.192048617268834 
-0.5580144578024375 
0.1082387062302349 
-0.4748351823932413 
-0.1125740726164964 
1.135969714549262 
1.098275433842027 
0.125189947156507 
-0.9063040905488745 
0.2286307635671803 
1.172042442035575 
0.4789133909913155 
1.158502349859711 
0.7210629293926462 
0.06132902285413221 
1.215042723891629 
0.01998289399164213 
1.612706639486699 
0.6285651051234732 
0.04530808974684243 
0.41207216529878 
-0.05080412267437829 
0.8140374229159466 
0.8759319934002381 
0.1377776987167254 
0.5112329944626335 
-0.09243408636908981 
-0.1227637409060059 
0.186449443888314 
0.2162324202602993 
0.3266234682994796 
-1.196039777377172 
0.6851163473220364 
-0.1803909601066756 
0.6135126357753674 
-0.3286759634340499 
0.2486571113541348 
0.06959720184455565 
-0.2741204877338755 
0.193293411229667 
-0.4806179199885975 
-0.9616012079728874 
-0.9445410784684081 
0.3607050035660697 
0.6803171712115859 
1.354247821871142 
-0.04130754293490746 
0.5216583811370036 
-0.1901869679046076 
-1.082756996278214 
0.07698295620758969 
0.06196193449729814 
-0.172855439373818 
0.07689039127584679 
-0.2044069547809859 
0.2714195740955893 
0.4810715550131744 
0.4205421555774377 
-0.0243365965144524 
-0.02021562866536282 
0.8310414155353547 
0.1324235503070126 
0.1020098403028801 
0.06533477101945775 
0.9158139509315325 
-0.627744969657402 
-0.359051766587302 
0.4939910411891318 
-0.8357700006407447 
0.1783042589369523 
0.4201013412131516 
0.05265029040340383 
-1.282749810527338 
0.2871140294170889 
-1.408932236942244 
-0.3103255135336815 
0.4985336145841249 
-0.3469452912943194 
-0.4949235446082453 
1.077098490667844 
-1.499592900031135 
-0.5716313956210367 
-0.07258867934436961 
0.3114584671230878 
-0.06525529427072499 
0.2042890492529485 
0.2006828221306784 
-0.2575378412796736 
0.03925401451027287 
1.007325713937832 
0.4273979642258445 
0.03408590669059663 
-0.08161971539714033 
0.5043998029697194 
0.01002953767139426 
0.2285199247365474 
-0.4851925585632503 
-0.918189014683909 
-0.6822655955561053 
0.01992183494359568 
1.177113169036466 
0.7388578008236374 
-0.02930300100300342 
0.04355646191781275 
-0.09507021170538059 
0.04155369058456245 
0.002326243916124116 
0.2370384459739041 
0.04432030777345307 
0.2963268514529158 
-0.3854926445509375 
-0.3889785131538411 
-0.3494991080530989 
0.7927297463797613 
-0.4906833594141878 
-0.08814415815871032 
0.005044179077546285 
0.1897313755212919 
-0.3012071453422064 
0.5057627087130288 
-0.01441111972122059 
-0.3645465037873155 
0.02008491619893673 
-0.6451893961712969 
0.4050930232529881 
1.034675038049077 
-0.02083067916273641 
-0.06582235151791457 
-0.5274687283276178 
0.1591512574068668 
0.473214394752674 
0.1164203365134972 
0.06902593484020776 
0.04116958586383475 
0.3071727981881768 
0.2320962108287666 
-0.6792954080038607 
-0.01430838141722595 
-0.2577624263235366 
0.3912181903485837 
-0.1040545511996906 
-0.5768345049451316 
1.084585529079957 
0.3217457824559609 
0.2367445561796593 
-0.09742296608822126 
0.5901258476139254 
0.3404071004765069 
0.7302598068152772 
0.2921712971521701 
1.055580328364447 
-0.5961938762762166 
-0.1951545611901675 
0.02900318295028912 
0.3166176164287198 
0.5295780753060876 
-0.1650115297980508 
1.183927772205492 
0.8370026642194925 
-0.3968901564835582 
0.7333355642919498 
0.03483327243748061 
-0.1157416593685741 
-0.281572140965299 
-0.1544110874100005 
0.1186498107635589 
0.4080835466037007 
1.538320948586227 
1.686926179901297 
-0.2476116060620477 
0.1345784077270245 
-0.2313931030483851 
0.001358059545311548 
1.407044914349117 
-0.03712078945713774 
0.4232494310634506 
-0.4620239795032815 
0.1120752930179744 
0.3276929750901109 
0.4969375994317672 
0.8911982109271628 
0.2157978220210665 
0.187573346594366 
-0.08389674975459366 
0.5269370548914398 
-0.8572908968210173 
1.57745089670594 
0.9591246169426434 
-0.5375575445357959 
0.1874636928165737 
-0.008595041000990334 
-1.442158505979699 
0.110906852083763 
-0.5015322693213649 
1.02883151866323 
0.4852253928911591 
-0.02866632164029163 
0.8000234336961397 
0.3482573048907974 
0.6385958180786915 
-0.4219343944632943 
0.3590633778205431 
0.4373084234575527 
-0.4133515563794761 
0.1392886376143608 
0.3133509742611604 
0.8186948563838591 
1.058340545245496 
0.4134504489681797 
-0.3060360179370853 
-0.2127434540316713 
-0.508115289184734 
-0.3266698428216108 
-0.1416110442817993 
0.2610632086074888 
-0.4821178511689772 
0.7745814017260897 
-0.2902752499323765 
-0.3329324740785805 
-0.3238940914761964 
0.2959462726572638 
-0.07902961011109708 
1.071602976872058 
-0.2164555877975881 
0.3453814919099323 
-0.3519358864883625 
0.8132817376134258 
0.7416656005530875 
0.6639915709057287 
-0.5821754983501882 
-0.1385807084121512 
-0.2938148909242274 
-0.02883900984550365 
-0.3477531768089176 
0.1325160078752581 
-0.3384204358138819 
-0.3448077660778775 
1.69579130680941 
0.3517656918407427 
0.153670665173671 
0.3908018406454529 
-0.07099718690312964 
0.4788740599956371 
0.2386536723041291 
-0.2396567082265089 
0.8242521896691822 
0.7793260034362566 
0.2614141179166532 
-0.8605298545092335 
-0.01697834507455154 
-0.1848742573913562 
-0.9900619551533003 
-0.01598398925259339 
-1.062745280142379 
-0.2818863532896506 
0.6284624290263899 
0.01675991071718455 
0.5009309286307976 
-0.2357907381528168 
0.0005613460844049456 
0.3265068857634616 
-0.9486204635177736 
0.3460396844790233 
-0.5186429059669463 
-0.1167908297713404 
-0.790618407876885 
-0.13056718055338 
-0.3137703315548629 
-0.07778800706665537 
0.3904042248025432 
-0.4728937594119802 
0.2299351454421328 
-0.1429080622461738 
0.03090065500113986 
0.02188657594898521 
-0.3204003531287976 
0.05252315779931702 
0.5188733527728143 
-0.1871888703026596 
0.5845075992178101 
-0.3396577803939838 
-0.081060866799604 
0.2054792641951779 
1.248568390981401 
-0.2233347057573299 
-0.05654259830261166 
1.037474200340399 
-0.4370811274369899 
-0.05720456163784116 
-0.4340361303504465 
0.2503595527307068 
0.5515602613779244 
0.6009454575361666 
0.3414943209073369 
-0.399804598340562 
0.6792302261561987 
0.5373585126365872 
-0.2347252562808542 
-0.1042908454298176 
0.392787232830991 
0.09217560546719392 
-0.2995666122118062 
0.7376433068827708 
-1.297493995236969 
0.01666411328614163 
-1.041354098166412 
0.7399784685228977 
-0.2379048196673126 
0.2566646216901806 
0.5859207992558377 
0.09140979088882181 
-0.03253949481345284 
0.02450428854962207 
0.001861633538907998 
-0.8605997450663289 
0.4256436563770294 
0.05160403507551768 
-0.4187891479345921 
0.4745453838055951 
1.003019264250558 
0.05406768323206519 
-0.3448193135392961 
0.07632744258413557 
-1.037799531295612 
0.1778586830125903 
0.1446707687296671 
0.007356094446121834 
0.4188107240411397 
0.1411460876830724 
0.4163407122217019 
-0.09690465343415833 
0.08900717322820403 
-0.1188171418948378 
-0.4064383103082403 
0.6126292839045812 
0.7985787534422272 
-0.1339313067040618 
0.2862984580646056 
-0.1518193298371204 
0.678392792436841 
-0.3585551468228207 
0.9746328957813746 
0.279797816442963 
0.06326674425338268 
-0.06964535608641215 
0.9038618600484271 
0.3739508960038127 
0.6633762814340121 
-0.6150974416323233 
0.6527788084059731 
0.07294262551139094 
-0.2059310644322997 
0.2658162317993947 
-0.183095940849313 
-0.1933214150822924 
-0.1357665240636473 
-0.09610088279364985 
0.7124573761166332 
-0.3862872330646319 
-0.2688075231788845 
0.04762301185610524 
0.3074786563489356 
1.096751449089548 
0.6847226955027286 
0.3628656735062829 
0.5798896846760637 
-0.4705005697732118 
-1.252048187623237 
0 
0.2232849080871899 
-0.5155232287766982 
0.02508086749536436 
-0.5086614155751366 
0.4413532943567161 
-0.2087404308758434 
0.3607300103990901 
0.4605069734398348 
-0.2869596202514368 
-0.5255742520021225 
0.5129947429761424 
-0.7059059221384997 
-0.9369175517936091 
1.078181580465883 
-0.1239007884925714 
0.9851461414297605 
0.1621167004447021 
0.1776206727158029 
-0.7883131536309336 
-0.9003868672547511 
0.7030529303944499 
-1.021522292576312 
-0.266932512714188 
0.4431622444594857 
0.7253071296319979 
0.2745059021585382 
-1.758914192823789 
-0.9476447744956875 
0.07265088660942895 
-0.8329218753804324 
-3.615183142062377 
-0.1417205221350561 
-1.086791142817571 
-3.629671589687795 
-0.1213133837199974 
0.1261065941400413 
0.4408166505581498 
0.1974017615712351 
0.6845665235610662 
1.133430785953557 
0.8205704887980756 
0.1323877792615719 
0.3209376084949833 
0.05005130899193879 
-0.06484874556519836 
0.3674730393959849 
0.0135864633309125 
-0.1360915261140678 
0.5247326388055195 
0.2399663879807962 
0.4800869176829985 
-0.07104748745606244 
-0.002103823954966656 
0.4993615668300525 
-0.01524038901523024 
0.1048754688174882 
-0.09407771028089909 
0.2276863112727538 
-0.467528591946485 
0.1524537163904326 
-0.1206058446230727 
0.4245036753691156 
0.393458500667195 
0.4892779509848997 
-0.0311511571787628 
0.6366652078994197 
-0.3947934042938274 
1.864102156737755 
-0.3959071399093537 
0.9929141343727628 
1.27872983391053 
-0.06340665499332593 
-0.3184489426831406 
-0.7916508406234422 
0.9350216913099196 
0.06561573173807997 
0.2473093821114891 
-0.4266447193333202 
-0.3158493481058663 
-0.2404647796050057 
0.2361130492551577 
0.3566256833420565 
0.8054920202796663 
0.9377819612410865 
0.1254194706049392 
0.08310014329421095 
-0.1551885869957292 
-0.8433599256443615 
0.6038518841971247 
-0.249344123175759 
-1.414073977088782 
-0.3166985423741455 
-0.3342896386219713 
0.1254875656699972 
-1.314714775447249 
-0.1556112161770261 
0.08144776333271067 
0.08746156647488017 
0.2132432857678664 
-0.2252629643043213 
0.690904539210288 
0.4432869413011652 
-0.2089468748117386 
0.13364886435883 
0.6507711785619602 
-0.4166420718852359 
-0.5104407009907369 
0.9647006016518349 
-0.7157693581859557 
0.2941853350846245 
-0.2691978621059458 
-1.253616237455239 
0.3445695645319973 
-0.1414299382854425 
-1.120837158691387 
-0.1498016820169296 
-0.4278753273184758 
0.3303025394170755 
0.1135669326488228 
1.55041947061033 
-0.7259549991527899 
0.1452091446844597 
1.184767267891742 
-0.1687144083035858 
-0.8299972723705155 
0.1992697191757191 
2.074474194118602 
-0.8006278433352072 
0.05740854486221461 
0.1474681693545155 
0.7324784102424128 
0.7122529268250242 
-0.2569047433579166 
0.3044839634767775 
0.8214084997943388 
0.1329741533543574 
0.07680567512833084 
-0.354004214148872 
-0.148596899344238 
-0.05353959927471483 
-0.918187310916062 
-0.1112319298691406 
1.00390299522675 
-1.985072153939434 
-0.8698881830486638 
1.219632762028598 
0.7894798696928855 
0.3486051868419244 
0.6888400134041018 
0.2179923482299319 
-0.4901001622384767 
-1.330019652649963 
-0.2251394611219792 
-0.1492717220135896 
0.1120916102321114 
-0.06592673865011733 
-0.3833607332525129 
-0.7802334426031592 
-3.724952240087231 
0.3200099735466758 
-0.907364976723096 
-0.7842321505247711 
-0.1949940164230704 
0.8780733659869909 
0.7613949925767272 
-0.01829371603707922 
-0.2171228319127609 
1.387290332628387 
0.2393503290972968 
-0.2251569386465064 
0.6963467228207043 
-0.4330390125811979 
0.2064643168065087 
-0.1963407985581247 
-0.6148381522553901 
0.02240658724157103 
0.4680282690108963 
0.07661263232608334 
-0.1640603241120711 
-0.1891137683450888 
-0.2596909267752054 
0.2718040487534646 
-0.08217773715012483 
-0.1342416639143407 
0.3455987377934966 
-0.1072715642431671 
-0.3177264594935003 
-0.4239744241817114 
0.4715175764829018 
-0.3612623735584585 
-0.4239744241817114 
-0.6581792893508732 
-0.1915783987398499 
-0.8998877775805384 
0.3742801023084641 
-1.576389869326229 
-0.2336832444782171 
0.09470553157521069 
-0.5657316316106703 
-0.2636630969333895 
-0.4598994612122016 
-2.590472327170779 
1.624137902946201 
-1.052918430071229 
-0.1348600548758476 
0.8134802073030262 
0.2824706860684256 
0.896671630988465 
-0.2836657744003208 
-0.3846321252397034 
-0.5964580036872136 
-0.3410956169353884 
-0.548595390418424 
-0.3098375119769131 
-1.38210515279736 
-0.1056946434985708 
-0.3253260121629118 
-1.335687337818713 
0.2132197047019759 
-0.3454212223664628 
0.4681563891462823 
0.298469443931414 
-0.1440859782657015 
-1.150045756293675 
0.2311583305837282 
0.3530362742591812 
0.3213781630679449 
-0.771820245709821 
-0.5857025797240775 
-1.223612007837635 
-0.5902459475606272 
0.2797635896961254 
0.401104579327935 
-0.2419434534043855 
-0.1992589643604301 
0.0543639223386107 
0.7614112018813637 
0.1767362674558705 
-0.7461557510172595 
0.3194476787908425 
-0.4111983031015758 
-0.1343621332873777 
0.3851048362605453 
-0.3102229681957415 
-0.5182271700311423 
0.2121914506731182 
-0.5031579161754034 
0.5888660851854736 
0.816940724171172 
-0.1036080637067913 
0.6761352024685131 
-0.591008860359567 
-0.3119562273506234 
-1.75600832477948 
-0.2851569253548865 
-0.5636693244523806 
-0.848960183712081 
-0.934903705517237 
0.3650201190122673 
-0.5328289734614973 
0.4292365328051491 
-0.1467768700063214 
0.03556873134030068 
0.4124751263149711 
0.01979421512377925 
-0.1318226636758053 
-1.087177865490076 
0.6689601920839949 
0.1006653118883471 
-0.050087228783221 
-0.1210443092949692 
-0.06404691536358117 
-0.7542257105441554 
-0.503788746257572 
0.4136535231165162 
0.02036197746193645 
0.1578543631849803 
0.5629418729762756 
0.570604096922271 
0.8244964457121228 
0.4508279794849811 
-0.1683913118828053 
-0.6035847784371351 
1.143536901003307 
0.105703903741444 
0.170111855422837 
-1.073556338023132 
-0.1721805401721447 
-0.3169930583443641 
0.7135060559149274 
2.2696067385156 
-0.4398874894644214 
0.2273368243746038 
0.1171491559111264 
-0.4125458691100123 
-0.6524544538530421 
-0.8983951650095681 
0.2020813525636923 
-0.6325732988125007 
0.1250893489812872 
1.110705562696443 
-0.3717805261235498 
0.6425404092241178 
0.8747733828142524 
0.6433460315840311 
0.1680805491210373 
0.1500519337932246 
0 
0.4846399014033788 
-1.085731461246006 
0.1075234539027441 
0.169722661730933 
0.2170228731438721 
-0.4132262849995285 
0.1851544555479063 
-0.5782235295890171 
-0.4251295882988003 
0.6253322299508284 
0.7146580384046273 
0.3377353690195904 
0.2794294251497776 
0.4645924622144406 
-0.5423964764855363 
-0.01856226065353606 
0.0933630397636656 
0.9402826399810392 
0.3723670112898214 
0.1002877414002913 
0.1155996034499676 
-0.3667782280788486 
1.13640869893509 
0.03942551002687298 
0.3887763467463407 
0.01408543206865301 
-0.1072610658619875 
0.1498478816264921 
0.01933963676882006 
0.1516856964126639 
-0.3028243358575353 
1.422666363991115 
0.631316166251657 
1.124011664927857 
-0.6133609089934752 
0.3482409703930046 
0.09666614276497398 
0.4396110528662748 
1.197223185958299 
1.289921268838023 
0.03243857967787887 
-0.6245224520050809 
0.4936509213851458 
0.3985591071491114 
0.3347653076261231 
0.7725396004103695 
1.043057192937194 
-0.1720808119234235 
0.6576768787964282 
0.2332249407670916 
0.0278747413115416 
1.030427235176955 
0.2422861096192941 
0.1753063838636708 
-0.3255897120978433 
0.4609878417459813 
0.3056560580430403 
-0.1599448982308121 
-0.06206199218469306 
0.1831163458819469 
-0.956008724545608 
0.0697178587541446 
0.4240175071856893 
0.7458997858608963 
1.562962921136706 
0.08737803633537865 
-0.2487893608220679 
0.474463537742417 
-0.3939973300269949 
-0.1046036336194247 
-0.03933087420170371 
0.07408800297486851 
0.2882743526434724 
1.076778715876147 
-0.1518455861029101 
-0.06000278452031303 
0.8571855164901047 
0.712678704434595 
0.4687117256433953 
0.3498318871693817 
-0.4779688993738545 
0.8342821109703609 
-1.908473175779947 
0.152296563678788 
0.07593695058828764 
-0.3110041562921796 
0.6432532119596346 
-0.1435483524183657 
-0.8365264982007242 
-0.2628362003832401 
0.4822771083825646 
0.1070268670154632 
-0.9223357733053131 
0.003800893088822378 
-0.3130841151873556 
-0.8519307998495587 
0.03202860810799607 
0.03487906910632751 
-0.9239714575141522 
1.03908456397336 
0.2767702163608404 
-0.2441876897798688 
-0.1776901676452885 
-0.4986925986827965 
0.8560815914332747 
0.5019534896347456 
0.08742220931078742 
-0.0323340238647018 
0.2609876195405633 
0.02547257912711607 
0.346896925043662 
0.2162823552171005 
-0.1355692844218806 
-0.3034671809938457 
0.6027176474281019 
0.5671682890330101 
1.028163676333931 
-0.3283028030123635 
-0.0491486139566487 
0.1322642029979749 
0.2972693378199924 
0.06191528495629692 
-0.08104322391849192 
0.399450062235599 
0.9099058604126279 
0.06890997159468504 
0.7207135795945856 
-0.114198492738748 
-0.6742954425316595 
0.2647849857875365 
-0.07641184707997188 
0.07499327478017978 
-0.4081616302467168 
-0.1464036055617836 
-0.04906235000122219 
-0.04906235000122219 
1.626505339438155 
-0.2225247658839821 
0.004059578026131946 
0.1320602398032823 
0.3807556151584725 
-0.4703290592419983 
-0.6019050256312704 
-0.1979265837407327 
1.79250395289237 
0.04060242492872052 
0.9629488246262223 
0.2744929680167861 
1.59807246809229 
-0.1730372183807585 
0.5781468885920106 
0.6056623841001527 
-0.2469548195708562 
0.3931418451898311 
0.4814106998339763 
0.4240458309547255 
0.3614013675407161 
0.4320735061565811 
0.0009345051887138973 
0.06232792760139037 
1.625132752037782 
-0.8976359117405099 
-0.4465835583304465 
-1.259593697431993 
-0.4600141371335952 
-0.3084779345528758 
0.05774179917420614 
-0.01441842742572988 
0.6267823646496141 
-0.2739299840837846 
0.5357485637596855 
-0.6277825593103437 
-0.4005995949282167 
-0.07088269505255153 
-0.4331941160770617 
-0.5334117778989197 
-1.275875877512872 
-0.8063330901843156 
-1.195522149708665 
1.401505654328284 
-1.104561417608876 
0.7688579112270908 
-0.08424412577569573 
-0.05077067529155688 
-0.5731809294625909 
-0.313290547807803 
0.2659841487157217 
0.5387676439425131 
-0.04194040531895544 
0.1847630063630718 
1.83490810426648 
2.165080880762853 
-0.2722800948748882 
-0.4016312774611874 
0.9979195067947684 
0.8246310284142321 
0.4460911766531701 
-0.8179683150146865 
-0.01394650678107819 
0.01370310546013311 
0.5230373049449993 
0.3828438433268447 
-0.3585112956386286 
-0.3954356104312695 
0.6854547082991758 
0.4679734609684337 
1.150817856195134 
0.6661227522582814 
0.6689211489796554 
-0.1630616644342788 
-0.0480865701457014 
0.2328494080896665 
0.3445630030164059 
-2.86801373218296 
-0.2458991236753765 
-0.1544346763878345 
0.2483465431855446 
-0.4185402193898521 
-0.4405791588517446 
-0.7175324891873416 
-0.3407976432064679 
0.9826877485715481 
1.180226966292686 
0.6301101946745095 
0.1592428164882988 
0.007893557874018388 
-0.7973664014492819 
-1.214756538879313 
0.3760490367991675 
-1.138706320332724 
-0.2624764044181771 
0.6918522768950865 
0.06935121635459686 
0.1060367449623475 
-0.003774688677764809 
-0.5573976258513402 
0.1047305343610505 
0.1200472021457535 
0.2193894146485323 
0.7662614218592626 
0.5572469180190621 
1.185248205365468 
0.07922387926915887 
0.1072887134535538 
-0.4307417868486594 
0.1450031550049004 
0.571360010777477 
-0.02163834035279643 
0.2776868455903448 
0.6539494714536449 
0.6744005189917057 
-0.189542239495157 
0.5669038277245755 
1.054715999379518 
0.0394196648078491 
0.003862111492482625 
1.12505198101017 
-0.1852743386622127 
0.004758926443026688 
0.3857313311193176 
0.1698772632783843 
0.9293291997793033 
0.5542879816593825 
0.00376353152489286 
0.4573825912764519 
-0.943827457716921 
0.4668566981137686 
-0.1818568833578881 
0.3525957651491001 
0.6008056737665675 
0.4287758778982745 
-0.1608443640453727 
0.4506197579495524 
0.095665453994599 
1.255595244552915 
2.304418232395305 
0.549807643279886 
0.8173522150198141 
0.2624344374945811 
0.9377842896542298 
2.121196636261794 
0.8536516595242906 
2.40608193615266 
0.3673523707911265 
0.2962586938051583 
0.670179688702506 
0.006101526974945279 
0.1112987810451825 
0.3663033386028951 
0.2559014878704318 
-0.4395577269675134 
-0.01262737365587663 
0.179254719804947 
-0.052334042192868 
1.159890068930158 
-0.378864745226219 
0.3097209816447782 
0.3700807182860721 
1.597472040319099 
0.4728008905905172 
-1.340244956103308 
-0.5075172074770047 
-0.4937066863642423 
0.1675703929883788 
-0.2019697260405793 
-0.0724560126272743 
-0.07059485579060801 
-0.3811704700649559 
-0.06862945662247075 
-0.2651170079213559 
0.3011298184346947 
1.989381601249036 
0.1270679069203276 
0.01212448152278318 
0.0001207929372930723 
0.01365549056037884 
0.9564811419737889 
0.866195648862677 
0.5963957385739324 
0.4826029619276045 
5.733473515206729e-05 
0.1456140312256342 
-0.03843666992687904 
0.8446456506431063 
0.2929353071901318 
0.001056354130319649 
0.6595142982724941 
-0.2747042660413698 
-0.3331196968725567 
0.3006944168223465 
0.4803148471950466 
0.2152007345654424 
-0.005057322332893431 
0.02536292401251749 
0.3768650405382941 
-0.2419494914172588 
0.8444820545112663 
1.074998590304944 
0.2192276894386643 
-0.2829154284427853 
-0.5566801520869968 
-0.263732617986393 
0.5488730100059207 
-0.389422319841202 
1.074918033930062 
-0.02215503472432795 
0.06556750973325315 
0.8456305524494754 
0.03707458803405351 
0.0704037729836141 
0.3187092197619943 
0.4844896782274497 
0.5242397561382743 
-0.002798691092544704 
0.2054346709982207 
-0.2606382893068782 
-0.07489469240844315 
0.841072236457158 
0.000267154308915137 
0.621386781207335 
-0.5333389998356851 
0.357265484888978 
0.05176966212757293 
0.7660726928338299 
0.7416367653867417 
1.054409264738046 
-0.321297214707172 
0.1134832388418015 
0.1578985968677529 
-0.101943315015399 
0.09532562584475317 
0.3094854365203819 
0.07252419335912925 
0.521953952300318 
0.08712964662496049 
0.7851628737409163 
0.3687868977930177 
-0.7080212832294734 
-0.04935981515702373 
0.05050252923272889 
0.9356580989024177 
-0.6902550131089461 
0.2942467322006164 
-0.2714848901118694 
0.5349964150290136 
-0.3843836124442384 
-0.3125473981560233 
0.3717199652576134 
-0.009207751380337524 
1.722916221069088 
0.2292964370051838 
0.1602475065169663 
0.1184601869945685 
0 
-0.4755169003877369 
0.07526925134437584 
-0.1686688980643003 
0.5106110806823347 
-0.01854384984942424 
-0.3685279767751422 
0.9402506042312282 
0.107807030678593 
0.9954761810084526 
-0.4370739851679082 
0.6130001286089868 
-0.7245335761830058 
0.2693322018422017 
1.345450732633132 
-0.0224961762644928 
0.1907559678184128 
-0.9297943755497949 
0.5698509229869277 
0.9781326080355039 
0.778630118859483 
-0.9686741943780297 
0.08802144732605585 
0.05318652686204899 
0.3573760758935853 
0.001676733247889009 
-0.1135459091677695 
0.01623291447992788 
1.07126075959252 
0.6602213432578021 
0.01557075219558953 
-0.3027717980308258 
1.088474067137797 
-0.5571314201843639 
0.02256555717636743 
-1.440239036901979 
-0.3921919955451201 
0.2451113346436239 
0.5916434773190267 
0.7024069403883053 
0.3696309635449694 
0.487521938780789 
0.09179896355620716 
-0.4447665931081116 
-1.121809193981696 
-0.5478583222619642 
0.2588215009599594 
0.1472832885119066 
-1.007953621121465 
0.2118500120023362 
-0.2502963148432735 
1.783944013290763 
-0.5179024441100876 
0.05834049075131148 
0.0460898930540635 
0.05892207192578205 
0.08743509188551127 
0.05892207192578205 
-0.01327180648297675 
-0.06415559513560751 
0.5663037666685292 
-0.6152221519694046 
0.05643969260385625 
0.5033669683725223 
0.6087298234810592 
0.1731247767959554 
0.373758480366949 
0.4528459241456788 
-0.2677078681496071 
0.5835548493626448 
2.330683071541743 
0.5544052809653798 
-0.1988453556834543 
0.4027587123197161 
0.2261530068970747 
0.2746562598727254 
-0.4922297064148454 
0.8374998327182099 
-0.6139344099669171 
-0.7416406684116029 
0.02673518835999278 
-1.081039743872648 
0.1814987810466685 
0.6749647061277271 
-0.2622969249440196 
0.439799170876619 
-0.2997734203466997 
-0.5829029404358878 
0.1678656819634658 
-0.3740474295223883 
0.4460242834298658 
-0.151396897093403 
0.598905489442798 
0.1183534459312847 
-0.06424545806251999 
0.07980101913776771 
0.8445047166640119 
0.03410884178288043 
0.4678943698777017 
0.177374385843055 
-0.3263069454729586 
-0.7472620847120409 
-0.03158389213554189 
0.2126745818078336 
-0.2560320388951795 
-0.2047280681594389 
0.917582722818388 
0.09091034228028054 
-0.3707881947365304 
0.6209380739942452 
1.296647061440075 
-0.859890966808156 
0.5348786322051645 
0.5154422192513783 
-0.994303085543686 
0.5819052698298761 
0.5632446768120468 
0.7728290485960811 
0.5721844809994686 
-0.5316457497631317 
-0.6787103712418977 
0.1360847761104208 
0.2006180248446192 
-0.09114920231191073 
0.1042898605575031 
2.075622807878532 
0.3187472678275096 
0.3414045445704708 
0.2322820986189132 
-0.7483567578119876 
-0.5200213158205421 
-0.07856066614858388 
-0.7590441863861377 
-0.5678867550379764 
0.4731739721823423 
0.5673797597784381 
-0.2288289804887977 
0.884012287738993 
0.07052558814998033 
0.1646198913296096 
-0.7411126199004909 
-2.04726402209163 
0.0960152575755433 
0.6671187223783758 
0.5245601977295964 
-0.236786066619052 
-0.2840759073115714 
0.3719960442857624 
0.4652293353519789 
0.06332579286088771 
0.1652314457797067 
0.178292501203416 
-0.1204716043810127 
-0.4686404016901727 
-0.1478717429391119 
-0.4633730879308261 
-0.4545480375517071 
0.1632333449585079 
0.3504240087127695 
-0.5166378645983261 
0.644374576571227 
-0.2527372214118486 
-0.3108411180493419 
-0.2362418193016077 
0.304483948587534 
0.02645174006732606 
0.1510794266584823 
0.734020248520785 
0.1161984751144767 
0.07762133477047549 
0.169239686500669 
0.09784650552952572 
1.311358636897722 
0.5290621726324073 
0.5370034799740232 
0.3399502556427493 
0.7098985652884143 
-0.3684945767768415 
-0.5394870968015814 
0.0006698134279053987 
-0.4838596579791944 
-0.04324838189240426 
0.8607834382359589 
-0.4078852727296877 
-0.1588818374518064 
0.696029631673121 
-0.1161953106407972 
0.3501540753334088 
1.309380844085053 
-0.1357530677470964 
-0.6342620300064856 
-0.4236635722355237 
-0.02403684443767105 
0.4665050381118213 
-0.7718328737415845 
-1.497519470171214 
-2.84754866598145 
0.2528888184375321 
-0.01866620200967953 
0.100209563550555 
-0.1995468021784715 
0.3950720962649882 
0.3224886215626834 
-0.01879655201380524 
0.06432393526200568 
-0.006489537376638065 
0.6664003468126594 
0.834991953199868 
0.3185222713701976 
-0.04021089235980455 
0.02184907216059168 
-0.08661579899532693 
0.7202640463598394 
0.9652569714183452 
-0.2205997702573933 
0.6703210202713573 
0 
-0.1129731186489258 
0.3594219461133011 
-0.1073633667629381 
0.1772427845826568 
-0.3744014284633498 
-0.03399057509874574 
-0.4840258592610367 
0.328320468606518 
0.7497033680323026 
-0.3815976754912697 
0 
-0.5691070395677243 
0.1169844870633626 
0.5817201620202669 
0.2056273079821822 
-0.8540831674228787 
-0.4756952168788192 
-0.2159207748325752 
-0.545123687684037 
-0.8982899190267134 
0.1753140546020014 
-1.49127454226669 
-0.001810346350414882 
0.579103449525643 
0.01249805176002435 
0.5024152588685371 
-0.4032506532870547 
-0.2137350734906086 
-0.4118229172223651 
0.2920156093328539 
-1.20250086672654 
0.1536881932470149 
0.003303802672774782 
2.038446312122098 
0.003429056536581397 
0.6191799889044644 
-0.3774920636848325 
-0.5684158719946673 
-0.7237389904984132 
0.7524059687161033 
0.1264781017797008 
-0.1017120640656457 
-0.1695443396302926 
1.133583104350866 
0.1744619271189167 
0.38641113508149 
1.537443242292095 
0.6897850932958275 
1.293571762556051 
-0.4857827152679784 
0.06313312661292186 
0.1078304681092351 
-0.1314953604951552 
1.398207122575115 
0.1399645908174245 
1.598385407565772 
-0.01256863536461758 
0.04283295374700603 
0.3904092486514802 
-0.1288717365793375 
0.1488992897672955 
0.1822194420348416 
0.2776168359463576 
0.3232082627693914 
-0.4306579666290295 
4.99944571447716e-06 
-0.5235175430146913 
0.8248982221730616 
-0.4861406899537148 
0.1711567769642234 
0.6256605861492396 
0.1528248985938531 
0.1584428511498191 
-0.9142356197689311 
-0.2432609831014867 
0.1699644606244474 
1.014750202441387 
0.320083256535119 
0.09454599286999377 
-0.7654122678092806 
0.1220283472606427 
0.05778472762924262 
-0.1799318386183701 
0.0007168147709857413 
-0.1743361357393054 
1.00436573173521 
1.210919923685327 
0.213108744266758 
0.4710055904257496 
0.4100948110256859 
1.049855049643924 
0.3650717769226828 
-0.214270406333819 
0.2281837402160259 
-0.4290570037430411 
0.05211534144809811 
0.07649227554943494 
0.5366812040713254 
-0.06090247354107769 
-0.3457678237979948 
0.2776183731977195 
0.7812234219082754 
0.7974585055847008 
0.541420044050931 
-0.6176166961721717 
0.2056634631962058 
-0.7364300115790932 
1.796436251253719 
-0.47427929618241 
-0.01412042715213399 
0.5770914684501538 
-0.2470087663864474 
0.767504718179702 
-0.5665629774016326 
-0.4952236083479777 
-0.4267591279685201 
0.5131869386868725 
-0.1639404794840417 
0.193682392873462 
0.3819998116476316 
0.1730763462002175 
-0.52673951649754 
-0.2470087663864474 
-0.06583115640467707 
-0.1826165916916276 
-0.2327215986913082 
-0.2470087663864474 
-0.2470087663864474 
0.0723581489728212 
-0.387430163133498 
0.03421710315777896 
-0.2468670517181287 
-0.2333739377891535 
0.4471293763436497 
-0.2143177661048315 
0.4160827910298488 
0.5489368864421968 
0.6392609073621649 
1.010337739810052 
-0.1224634986654639 
-0.7042140329901946 
0.2834887210241044 
-0.1988206438138982 
-0.3578617219958745 
-0.1230940884686404 
-0.6532013667531633 
0.3708828463494298 
0.3481897474913922 
0.3434549638452841 
-0.2581114304187197 
-0.9980426801184922 
0.009714031981581467 
-0.3766667430526272 
0.9401380067821132 
-0.01286994692828602 
-0.2334127924391486 
-0.7570444587817559 
-0.0492235889785466 
-1.78180668247367 
-0.1797374500371092 
0.1847769553603704 
-0.1336026398399283 
-0.7046833092019033 
0.688900238518271 
0.6985014439045489 
0.2145910888677499 
-0.2272504888851266 
-0.4519184240446358 
1.154557214019405 
0.5692097881638424 
0.128136656517843 
-1.080819187110883 
-0.5009332873965401 
0.2755704354665223 
0.2096848439991785 
0.0822021378876142 
0.8157449901464966 
-1.491197300212504 
1.543097947896267 
-0.5895568370046751 
-0.5493597543041702 
-0.1268443533401998 
0.1117541411699271 
1.343846685021627 
0.06805442949799254 
0.1224975292777677 
1.21809451987177 
2.309859510558455 
0.708000445484342 
0.4365033408898016 
0.2173533919168177 
0.5737443452425934 
0.36753772293777 
-0.505337783682167 
-0.192989234498037 
0.01238148845214072 
1.059842989787632 
1.492062969240116 
1.527035847500939 
1.123521417509235 
0.3844916960535803 
0.366055865196278 
0.7428717544212226 
-0.579053424702526 
-0.7974554642261877 
1.388095596122659 
0.5577650840742798 
0.03687628377955262 
0.03687628377955262 
1.187076258111149 
-0.3950495557215294 
0.9177564104775799 
0.9169617902902172 
1.646272641013787 
0.08323954755390817 
0.547104088292062 
-0.002843727437324157 
-0.2671807977622445 
1.345832473583733 
-0.1579186231752361 
-0.6205930473266289 
-0.02999143625733158 
0.8342402055121318 
-0.2376083709507811 
0.03037759636249689 
-0.9587089712415189 
1.371133433548935 
0.3849419218689811 
0.05935222067186605 
-0.7358915501978851 
0.08603460824772199 
1.319929569565958 
-0.4015036481813068 
0.3430727346810997 
0.3574670059554403 
-0.1552456212471361 
0.7603523823227183 
-0.04496600553018221 
1.952172935525452 
0.8760287702855157 
0.07989989137818337 
0.007128389230411926 
0.007128389230411926 
0.02986342470390502 
0.4038909587604023 
-0.9348148651051884 
0.370669132602984 
0.3744593576982069 
-0.05251245299809397 
0.6825912610376865 
0.3985584912749718 
0.3607921559947733 
0.188958567030886 
0.1879394230490052 
0.1194460977909219 
0.4769946816352094 
-0.3150535198766523 
0.3504253484969439 
1.239057512384887 
-0.4448872731630527 
-0.7720119314182077 
-0.8800474898769109 
0.08340908954147916 
0.285566461639315 
1.419764606765245 
0.5072157607285589 
-0.3678182347277785 
-0.4188891386069073 
0.0690279108136479 
0.7602667950407995 
-0.3134303997014449 
0.7106325914424649 
0.2185579447501616 
0.1182181776136878 
-0.2990190750932702 
-0.3507306687398368 
0.6968019423842196 
0.41645802728481 
0.376069905435373 
0.7117623703149065 
-0.1865001551986969 
0.7327893633435711 
0.03126238686165077 
0.3487519265376477 
0.7115185134195668 
0.7608764951697643 
0.8804875204121621 
-0.1443838492314602 
-0.09797626878380307 
0.2882900527134283 
-0.4092483115460467 
0.7858720487676067 
0.5712531092559366 
0.1970895978370605 
-0.01310879569703626 
-0.265474149902225 
0.2778167509695606 
0.5208326836225103 
-0.9070116727571802 
-0.288583832575898 
-0.1742444498975263 
-0.6431919332062446 
0.1027370237763806 
-1.738889069217997 
-0.05266055621010557 
-0.04725438833606026 
0.6259643261683734 
-0.6165601941313483 
-1.123351626654728 
-0.5297114673440214 
-0.670366093152452 
-0.3015782807430132 
0.08992679068635791 
0.9511844138765019 
-0.4772661433927406 
-0.06682912366016648 
0.6788162374117317 
-0.1070646080659104 
0.8841314590018775 
0.2096532792448759 
0.4191414916380682 
0.9221319216817566 
0.4448542496924704 
0.5519166216394541 
-0.2071756351215966 
0.4059541458330999 
-0.009705832233947428 
-0.2478241414801504 
0.9499495723659114 
-0.2783988029672379 
0.3863582918463555 
1.144701048093266 
-0.5279962693747078 
-0.2664920489087759 
-0.02637794158880543 
-2.894644661675899 
0.5812119145922381 
1.132632118836952 
0.1858144103902184 
-0.1235207512960822 
-0.09753518931388268 
-0.01875855897788379 
0.2274506425637228 
-1.031322038054831 
0.01336052439202215 
-0.06204776188798051 
-0.0304721126691375 
-0.07195148451518101 
0.004588720621810404 
0.4562680162049152 
0.6857993706634323 
0.1479242352731106 
-0.3269519446923917 
0.1898446240706757 
-0.07578782597247366 
-0.2532153671562912 
-0.1700264629956087 
-0.598509708496489 
-0.6458268822857915 
-0.7997214340574395 
-0.865351490674404 
0.585162509444201 
-0.03807543218947821 
0.02261984944219232 
0.4045294577166295 
-0.7272536965558636 
0.2081006504838327 
0.1822779725964553 
1.818886254719856 
0.06281200886354624 
-1.512628421220368 
0.6096479069829841 
0.2592223973095482 
0.2050006203143252 
-0.1613409764322358 
0.3063423659816358 
1.055232862517572 
-0.5309890777045249 
0.7705187556331873 
0.1339251983024952 
0.6775249336724389 
0.4161755301258518 
0.2917302139816879 
0.2916966280886408 
-0.09215229917579608 
0.3510140362671347 
0.05757765367584591 
0.3310091214484559 
0.06845009826709059 
0.8602984065939625 
1.399171893646031 
-0.5234007669246338 
-0.4789182599178593 
0.2913735964868996 
0.2101956557966432 
0.09173971117868948 
0.7631591123580865 
-0.1907291142544243 
0.739482096085146 
0.08357842682304295 
0.521071800188096 
0.2631385841308448 
0.8745060930348741 
-0.07981723369018522 
1.823826731231598 
-0.00584265382072284 
0.360581658392926 
0.1072415450851263 
-0.09261543816910515 
0.04188465069885598 
0.1711973378762902 
0.1125017954235559 
0.0648921609968604 
-0.01894182025776477 
-0.43300432138123 
-0.9276357300967013 
-0.9640506907013171 
0.1289544121816961 
0.5778214971903758 
0.1584605135913525 
0.0680150477323387 
0.1791236955144757 
0.04188465069885598 
0.1065446224179761 
0.06296491143700021 
0.06445196358518826 
0.120394863115969 
-0.2699734710001337 
0.04188465069885598 
-0.03889934562117008 
0.007176856162177832 
0.2098327953394399 
-0.3126440220072946 
0.04188465069885598 
-0.4183185156134933 
1.323214740804167 
-0.2237755117573378 
0.2982770692638887 
-0.1989974056063437 
0.2561640764236218 
0.02531276266197696 
-0.5450405506442276 
0.06080644188383974 
0.3326102306535554 
0.08588607024857224 
-0.3396094336801279 
0.04188465069885598 
0.04415231052024219 
0.1192864378220642 
-0.4587393164485609 
0.05081538331923634 
-0.04190788613639862 
0.1363538284425838 
-0.1281027803052554 
0.1500687365912058 
0.1256246763392073 
-0.708064857630228 
0.102112211604459 
0.228130879039439 
1.354390185355041 
0.02062018788517877 
0.3040931337258496 
0.208906139325662 
-0.005987741951520263 
-0.3312065306418526 
-0.3515526535163694 
0.7899734145043341 
0.7722901741949069 
0.3552156141776098 
0.3939068540418167 
0.214519864498191 
0.261334617598 
-0.2178938664598928 
-0.5659937194706106 
0.09286344619238898 
-0.01809443540980122 
-0.08823149824464362 
0.5551513767517795 
0.3943558460786516 
0.2070129800712268 
-0.4587726041140943 
-0.8620138025878158 
-0.1255104203248258 
0.9334571348416847 
0.08475441639574458 
-0.4185409733276239 
0.7967115498195614 
0.3398316203756298 
0.03897353015702848 
-0.3126638565429831 
-0.005975826361869161 
0.1450801253354769 
0.0516578861547312 
-0.2029776245993543 
-0.07440726466389716 
-0.4024171455022029 
1.288147176911753 
0.02231948787012324 
0.301513807306959 
0.3953455281142787 
0.1631728849457929 
1.354527549413059 
0.06416450952601353 
-0.4648290235669085 
-0.1851441527602345 
0.1045378578591132 
0.2501392986240181 
0.6169471426403997 
0.2576027258997911 
0.1015427915119306 
0.1015427915119306 
0.3861704244804194 
0.177330159404855 
0.180264609381483 
0.7663718086457452 
0.8323110121533869 
0.4444723102545072 
0.2011211498673905 
0.2386656150380393 
0.04660424272259076 
0.3959051856466835 
0.2544635839184308 
-0.06874821314281644 
0.1051369439738561 
-0.3762890791485504 
1.484189951941415 
0.2064332725834017 
0.2226176746274872 
0.04403910002834203 
-0.1062824918589781 
-0.09512989374790871 
0.6227200038846223 
-0.16216742355765 
-0.2786985682158939 
1.015005430442087 
-0.3334773512427625 
0 
0.9008014674347411 
0.845283859128047 
0.6329611881227477 
0.2111469052786863 
0.4687192199899242 
-0.9908207497256729 
0.2317740719440941 
0.02063481595583806 
0.5887100877330328 
0.5532492580870045 
0.5050671813762062 
-0.2318751962779673 
0.4839940790433676 
0.1603296017109989 
0.1606053990520854 
0.2734812621051795 
-0.5826792581665984 
-0.166431849737874 
0.00755772647525927 
0.4713579934354381 
0.08126559239687109 
0.08884563533066228 
1.005129767932528 
0.2840658148016915 
0.01193839659422151 
0.3844426700372054 
-0.6536713464768489 
0.2833155181343119 
0.3915368638664846 
-0.483965154808203 
-0.8084586955680227 
-0.5948005828695314 
-0.3164237687273599 
-0.3746365554017896 
-0.1327568290180718 
-0.3135214011479153 
-0.9386936224276486 
-0.1085079640028599 
-0.3042411201686237 
0.412404058658737 
-3.243134607447971 
-1.086703959061959 
0.3216749577716963 
-0.548776821192813 
-0.006709970046300124 
-0.6966515522514388 
0.6610695648144617 
0.7316072295241234 
0.8018292268586368 
0.3243374688244562 
0.3791137298289106 
2.030794988446678 
-0.06337358839115934 
0.4254646695004783 
0.03658070187029029 
0.4299491442968013 
1.399924595095154 
-0.111544297787583 
0.409811442755357 
0.1338141543243666 
0.05455067676721708 
0.3671070195453418 
-0.6699703287360073 
0.2564156429548451 
-0.3933536465884805 
0.7938193596909274 
1.763577365829792 
0.4433442180914203 
0.000348834534800161 
0.2006417022315174 
-0.2846664088269266 
0.1987842240972965 
0.300716420893484 
-0.8900737211916455 
0.6353446104816891 
-0.4366139386157475 
0.3682193212938301 
-0.1307447506879611 
0.07693960392420307 
0.8849679724882303 
0.3165701297119179 
0.00988171798467628 
0.08772798515737101 
-0.04896086648520709 
0.8312887522637585 
-0.04508705462776378 
0.2018680621508837 
-0.6097721685740943 
-0.5188566876251952 
0.7485288282566469 
0.2740581879863551 
-0.4953233336867335 
0.8914370244019634 
0.5456431682402872 
-0.7528997857328841 
0 
0.3845422275105658 
0.6350972835979806 
-0.05138627234470704 
-0.1134560330296743 
0.2457299853388803 
-0.905946245733354 
0.3460963876259207 
-0.1590234587202083 
0.231465948808635 
0.7037793353959666 
1.26934605157356 
-0.04675768783976678 
-0.4606049688240643 
-0.61483984471553 
-0.5153507709001215 
0.9353027831250698 
-1.641325065480896 
-0.360450793326831 
-0.6180047351627576 
0.3933752330594573 
-0.7096126645556677 
-0.147391647347609 
-0.6298958143230108 
-0.7740251895372149 
-1.804969006688646 
0.4176010894308395 
-0.5376887446331434 
-0.3670921802668596 
0.08879372916351809 
-0.664201176815735 
0.4138463145718289 
0.559869557036684 
-0.2746010593488387 
-0.1973107245435055 
0.08342231777268048 
0.1547988405402497 
-0.1882370886401845 
-0.1016104887629505 
1.147212200969007 
0.8656812863167457 
0.6204846696597104 
0.7991668696080855 
0.01369838164687147 
0.3743247289264424 
0.1555614809869735 
-0.7351470407140916 
-0.1218092790908189 
-0.1357889621956604 
0.1013839616115913 
-0.3351826468477619 
-0.6307257683011592 
-1.260755806057507 
-0.1281758130226506 
0.9049059357505401 
0.03383400433546883 
-0.1190356007880383 
0.01576261832045488 
-0.4039249623187681 
0.8237737466141796 
1.19919779003599 
0.1064507065161907 
0.1620933458756885 
0.2131942687418332 
1.390659268068207 
-0.9837207213329936 
-0.3648953741199217 
0.1127826412265393 
-0.08502933443308555 
0.09766082016015232 
0.9247536399653445 
-0.3570935906030004 
-0.2236574373657088 
1.325889267473082 
0.5548000656746134 
-0.420826796545796 
1.402747253976152 
0.5263778386475685 
-0.1622148176999453 
-0.05634467805564237 
0.5523518188287166 
0.8241060804391606 
0.134587555514957 
-0.04850358689224665 
-0.6974865642279845 
0.0865879260653404 
0.282804484243397 
0.1554097566790967 
0.3062059107879811 
1.057725495933073 
-0.08122857637348863 
0.09252569356912177 
0.4988097124513545 
-0.007524179191851568 
-0.1739892377754827 
-0.7877181264457888 
0.6928476249111059 
0.4287580804685838 
0.9179594015748943 
2.10815782808605 
0.01198973276135435 
-1.071935724665547 
0.9891252283386014 
0.1794614014298451 
0.6471870318559074 
1.482954816155579 
0.244517401512773 
-0.2788425030006978 
0.01280177218363355 
-0.2929869124740645 
2.011321479255762 
0.3270552553919726 
0.6799698889554645 
0.6137523526521809 
-0.242324073842768 
0.6530901705808385 
-0.2324567284208622 
0.3464162441376056 
0.279998322007057 
-0.1981046448271938 
-0.3828857501082676 
0.05381059007054639 
1.755004997111067 
0.9373257063274795 
-0.1686565723184532 
0.02073171027663257 
0.00535439367941936 
-0.1989703092415123 
0.4361422739212626 
-0.2136135030086061 
0.5724148337592576 
0.597701937619083 
0.2184481859837389 
-0.3158139038422627 
1.263354538989841 
-0.02483675479801736 
1.627955422967392 
0.3912337179031914 
0.5734705865622906 
-0.09384515003745628 
0.669781182289915 
0.2084568304184403 
0.04446078010117622 
0.007261905108656349 
0.4469466315833607 
0.6765655524031648 
-0.1673109933166488 
-0.0001701606576637316 
-0.1938173725759338 
1.164604547637341 
-0.00415580713437768 
0.5424950611364916 
1.00348734568068 
-0.0514962205265366 
0.6743048233051671 
0.2054832753464161 
0.2276842804156823 
0.86725767158477 
0.5467859627689837 
0.5028352887664317 
1.156173620336295 
-0.5949297731485328 
-0.5688940918575177 
0.04463601192084523 
-0.05571723771519294 
0.1731863290811127 
0.3351379393016751 
0.2953483423819945 
0.2499917161398121 
0.4061466113640706 
0.03996450707874058 
-0.012713226255547 
-0.1292353323851496 
-0.3548549803104507 
1.062057531299345 
0.5421024460072889 
0.6429135365491621 
0.2270395784261919 
-0.1640230269688361 
0.04904678716666758 
1.86334409292867 
0.1946084622277383 
0.05290332816882094 
0.0528718084428797 
0.2554039850337333 
0.2198716116850141 
0.5427397800202313 
0.4717249009364389 
-0.003772755791810592 
0.4056035750757802 
1.787404999469037 
0.844783399625732 
0.9369458698940052 
-1.96209108284999 
-0.1025295449442366 
-0.5545500713685697 
0.3788866165831942 
-0.6811566905288569 
-0.114197614075658 
0.6324072417583877 
0.04270852421536382 
0.4785455285479532 
0.4155330448364726 
-0.2464733506437437 
-0.06553991904333754 
0.197311280398983 
0.349894749635233 
-0.07041510773959769 
-0.1993456591106801 
0.04823287229772895 
0.05308546011635019 
1.045405527621363 
0.4686545728378045 
-0.1035806315228496 
0.1733106543060889 
0.4515856786397152 
2.622845298273817 
0.4311012609867246 
0.1432007922818596 
-1.06613972366905 
-0.170409716281358 
-0.1547574101438833 
0.04728228095634907 
-0.03487243692290336 
0.03280868423721435 
0.2260063030933048 
0.6243369605272759 
0.0003082727307516936 
-1.132610007737889 
0.8121669774171733 
0.4663440831791741 
0.6603330243084555 
-0.02576396654831981 
-0.381002542873319 
0.4727102205864693 
-0.2404975077104305 
0.2219431228187474 
0.02255063855050869 
-0.4971223093117119 
0.01236836012233693 
0.5236051655671902 
0.1343703919737324 
-0.3606372432292013 
-0.1514237215635182 
0.3666413063490532 
0.1611668144304969 
0.1848441384555661 
0.7620646967733666 
-0.5747102825336748 
0.8626820652631207 
-1.166542435449322 
0.07736938210285732 
1.27177264641962 
0.1153937078230435 
0.05729971498193291 
0.0005886362230877597 
0.128751988254848 
-0.7457878910627296 
0.0888319543068556 
0.131522921025226 
-0.09932753509636574 
-0.189145503042292 
0.1809266320675731 
-0.3094741609976725 
-0.09153651488578649 
0.0266925575179527 
0.1898661393862826 
0.009593642205084 
0.0138014938726785 
0.03646161025479157 
0.3374925664100881 
1.809718778190613 
1.240452428770566 
0.3740403785890763 
1.502436201787128 
-0.09129061890275914 
0.03739582146635566 
-0.8812500479167529 
0.8749492415282445 
-0.9833923490668509 
0.2599320892868146 
0.5443526782346156 
1.539735527167955 
0.7154554779441502 
-1.449553866938637 
-0.005991891622082439 
-0.2155713149384995 
-1.273031652651058 
0.6389395340573456 
-0.2925170224358407 
0.4880641629215407 
0.9319731589141748 
-0.3808978687277234 
-0.1578420395245707 
-0.6527834682353237 
0.1629864040610593 
-0.3685073056956923 
-0.9579011980972373 
1.091603922430563 
0.2180411466252067 
0.5390359744742151 
0.1779600621565146 
0.1556167599514691 
0.6058094872372489 
-0.3212583695738478 
0.3076590843175983 
-0.5110600264449887 
0.1622637350542397 
-0.5407933086845794 
0.7307358388862467 
-1.066280618825841 
0.3357205151624788 
0.2975852674118388 
0.5988012181282605 
-0.7157796156944531 
0.6572498654555634 
0.3369498128623369 
0.8212420232784439 
0.7736307897940493 
-0.5385488847842076 
-0.2786948798338444 
0.05404674049406912 
-0.2892609163629445 
-1.826233882698842 
0.1616412961728436 
0.4181578161324969 
-0.09581729671645223 
0.736294802226235 
-0.4201225169829864 
0.1212096211352935 
-0.9679211472222508 
0.1778371447187262 
0.6361136690278442 
0.4769634510411547 
-0.3022407345338233 
0.0009886087722330561 
-1.450841580513178 
0.1263062475317075 
0.3402703462088089 
-0.8531770508573525 
0.04385044324403795 
-0.002598439574390745 
0.199479792646093 
-0.5410974497073773 
0.2513112653517914 
0.2766879947021396 
0.2002605469895705 
0.2407719828160823 
0.1336453788416655 
-0.7210195801087337 
0.5916827256825822 
-0.2036234510392539 
0.7520803351319184 
-0.5494401356218854 
0.1147487163933279 
0.8174325881325104 
0.7304488840232426 
0.7027261793183608 
0.5925752204880131 
0.01028284558044783 
-2.099616066034805 
-0.3147904243020946 
0.4420501569196966 
-1.055764266838962 
0.3344051703300833 
-0.2612345690513559 
0.4540603978995896 
0.006406063647068493 
0.3796496205417123 
0.1674241756437175 
0.138993141692888 
-0.3272065075798986 
0.2557138086496792 
0.3120649332318253 
0.01375259988062987 
0.03125911299470022 
1.196023583790634 
-0.6395781527971455 
0.04506971799614989 
-0.3240943562428273 
0.6375638501631853 
1.096034098921954 
0.2480761107304639 
0.03316849008774701 
-0.2258897993683067 
-0.7177721253976549 
0.2711014608497471 
0.7190322111238968 
-2.193436535986226 
1.754213046103848 
0.227486125978105 
0.6933678039994917 
0.1850850756356609 
0.003847880442203241 
0.3667158984424992 
-1.336357749585775 
0.6197147352993582 
-0.2337189229299165 
0.04563080275053705 
-0.2767015714934792 
0.622939994802876 
-1.09777890812568 
-0.08966726749435686 
-0.09573696444068991 
0.02579781553696971 
0.02530868890601965 
0.1130841598383682 
0.7587921173424441 
-0.1704895308131374 
0.4087935885369185 
0.2233201377519627 
-0.09535349254307483 
-1.168534521531903 
0.09214630293587683 
0.5855513341724315 
0.5714245571839265 
0.02841368257114363 
0.298734472901764 
1.858975557632142 
0.3546036987396206 
-0.172228266935435 
-0.03082268237989458 
0.3013007282763834 
0.2282497611878573 
-0.2833499901797363 
-0.5915940060407162 
-1.450853834271297 
0.08393944968758173 
0.627703248231911 
0.06216808207920836 
-0.4607486956111529 
-0.4676438415119001 
-0.7320876149091364 
0.2284142156484993 
0.9312310985339159 
-0.3425284975026657 
-0.9147292330474952 
-1.439158177783296 
1.523077495317742 
-0.07022792309010852 
-0.234973754832783 
0.3865061459528872 
-0.06086154585393452 
1.320260663570178 
-2.385897525656998 
0.9309491057952244 
0.1911838307457518 
0.6394202201241057 
-1.20380011834726 
0.338066580976852 
-0.01725272393203076 
-0.2528158885228884 
0.4359990124775562 
-0.2444423002775274 
0.007749206728490278 
1.248176830847681 
-0.2665520282989523 
0.4091979764093882 
0.9412540786499557 
2.288078686608421 
-0.2379199976166143 
-0.148716169007604 
0.312679531415926 
0.04538569596460353 
-0.3828950295973571 
-0.2671069021880036 
0.850536738753632 
0.2950076052955668 
0.1878692529459685 
0.2421098032109391 
0.06151583586942345 
0.5235325089079238 
-0.5284217666254355 
0.2619912223368224 
0.6674877118396454 
0.4237474376802394 
-0.06833076307111732 
0.7287425880168767 
0.001292822903505719 
0.3030917850593571 
-1.32158553018245 
0.048117098010739 
0.8439152673001316 
0.512408062415918 
-0.2811691484884442 
0.5199569289551724 
0.4897834464579929 
0.7406143011135253 
-0.01363700998917762 
-0.4666355690164462 
0.1593621611105828 
-0.09020668546683072 
-0.6505977906598445 
0.4237844714513471 
-0.3467322844002278 
-0.2372106192430678 
-0.5777114358544718 
0.07246638984200507 
-1.070543239778616 
-0.5631434351343043 
0.5054836651743418 
0.06301436655618538 
-0.3316206382237087 
0.03975763876275552 
-0.2063050470199641 
0.06313813911296789 
-0.3522172514114517 
0.1616249127984715 
0.3162676821337103 
0.9478325697702178 
-1.28287945608255 
0.03975763876275552 
0.1660088918647017 
0.03975763876275552 
1.076314434365848 
0.09231437842962487 
0.1611273867920065 
0.03975763876275552 
-0.3429102984571892 
0.5963127312556444 
0.06580398792233255 
0.03975763876275552 
-0.2930682416898158 
0.08378257728211154 
0.4687246494434806 
0.7293621356994061 
0.0477801301794595 
0.0401159892100502 
-0.101318993047478 
-0.2523952308665768 
-0.934908992231522 
0.2771710661599053 
0.2066674347399062 
0.8240539040924677 
-0.1503621725435978 
0.1340947718190218 
0.1463341031448943 
-0.8573590119955417 
-0.5254502754772867 
0.1058923822158444 
-0.6888071417448091 
0.03975763876275552 
-0.147214805281962 
0.6464185636761814 
0.8551133986322546 
0.07030568726873142 
-0.3388374694860993 
-1.029441537912544 
0.03975763876275552 
0.1912004586715662 
0.04644405380160325 
0.03975763876275552 
0.03975763876275552 
-0.8285641046786207 
-0.3161635545610402 
0.3344691809454459 
0.03975763876275552 
-0.473036989563631 
1.265071007530292 
-0.3895026411507644 
-0.4141314947871994 
0.2789917828442127 
-0.3021460225016592 
0.1746401621103491 
0.1185286633180969 
0.9971576386283304 
0.2817663696353028 
0.2234142006746088 
0.8781882251857585 
0.8431323567266105 
0.2059913021103448 
-0.1516015762835118 
-0.6532994844555684 
0.1325506623438467 
0.2223695754987552 
0.1885215073589657 
0.2989778952796314 
0.14923881045423 
0.01981815964205844 
0.4907204426836821 
-1.293569448215506 
0.2577670666741134 
0.254225239689358 
-0.2129149267217768 
0.5281838033443215 
0.6088049511066106 
-0.1116258461746692 
0.4620996700730132 
0.1923387766308562 
-0.6473067035501168 
-0.5105023812604953 
0.4686059400518832 
0.7555120393552831 
0.02720814031213402 
0.5120800279759262 
0.5201185893330241 
0.4560313583805973 
-0.1407898260636848 
8.58853774268302e-05 
1.883351502458846e-05 
1.496273856436626 
0.1854094816769722 
0.2990173737279606 
1.518554532677371 
0.0008385291125679204 
-0.08450266892271788 
0.2904551306287522 
0.8358604321154444 
0.1636621108627559 
-0.6371640174632955 
0.09432353055405132 
0.6392281083623743 
-0.08285347638357343 
-0.01569549252791999 
-0.0538683343476028 
0.07888817667636644 
0.1158861576303858 
0.822918081727252 
-1.222408999172666 
-0.07709627205995045 
-0.8921916037525434 
0.1813777640960737 
0.071443876203199 
-0.4232857620450233 
0.2342943671458582 
0.4907773662351319 
0.1081219796545576 
-0.2346561845200252 
0.8092435113080239 
0.2365088915084534 
0.000157714291584499 
0.554349528434617 
0.6254529311450672 
0.02334064726021651 
1.414399892907388 
0.2489125370060924 
-0.8345761930006567 
0.1156431927921348 
0.735880082504534 
0.3238792707618973 
0.01633220079866383 
0.06329589373531137 
-1.347770486802326 
-0.5705602743610341 
-0.6611860186488968 
-0.1560499061440577 
0.5526466741993504 
0.8048883240665154 
0.4959742237259834 
1.141459849629918 
-0.220768703117215 
-0.05463383177605664 
0.06788602576420612 
1.67141437474009 
0.4909053329817397 
-0.2006689072824173 
-0.1735282293513147 
0.2859556586034234 
-0.5645335079422897 
0.5689936972845204 
-0.8053668048329994 
0.5320934782917089 
0.4471595988387407 
0.3208154114502401 
0.1345285855406281 
0.5738753788222395 
1.47906894874824 
1.100952243327581 
0.3864716135048729 
-0.07353238277656447 
-0.05394148371899916 
0.08861340355694404 
1.317180107063424 
0.5613206801277488 
-1.291838744188192 
-0.3917207811582333 
0.5678882797562707 
0.2585058741464698 
0.2846039824443999 
0.57106050530992 
-0.2010140247035112 
-1.280530166970538 
0.6801868548116026 
0.3990151526835838 
0.02776547632523588 
0.6744138669594127 
0.1631623034059382 
-0.01638684859342536 
1.306435891208191 
0.1559476479143281 
0.1581747939771631 
0.045788809329603 
0.3075484188406055 
-0.3268102541405604 
-0.5050698582913324 
0.190894296480247 
-1.454421677126816 
-1.495267704171129 
-0.008794708830837404 
-0.3623408715398801 
0.08651850464433013 
0.1665768493600899 
0.2461971269685808 
-0.3129830379020869 
-0.001680273334854626 
0.3428046811856174 
0.2813676586387461 
0.5272982936819425 
-0.2193594185154477 
0.004738642961099562 
-0.05169031186092721 
0.2620508678346028 
0.9539058363299651 
0.1381846185473693 
0 
0.6886416489565598 
0.5374027953977299 
0.1573286574523909 
-0.6227274117780826 
0.492460387716088 
0.6499943177147827 
-0.3663891399380761 
-0.4540267113672566 
0.4513798531087529 
0.3957375037813268 
-0.07581419522209285 
-1.700259159637438 
0.6195163594972034 
-0.178339556946442 
-0.02591330394052105 
-0.6136851274002901 
0.3888014279519946 
0.9471299687348104 
0.7126706185133077 
-0.6356831309301562 
0.1642209607556433 
-1.155977691893386 
0.01298250085711343 
0.5628168595264987 
0.2271098230980246 
0.5456048986901024 
0.05110446011405084 
-0.2818198989137624 
0.2459117588068695 
0.8837677081798155 
0.2345554920277856 
-0.01982672946339584 
0.1752734285143246 
1.852005713962348 
0.9887284458270621 
-0.1996047237836507 
-0.5267185327149211 
0.5323352741027262 
-0.1516864266113413 
0.6750130382478482 
-0.2551038207189133 
-0.0804987074640752 
1.167530468925063 
0.4362153523844702 
-0.2928533031097585 
-0.1583854378906055 
0.3317475124479701 
0.5853061937428312 
0.05579881683045013 
0.5076748635334852 
0.3887955216915418 
1.356940995902315 
0.08004576262374914 
0.5376055561996947 
-1.11022061148083 
0.0359546303428593 
0.07671149484093281 
-0.1389400164565768 
-0.5060828121392348 
-0.365481350113744 
-0.9864052457132182 
-0.3975027583827245 
-0.5018930637460034 
0.8680748375721611 
0.007299725959915463 
0.8230922645596884 
0.516937398231072 
-0.05022261596095805 
0.08668931708544531 
-1.313512034042245 
0.351997665691381 
-0.5190412534075087 
0.5064758392068498 
0.497402157692199 
0.2104634649893291 
-0.1149222967945564 
-0.6446764613523749 
-0.4484399222268718 
0.2434796330218603 
-0.1362532856947888 
-0.1487961461800578 
-0.3766497978259329 
-0.0349838205452724 
0.04123502049318117 
0.3458343679438438 
-0.2019794093481312 
-0.2778160233819175 
-1.71925994335844 
-0.5388260555291396 
-0.6425524376021784 
-0.5129370254967822 
0.2066673188162025 
-0.1806460931056589 
0.3355186332620224 
-0.5658322885674009 
1.379003045971207 
0.8579419897422317 
-0.504280862298167 
-0.6383109255451686 
0.07054797521760579 
-0.2320002664679823 
-0.2012748998246247 
-0.02471663645445305 
-0.3747051916512718 
0.3013655506733769 
-0.9305662514449609 
-0.5257107153454038 
-0.3846682688346889 
-1.217195840984377 
0.1851821412363155 
-0.6044743234286816 
-1.72817062974571 
-0.1946273915222924 
-1.381990040269877 
-0.5771998699303921 
0.0452045994578937 
0.7686449783217907 
0.1724400533640365 
-0.4497859238960747 
0.5818739472878114 
0.05297522272651376 
0.1683809784729407 
0.3470018810506239 
0.7105154637739858 
0.6039882848399193 
0.3201528079825594 
0.2697515348520757 
0.9235882168499129 
0.2216562812994895 
0.07031526501050579 
-0.5212424453360133 
-0.5220997586304054 
-0.2842346773874214 
0.5847600170562758 
-0.2315245735751409 
0.5054934080309379 
0.001288671608271135 
1.086567409417644 
-0.0001067714570914553 
0.3034155667868922 
0.1113726768727071 
0.2209103938106013 
1.557416536690599 
0.6228143844474167 
1.143530782013221 
0.7968080794629323 
-0.1262357500134946 
0.02809217651325854 
0.775438348643658 
-0.8316178141307509 
0.02809217651325854 
0.1998317650028921 
-0.2333609362438957 
0.2943090974731079 
0.5103164091581394 
0.1718214045196974 
1.702421685359533 
0.2189830641920276 
0.2191282435283596 
0.1634371636123048 
0.4586949177733438 
-0.02865726931717297 
-0.06455985048235534 
-1.614350692279353 
0.1429140425301344 
0.3989667447065811 
0.8052239727361902 
0.6298351314557704 
-0.1137399855599647 
0.7605931336554373 
-0.1089788186049574 
-0.824463083182379 
0.7000981101758234 
-0.09216309094348937 
0.4084645734340642 
0.5430508309616682 
0.1682133625714624 
0.4459020742112101 
0.1448892409261411 
0.9492905432318592 
-0.127257140277088 
0.1242502633732385 
0.8092655335930863 
0.4479024711835612 
0.1321760684839101 
0.9567267638285671 
-0.03368715317828887 
0.5827392962821261 
0.08030466810628711 
-0.07004567352504686 
-0.5976115437631097 
0.9862268925239533 
0.07006673298128842 
0.4034457616715519 
-0.6146300996785115 
0.3989718560691272 
-0.1447510829440301 
0.1054447477203948 
-0.3141326904527519 
0.02349858197958907 
-0.2903391521628396 
0.09925844556137442 
-0.1785675212094621 
-0.09725959216642908 
0.333915518247189 
-0.2771480623447207 
0.2417765199624843 
0.06520015795345334 
0.02016329991547504 
-0.4459378417188608 
-0.1171193082778 
-0.0817038398297996 
-0.3085130023360789 
0.0006312462046609531 
0.1934375107650665 
-0.1391044019801496 
-0.6881683463534405 
0.03235489990658137 
-0.1695572732638947 
0.007737694803831803 
0.006937517932234441 
-1.206402703632725 
-0.2509641097403566 
0.2912402209591365 
-0.4292033785689937 
0.1432330970993804 
0.05203721230312718 
0.2399752051859049 
0.179396543891793 
0.257128498775739 
1.04540046335946 
0.61496579940458 
1.289147033584008 
-0.00100681633488458 
0.5093427993936022 
-0.05275902578125243 
-0.1040554109268853 
0.4971006702641427 
0.1517726381780279 
-0.03128758576391371 
0.146537137374716 
0.01346797642125229 
-0.0947313855041349 
0.4368113307199877 
0.1002895355857466 
-0.7941832301979214 
0.1913549090477586 
0.1087968263437905 
0.2358528900218622 
-0.3966604054322727 
-0.271725498569685 
1.308974926577394 
-0.1462622204645083 
-0.1891769596488379 
-0.1345216522259858 
0.04040479092520224 
0.4025178519156281 
-0.7370296927810253 
0.6274592449982619 
-0.06254041299851183 
0.9830377456350032 
0.03210321307466032 
0.1050127389710928 
0.6429854207052065 
0.6363155444804576 
0.8676193270519291 
-0.1212906744726237 
0.06480409417068618 
0.3845304245695003 
0.07322348056744271 
1.064389700108971 
0.02204763340520685 
-0.6335607322729757 
0.2672003087672276 
0.6033338975224417 
-0.5816195002623994 
0.181945128560053 
0.1724329729882973 
-0.2364597048175706 
-0.6125709401330718 
0.08159161111650207 
-0.2379944022470247 
0.9459123238538826 
-0.5392084623004999 
0.8257043882426696 
0.8725284397295011 
0.6971005220254968 
0.1577148185091494 
-0.3287610887305051 
0.2757085120322357 
0.4514255207559208 
0.3071078622150212 
1.306894365161743 
0.2517211413746155 
0.352859649251697 
2.026989953256894e-05 
0.07962446151099054 
-0.6433866681722731 
-0.4108314681277125 
-0.6359328294210732 
0.429855195956702 
0.2569268347449428 
0.3839939065753679 
-0.5735559414404847 
-0.2646318146369884 
-0.459885050915101 
0.2653225047983859 
0.8770867767091671 
-1.171104069199305 
0.3014093296560721 
-0.546385897398485 
-0.6691412451843182 
-0.5487552312846322 
-0.8252935251524369 
-1.35154572840588 
-0.166355423722148 
-0.4479161014229416 
0.4951952838017306 
0.8711244530161479 
0.1632504243577553 
0.05446016684719815 
0.4921600024980498 
-0.3837321930392262 
0.8588401188905933 
-1.039488463357605 
0.6284346177474932 
0.2053844141189347 
1.596276819423457 
0.04982175616957263 
0.1197860335006428 
0.4005031623258063 
0.3846815668828509 
0.05941809525286935 
0.3678206652493924 
0.6328596717218578 
0.01283130046769026 
-0.5368287829776223 
-1.171366118739962 
0.04355340485302289 
0.5331836782721533 
-0.579615619016041 
-1.112448402544317 
-0.7660717112873993 
2.628383278795989 
0.0196092027642381 
0.7771036252876572 
0.1858925079473965 
0.8807824909611747 
-0.02498609890011209 
0.00399750926624854 
0.3423012636330733 
-0.1473844666367257 
0.002569521584919283 
0.5989889942859637 
0 
0.1720972995636676 
0.5663730340706078 
-0.5196689455748096 
0.06238308419589841 
-0.8442571899822926 
0.6669596368022725 
2.186192992622774 
-0.2340786051744434 
-0.06350734631492194 
-0.6789544079711987 
0.1545436991521703 
-0.8716925611355922 
0.4792529403864969 
-1.700679448232044 
-1.308334715879516 
-0.1707974134090507 
-0.2164723454239467 
0.03304077405389333 
-0.456174288278214 
0.3431704459606519 
-0.3686053703339691 
-0.04958175628781271 
-0.06103255261950387 
-0.9110786835523595 
-0.254872583494502 
-0.03294322567996678 
1.263337109309955 
-0.456925999781267 
0.1532276614543168 
-0.5263209488796698 
0.6021211346884752 
0.01621165267679228 
-0.9333501425253206 
0.7736489034384464 
-0.2250187057050158 
1.233377608288109 
-0.1902465298255471 
-0.4729030795074571 
-1.498258317704797 
-0.2585864868377435 
-0.3266387359828114 
0.02727650689460507 
-0.6424233637631461 
-0.1606880722046877 
0.524412326065364 
1.407915211009555 
-1.862645439002348 
0.2292509702671776 
1.029209232866013 
-0.3224964635520694 
0.8266075451838156 
0.4026098615687767 
0.330411078445115 
0.4595883960729116 
-0.454061840464476 
-0.1569938749319396 
0.007994300981163209 
1.160331686457795 
0.2066181159646486 
0.5918231555499203 
0.2132074993809187 
1.029127184374316 
0.4354641726136229 
-0.08767954354643386 
0.1591578049880865 
0.3728366148348027 
0.469378933155047 
-0.1432492807923321 
0.01769302034026433 
0.2625196176869968 
-0.04173309567147591 
0.7560669911768565 
1.490998726340968 
1.414012454805652 
0.6004900211523033 
-0.1039604689918838 
0.5653919968604998 
-0.3036993684415342 
-0.2852430477267069 
-1.205593524454975 
0.4127814212220062 
0.2326304957644698 
0.1297197541970605 
1.626503414075514 
0.6270112037049836 
0.6900047190806194 
0.3255526379479281 
-0.4766133342977772 
-0.3205568690151922 
0.009689041426561882 
0.06452225158839443 
-0.6896822517283623 
-0.2466903756991506 
0.07378939309515188 
-0.2267742255186231 
0.3614804087072561 
-0.3165293470199886 
0.6030941297493243 
0.03141958157770701 
0.2867764114489165 
-0.08108497492823509 
0.3673459237712627 
0.2342203574837515 
0.4080790045148656 
0.7643445918157957 
-0.5680323580301641 
0.007718752544528775 
0.1315191630837078 
0.5140040932995515 
-0.2228052803860167 
0.4627754095971104 
0.9905590052617406 
-0.0315143875410888 
1.117806088383529 
-0.2067737039994492 
-0.441148691737427 
-0.3447144587017992 
0.5790547154139706 
1.057276691482768 
0.05153812664612287 
-0.3164987807508669 
-0.2034333449453462 
0.07457846706185184 
0.01561279054263667 
0.0005204151613660745 
0.3634291172942755 
0.1005486077881767 
0.5446947265130444 
-1.17473507636259 
1.527563733754823 
0.1365993671083674 
0.4939482763716164 
1.143294692499325 
-0.403665452222994 
0.237991928420451 
1.30691875018825 
0.09839397838831361 
-0.1005142403838479 
1.689284332420196 
0.1379985540810291 
0.9281812410317556 
-0.5787136225432814 
0.232739098246008 
0.2193116216036662 
0.188932672289717 
0.6661754322699373 
-0.02695650371035585 
-0.426715144695442 
1.179993871228993 
-0.6599550846770362 
-0.4917538119502949 
0.533611877291715 
0.5421861626077901 
-0.01537171198852842 
0.0004910401823507198 
0.8390838721668592 
-0.6461514864951551 
0.6901167047892591 
0.633571665077921 
-0.009490410270940192 
-0.396648610743962 
0.6293472487478369 
0.6061416317577639 
0.32277123007984 
1.478947495811193 
0.370889878510353 
-0.02644782224203519 
0.44671173101518 
0.5210946031687819 
0.721333117125983 
-0.260721950275613 
0.03462165058672345 
0.1592275964908995 
3.935651887872831e-05 
0.2603331945863183 
0.7044180671142594 
1.75908724147847 
-0.1891655729522027 
-0.9215315319013683 
0.2795053471106759 
0.07503067996932047 
-0.1538610714068537 
1.253683266828549 
0.2433175771349185 
-0.4813034425470354 
1.098433089031117 
-0.8685382379494636 
0.4198298987797467 
-0.1010878241157229 
0.4057463426226594 
0.2479822341003126 
0.8871739071868694 
-0.1810241281337033 
0.6010712686669513 
-1.191264009359204 
0.8234900664919648 
-0.4158605129732142 
0.925619904111091 
0.3880381158453778 
0.384690038934693 
0.3335552213296869 
-0.3461959484916698 
0.4865136090524738 
0.7589089762053657 
0.109236544435344 
0.01562699243451985 
0.5703836869956662 
-0.3310527811306092 
0.2985988353411441 
0.2149376558781218 
0.6445214006432505 
-0.254922823327798 
0.05946766079081649 
-0.1301654232414024 
0.2224545861501255 
-0.05148422319852988 
0.5091244967256306 
-0.05812904191937299 
0.08013680357963278 
-0.2294965735970445 
0.8690051847269911 
-0.2591262031133142 
1.779198216615014 
0.5322698536810884 
-0.3050625171938166 
0.5420032955343973 
0.6310382272573386 
0.4357470049329945 
-0.08085442300256794 
0.6590354347708278 
-0.1702658593726726 
0.4432873364232557 
-0.3348301813535169 
-1.322798092898028 
-0.3387339022263323 
0.3196753197049326 
0.2452170029611541 
0.3620534884698472 
0.5632451860414075 
0.6042018090425876 
-0.523733683304653 
0.7851107896298893 
0.4242336480125215 
-0.698839598457718 
-0.3822577735944837 
0.02259737099499708 
-0.2582961531580907 
1.395334147948922 
0.4951757758711884 
0.5108767394170781 
0.4643495877625825 
-0.4952100326154188 
1.268412447187473 
-0.1948558969029563 
0.00450515014230668 
0.003779836689229168 
0.1992780414174288 
0.06889435591004942 
-0.04451824294912408 
0.8891738133021506 
1.754523462248379 
0.9146956969984144 
0.7405936985040626 
0.1771670702038965 
-0.2525709571554757 
-1.480883804897354 
0.5214079823642001 
0.02191179047045569 
0.5701949501975982 
0.0431706590617529 
0.02191179047045569 
-0.5450929425362629 
-0.063389496197486 
0.04714716254836195 
0.6486391936065976 
0.1521170117664888 
1.073918828858366 
0.1325763804473069 
0.010690748069828 
0 
0.1781559754644682 
1.175882864781552 
1.368987897485823 
-0.002317493333017159 
-0.4814760853909557 
0.5026086802224485 
-0.4298523491914499 
0.7481836608578636 
-0.45863549882021 
-0.1953610987685981 
0.6417163202934435 
-0.4258225330712364 
0.08105255266585232 
0.673955752735899 
0.2531020228441621 
0.7353257079824559 
-0.3015463090878432 
0.834907358397025 
0.4254572546514837 
1.18840623564118 
0.6770253124533582 
0.9922141121355251 
0.7673315673998968 
0.6381667698721044 
0.3597675649664304 
-0.2776438577491176 
0.02082673123271587 
0.8627534403307519 
0.5745916377748943 
0.02082673123271587 
0.5108261714376469 
0.8663050310951892 
0.299421576134168 
0.02091284594638881 
-0.4961711405116866 
0.1744685571339458 
0.7794944293803558 
0.4464392787097348 
0.01282260626985796 
0.729984086111689 
0.01274679130196038 
-0.1326868439353278 
-0.03979843662611207 
0.4190880118676987 
-0.5731851351988138 
0.05413523187047338 
-0.1110708657288976 
0.7504464503180824 
-0.4772566316322085 
-0.3106534605264749 
-1.380437125779491 
0.09831629150588576 
0.5331180442838903 
-0.4774464016250025 
0.1157875055915536 
-0.1853520501697048 
-0.2526253028417558 
0.4770895525319958 
0.1475431048330856 
0.03909321495886402 
0.7019265030647324 
0.0002607736015542535 
0.02140215100197823 
0.6996648908237485 
0.0739732461712629 
-0.06714652627788162 
1.476709864562161 
-0.652750127902438 
0.3918298134523888 
0.1434383306202011 
0.1148170308098994 
0.1998762893488131 
0.617610178019508 
0.2880120721295449 
0.1772799285556989 
-0.5834739180523278 
0.5058017573970123 
0.4143356967414385 
0.3093760602261193 
0.1376738448383954 
0.651097019417893 
0.9760032525865484 
0.3771882902071564 
0.1856491549123425 
0.3289814698398007 
0.2991106389986905 
-0.4257196732919822 
0.2721759948304361 
-0.2451072733510889 
0.1041248961053663 
-0.2919919667145788 
0.2898586306921331 
0.8350214364984676 
0.03643268063097214 
0.4429807201553968 
0.1329490735803852 
0.8563782013565906 
0.1610810013178598 
0.5930483437534801 
-0.5184928684041334 
0.1070642678986361 
0.2537325745490513 
-0.3228816219588984 
0.9918496176728897 
0.3658627385475106 
0.1621005139279627 
-0.2738478932186943 
0.5113661264055746 
-0.03882549227209679 
0.03661097544579717 
0.04367775230593864 
-0.05507700180840064 
0.09735238736552568 
0.4303135697514318 
0.116588613926851 
1.154060673157282 
0.7679073420716661 
-0.1570752810190996 
0.06475647371259002 
0.6151028642629734 
0.0113915099415351 
-0.2954385697148217 
0.1110448155338513 
0.4803253365198781 
0.3789074614608837 
0.07276137558208712 
0.08124782123159947 
-0.1839599780011766 
0.3414552219212993 
0.5609245694987507 
0.09153725348812505 
0.3363921736000819 
-0.1182938596331161 
-0.4541120025175376 
0.5999610370729667 
-0.4543806501057718 
0.9774798937914541 
0.328410710009486 
0.1966871095557836 
0.3335267346067441 
1.099549551748649 
0.3108694014799145 
0.2522443090860067 
-0.4447928454205876 
-0.7009776324552338 
0.9009592700196353 
0.07248865670313737 
0.1843041538808112 
-0.00216575449364051 
-0.006030658802388837 
-0.01647769319572541 
0.1913621540380795 
0.1583097951109755 
-0.08316651855744633 
0.1066589567738006 
-0.09959791266263529 
-1.361682897884331 
-0.04229733664573215 
0.8880868265006663 
0.5981963014009823 
0.0876504025644517 
-0.5194321960271028 
0.0597434194017207 
-0.1313540993669058 
-0.08725656560519857 
-0.7091654835801297 
0.5455363750418404 
0.008478140082109332 
0.1112306092329757 
-0.9839950384361249 
0.3826576948166286 
0.1161152618118193 
0.3202348746778634 
-0.4449910605091786 
-0.009643484678337975 
1.193975495147275 
-0.6626115107494558 
-0.09360941279726501 
-0.08935591784333222 
0.3100415116918018 
-0.7586578892382801 
-0.3814213576111481 
0.2425206209068854 
0.7118096910771303 
0.8130187699874065 
1.403375820831613 
0.7559436256910969 
-0.3430204226779112 
0.8098064337974015 
0.5507182096945313 
0.4682821552093956 
-0.03813515891318098 
-0.8427197375532921 
-0.7008548280681931 
0.2211500965389419 
-0.3394823836446372 
0.2226836327083199 
0.1173419571510481 
-0.1190342744983375 
0.6698291841334515 
0.1650163509427547 
0.4782718571197371 
0.5031851665579909 
0.5563823091264792 
0.3684004714479118 
-1.186974116515565 
-0.3490765262136187 
-0.04560403390804092 
0.8201605778655242 
0.4513519171625169 
0.4487170199603557 
-0.1276127585451354 
0.07598663888263017 
0.2066501942002431 
0.4107775020679296 
3.162614441418143 
-0.6615383595210023 
0.03191076714341597 
0.7951901334274135 
0.07235042485317547 
0.1309626722718313 
-0.9408553768387028 
-0.3424497728032242 
1.046635918088737 
0.6956459667185271 
1.546312217657747 
0.02212958061736631 
-0.5268525839896993 
0.1255059181204868 
0.4115197995873625 
0.9404747368062869 
0.2543988675508286 
1.59152646617996 
-0.9607194082691309 
0.598012704286521 
0.2124547400780258 
0.6198305130458901 
-0.3097596301913018 
-0.8131623237991418 
-0.4897777139518799 
0.9714044828300492 
0.2896600687909652 
0.06255976321226954 
0.3998735030433815 
-0.04336424819634771 
-0.3650347387306668 
0.4026471620216907 
0.6811312329538712 
0.1982806128779432 
0.2555343616901574 
0.09491785949028707 
-0.1023268218414774 
-0.1637544844731977 
-0.115274117450079 
1.505296334328922 
-0.7310293321627263 
-0.06071806535573415 
0.4620749863423338 
0.7729431691452358 
0.1930366489704113 
-0.1167744521360167 
0.2953400709994485 
0.3420995967457159 
0.3729447092771856 
0.7031392545744316 
0.5189145667490662 
0.2048084926796246 
0.133737984164552 
-0.4987279291342011 
0.03246132247318617 
0 
0.3969750483903441 
-0.3860563186990493 
-0.3157370052817625 
0.4097856734321763 
0.446883550742452 
-0.1546751429570913 
0.4273220384516304 
-0.1948876991849228 
0.1558403929614972 
0.974458855050039 
-0.2838782337056143 
-0.3258100590838769 
1.293447340716498 
0.1756807003278758 
-0.05353957558970224 
-0.1219312289268104 
0.08806320055170976 
0.4806133066604682 
-0.3005147329145677 
0.4862131325092977 
-0.1351082497890883 
0.1027106634167776 
-0.2461883535372505 
0.4323766938779588 
0.02168790549961222 
0.7282295384768179 
-0.7029297008641749 
0.2112608149046799 
0.3834784643719311 
0.2599609184995715 
0.2668543013125445 
-0.3304187940837773 
0.534696860409129 
-0.2045908076054766 
1.024793473738152 
1.620650177494835 
0.2310998376499968 
-0.09762021699144802 
0.6361854720266731 
0.04969954547240724 
-0.04473293465045582 
-0.4609118800217641 
0.298627534096369 
0.2147465242754588 
-0.3764435280758331 
1.272461030289782 
0.2005823064744239 
0.4501799997198445 
0.3539473703493823 
0.369975197372611 
0.1176140801472538 
-0.1575255443880036 
0.2905315619755877 
-0.7221722068489765 
0.9637595790580508 
1.349688280558037 
-0.6098603728166978 
0.109618015519283 
0.6239884130131896 
-0.323271813294202 
0.1784033632809612 
-0.7706103293363201 
-0.5385381927229846 
0.4286817364369281 
0.7996665771941627 
0.9078016289166945 
0.1826580975440111 
0.5015329299019898 
-0.2125243223107335 
-0.1413154068322241 
-0.3815931401791291 
-0.08722070479716512 
0.3213402511118787 
-0.5147436703916558 
-0.02552437202292532 
0.2939443255407984 
0.5526129675321662 
0.6901606739466825 
0.2154064241865546 
0.4999006820563732 
0.3874588871018936 
0.6824133236146417 
-0.3255627127281578 
0.4515194201103264 
0.3108734614509459 
-0.3169223215313745 
-0.04281466762631829 
0.4688039911773804 
0.2593434606637692 
0.4499626396402307 
0.1152642941733314 
0.5653703502703986 
0.1818763405541905 
-0.5483724654721563 
0.791580191734973 
0.03817324583456243 
0.400314632188207 
-0.7447144773576821 
0.5644903636040288 
-0.871599426232871 
0.2782214666879489 
0.0362134642506474 
0.01569286776442993 
-0.8772157661997402 
0.6297770395331831 
-0.02977076904982739 
-1.323275634097504 
0.6786262466644245 
-0.7256853776659028 
-0.08738284019948635 
0.513997264325495 
0.0007094804355876162 
-1.008905369854393 
0.3097181629361773 
0.7766878979527188 
-0.5561603939431794 
0.4683478065945046 
0.5450732223808978 
0.290199220938755 
0.4390184950653633 
0.6765934362065641 
0.5780571418033035 
0.2151858399345466 
0.7149552765390677 
0.1568308940628101 
0.001223612455646155 
0.1150416404851476 
0.2922239091434791 
0.1767848878929659 
0.2822830781637646 
-0.1082099920370276 
0.4101031529882058 
0.8076718979284661 
0.2167932158519614 
0.184075605001711 
-0.09603640011406593 
-0.2114145363445561 
0.1190802740370789 
0.3351784324437924 
0.3557393244891065 
0.5307637120440999 
0.6432367261271099 
-1.049140600284835 
0.7803795978660073 
0.007892801662379257 
-0.003233736205701013 
-0.3511546030891768 
0.03001489646120629 
0.4889595747145724 
0.002992404240426756 
0.1493702569336134 
0.9277299143352989 
-0.2821682185394321 
-0.547842450202918 
-0.7214466874547506 
1.121645421789716 
0.3443713548317341 
0.9023384781163177 
-0.7215603444099825 
-0.547798169156292 
0.3724950206909504 
0.2572882163472811 
-0.1129736461868767 
0.1480765677402328 
-0.1424160339555214 
0.3684848338362562 
-0.5414767267501051 
0.1542052333504478 
0.9658169816554858 
-0.08529235876282606 
1.014221478547369 
0.0814455060737457 
-0.7175762293820578 
-0.4664369295172473 
0.08474766534873282 
0.2412784409608669 
0.9141048438336956 
0.7218371027864903 
-0.4797795867512095 
0.049056047230201 
0.2797829746102299 
1.239407881997326 
-0.5925216416712568 
0.02911086734215748 
-0.3884543427514615 
0.550752814890184 
-0.6261610313398054 
0.2218799597147187 
1.055169489899876 
-0.3056260991527162 
0.2579421324040376 
0.3007003230868637 
-0.4023120320849969 
0.5688084080776978 
0.3945619614751725 
-0.5606979603712721 
0.02719395372452949 
0.8168694159517873 
0.4063291433118892 
0.06782121947650263 
-0.2547062026293956 
-0.1008014520271037 
0.795187715133296 
0.3072644020786444 
2.024614101617976 
0.03372337622317768 
0.1053558937631405 
-0.1039924659343757 
-0.6156206616127013 
-0.1992116205871836 
0.3642510108434431 
0.3196047854125658 
-0.06868737089911216 
-1.780500661693916 
-0.2686047923412809 
0.04752200321604103 
1.039209520336986 
-0.4072061381403344 
0.04351596978925158 
0.3666995002218814 
0.7783391454303328 
-0.1791896336473432 
-0.5980760851861866 
0.1377918332093207 
-0.2510355045983217 
0.4558587694860485 
-0.1773921360761728 
0.05521001288833924 
0.02476980344424456 
-0.2648220160922808 
0.01431888624491798 
-0.1629502081349599 
0 
0.1215394823874912 
0.3740809844963244 
-0.6773788402373899 
-0.09973863770693228 
0.4468885050712598 
0.5206784016419568 
0.1247290675366561 
-0.09221059319012165 
0.4804366862544726 
0.298228154869322 
0.006369600148119325 
-0.767571413600911 
-0.8301982847555442 
0.5590907404132992 
0.6545065671236631 
0.7314976297201146 
-1.085253092144104 
-0.05453928073623197 
0.5218824799875855 
-0.3135199456038004 
0.4802042833585676 
-0.282716439587063 
-0.1374125563957694 
-0.3428744348477262 
-0.1099439551112644 
0.00101394664054659 
0.2642073536421594 
1.199119608802786 
0.4171573787201938 
-0.7353552152755521 
-0.7986335816003257 
0.8625242347551508 
1.611910973888419 
0.5305756950720665 
0.5700759559167764 
1.599968305765337 
0.07609977611712358 
0.2723255071748596 
0.1811728058599443 
0.2925126968983102 
0.05820406018248146 
0.5129603124011072 
0.04572277895401127 
0.9861076611521792 
0.626400956965347 
0.587590351787515 
1.019799240598175 
0.4411389545198527 
0.8038368671209974 
0.8478310811856069 
-1.80239511081856 
-0.6295011936845619 
-0.3517694200258346 
0.009535035361409072 
-0.1409511210323676 
0.7831405348632101 
-1.069252705282715 
0.07407704920686504 
0.3546071935342752 
1.012226334076811 
-0.3048706219777214 
0.003574876235844274 
0.9370002147694504 
0.08748744128872116 
0.01738735071319606 
-0.260168907388239 
0.09531790319902414 
-1.375178696214532 
-0.7790603316244757 
-0.3203039683038902 
-0.4258380231139922 
0.9456025516400334 
-0.1266162356505265 
0.3398557701780449 
0.02485946062790832 
-0.3044999946728693 
0.2722277312816357 
-0.1261003739683181 
-1.596373765578997 
0.1883378283104065 
-0.9565999419469623 
-0.3797702114584205 
0.04142030058681383 
-1.043487465249503 
-0.09612024677969681 
1.741948984988536 
-1.140369027579422 
-0.1141867827197785 
1.069963544482226 
-0.8450519480514724 
1.118005260176762 
-0.05193009213749131 
-0.3412812892326891 
0.1030914961227914 
0.6517911848594656 
-0.7314665671248958 
0.1089495363680863 
-0.4706395226238198 
-0.05560098644042928 
-0.102078306055488 
0.07312540983513668 
0.003441815934310218 
-0.5321094455455198 
0.4836166471709062 
0.06899844633587107 
-0.1782146521252167 
0.729091287320724 
0.2778150830090134 
0.1817087114217514 
0.06040663712706611 
0.08255353652208379 
0.1600088127046612 
0.5273637048024894 
-0.4687801743396295 
-0.4324863740990728 
-0.09436468921952734 
0.239838069555902 
-0.3049825692747412 
0.8152994836774734 
0.1735376494425542 
-0.419541422920068 
0.4014323420152901 
0.3048312750512476 
-0.03846320023747292 
-0.6082760069897719 
-0.2271643585842334 
-0.5735079000554457 
0.2085780873857663 
0.0006005778501508738 
0.2160637050127214 
0.4802587054648084 
0.3084624583392198 
0.005081740069425997 
-0.212971866533045 
0.5667739550075452 
1.176173658459233 
-0.4324737076379155 
-0.6172652238239388 
0.5562520714422908 
-0.1039820441204849 
0.241850581710199 
-0.5305172944375478 
0.1895350201540862 
-1.07702831628317 
-0.6120207338523148 
-1.705900920957303 
0.2871887332727377 
-0.3781132010428824 
-0.1491996948995541 
0.0891094530501072 
1.036266309814423 
-0.2546850888742824 
0.000191310531555502 
0.9684393933795916 
1.102231476905922 
0.01851618948126878 
0.4813636095886506 
0.04667575184252072 
0.4149813859882214 
0.1511617065002321 
-0.01066783869286991 
0.387543121598408 
0.0304620710915828 
1.123923841334326 
-0.5459288732716319 
0.1544674698287494 
-0.1337130355196196 
0.05810092019822645 
0.4050023945705984 
0.3127432594009483 
1.019446473816464 
-0.04516878077877838 
0.3510728399674526 
-0.02597101627136835 
0.0468915473738274 
0.01547953671160672 
0.02764121041687925 
0.4497908582300336 
1.137373856129195 
1.918366491535404 
-0.4609145047780538 
0.2285758984615797 
0.5807864240852585 
-0.09475660216670015 
0.8331557201252475 
0.07105197825373051 
-0.1261959488347573 
0.3576969110023888 
-0.7443875128141392 
0.4999605756451185 
0.002712681219154491 
-0.3325193220428729 
-0.1337467600475617 
-0.4712208312781335 
1.045156534170184 
-1.039599707685807 
0.2271656938827491 
0.04488555182976014 
-1.124784418977842 
-0.774160428185909 
0.2505539245506807 
0.1612926619835413 
0.05240418255663459 
0.1309540402102145 
0.09147748311379264 
0.1224981984553454 
0.547342201929792 
0.17658689912989 
0.05943348709013957 
-0.7315211369548531 
-0.2370515937594287 
-1.260604627795419 
0.3242277613354728 
-0.9793430455513744 
0.3025670644969936 
0.8793640106188465 
0.05092484393273001 
0 
0.2214486184147789 
-0.03179858223612774 
-0.001869741996102956 
0.08881815414554897 
-0.3563009938912902 
0.2473090407418401 
0.6736153845054891 
-0.1190170982328937 
0.02244574313853478 
-0.3899443711227085 
0.8778905730457434 
0.7473320452473486 
0.220204874996442 
-0.02461396345584604 
-0.0389590931095084 
-0.1079576269215411 
-0.3950125705406013 
0.01821979582955556 
-0.3340981025473678 
-0.3763519745538643 
0.6008064871609938 
-0.07177201949478854 
-0.2642420159083799 
0.1556219858674396 
0.9332799402512563 
-0.4982374643808962 
-0.2505996195517405 
-0.07451599306548483 
-1.401590985035715 
0.2575350837549551 
0.5111615632002674 
0.1548352066508486 
0.3235421181648988 
0.08689177021402382 
-0.3372845952047565 
0.7051546662877156 
0.0007660098776978047 
0.7594539135171199 
0.1768825241760767 
-0.066004067358819 
0.3659152842915261 
0.0003315966759995252 
-0.2467718349468448 
0.102461838563314 
1.613940444836681 
-0.07785774007731035 
-0.4203825194524637 
-0.5217793536043556 
0.48624661467032 
-0.03796945159255368 
-0.4497380444305501 
-0.7635113386429712 
0.1296271390042463 
0.01588959913591258 
-0.1144786548244148 
0.4396943299757384 
0.5707378295162452 
0.0337596763818073 
-1.804821559538869 
-0.5341266771476755 
0.1610183783327695 
0.02307299960429845 
-0.1917951510465096 
-0.2760150575880372 
0.01448383658876441 
0.2379593247409869 
-0.1803999913342992 
0.01280325536162161 
0.1136606649408227 
0.1558704572626999 
-0.881594531076408 
-0.1372274106494465 
-0.05475851396166646 
-0.07454683848977087 
0.7088490150249097 
0.2931755952329216 
-0.2849662761378566 
0.8539734880329229 
-0.2512583529845782 
-0.5442569696660057 
0.09991453409648542 
-0.8086344774220604 
0.1160407242453822 
-0.005504041407462197 
0.1630829568675471 
0.04217137349460472 
0.7452833191631606 
-0.02136410790457362 
0.001608745833932219 
0.3598755838387189 
-0.1776366549502347 
0.05279572013246193 
0.3769251017751333 
-0.4763001347724996 
0.0003257358572852044 
0.2623429718033705 
0.08562749752448007 
0.2000754973914146 
-0.161912370860977 
0.1775999811110653 
-0.01798588996501936 
-0.3858530234477848 
0.0004218716384687135 
0.03333517204716138 
1.172979094563486 
0.782000770092768 
0.03145030585752289 
-0.6752236140250183 
1.252203734704154 
-0.3116741349056216 
1.590629508220887 
-0.6657976611442946 
0.1661754760734421 
-0.177649963825932 
0.1487358311553256 
0.8244831015510773 
0.1410725905801796 
0.03405133914754078 
-0.2795501061660099 
0.1835090728483943 
0.5315822405922823 
-0.3209169409379139 
0.009583094494024953 
0.09009377414133091 
-0.6989520847444586 
0.723604331427643 
-0.001565163708962366 
0.1477194629092297 
0.04506126277132202 
0.8705214458911309 
-0.1475795684008465 
-1.024943697886383 
0.3992806875229779 
0.5206356261075766 
0.3047813478630835 
0.4272826311301117 
-0.1959680221215307 
0.6723347601855387 
-0.07464646522060142 
-0.5237291030147 
0.03754552178569686 
1.56423253902728 
0.04240207007523934 
0.7176454955763361 
-0.254428205625911 
0.5807405264744676 
0.7608158899630757 
-0.9771470996743999 
0.4641533757503837 
0.5472104065214392 
1.449471033522193 
0.5651167038103209 
0.2637966350174865 
0.2569628623045183 
-0.1533845012197149 
1.252440377889362 
-0.338973853788302 
0.6717960929832338 
-0.3666208656175177 
-0.8613341395549929 
-0.302040224795864 
-0.6474619946046035 
0.04300898107704165 
-0.4961778193035647 
-0.06352865541759763 
0.4656144329820714 
0.02403462373664975 
0.610847589925851 
0.2572575279651583 
0.2159648537884135 
1.073789621474502 
-2.183426225114065 
-0.2736001991899574 
1.757148854495707 
0.4715163902980962 
-0.7964007229871193 
-0.2508072179080352 
0.49181879107657 
0.6800064087939018 
0 
-0.1916027952506976 
0.5443527046875318 
0.4151047572658165 
0.2494462785446664 
0.4648727762228969 
0.5253564328928877 
0.4112664682974687 
0.1209659132157133 
0.01165262466330138 
-0.5232376158315977 
-1.515071620372947 
-0.3973008670449216 
-0.1475269772373085 
0.1137922167178134 
-0.4537368273596161 
-0.8629974439483606 
0.1370156723191647 
-0.8275060450311341 
-0.1187570244391149 
-1.052692689314469 
-1.410055372973031 
-0.482057066224484 
-0.0912167844448659 
0.989716021171187 
0.4988717761963697 
0.02507595065417032 
0.4834209020229601 
0.3695639031183835 
0.4028263548876642 
-0.4620063688947768 
-0.03177698479063819 
0.5425601483023454 
0.1192778644371454 
0.16712800853757 
-0.4130228951552991 
0.09959460056196574 
0.03044102418502407 
0.003978977854662552 
-0.1757191734445222 
0.9450365956986477 
-0.02895087870859751 
0.08319728156766235 
0.2429545191118067 
-1.495629229738759 
0.07745788689043732 
0.4306744310396929 
1.248324774955559 
-0.4178330097201097 
0.3389962960826961 
0.1319873669544979 
-0.2427108545169927 
-1.072897640476264 
-0.3442917363990408 
-0.007289208592537174 
-1.232928292810371 
0.2773069695318388 
1.624637535573996 
0.02846439346089513 
1.249088939585227 
0.9176089577797615 
-0.8136571930440939 
-0.3027509637379553 
0.4385105715486055 
0.1298671102304504 
0.2578300645312813 
1.244757506888145 
0.139051195353691 
1.125427138123128 
0.8293464025110044 
0.001714756824556695 
1.135658933084757 
0.7673725604737017 
-0.3725410100733503 
0 
0 
1.088899302716575 
-1.002516019202947 
0.9460927326306847 
0.002263885283194367 
-0.5317507528927845 
-1.107518026124708 
-1.033220646555226 
0.6300298717794847 
0.4369930510049457 
1.018695165555467 
-0.7147999735754247 
0.2157525973448404 
0.07868265480452155 
0.3248940904023242 
0.2120132224146799 
-0.9429735646501402 
-0.4099360423295779 
0.3446271955558146 
-0.2303251768589576 
-0.7964955684530449 
0.3659542340645546 
-3.223751242139063 
-0.6393639548595711 
0.2747072864832532 
-0.259468083868052 
0.3149198998308539 
-1.227537044235918 
-0.08425673679282492 
0.02706579234438245 
-0.5044442335160724 
0.203839956320737 
-0.1181733609366265 
-0.647519967476626 
-0.496520204596184 
1.087559752540096 
0.02690377487525121 
-1.241287119328455 
-0.717145297060077 
0.3634514149494614 
-1.2374047595962 
-0.3489042304624814 
-0.4313793936973319 
-1.715824160890317 
-0.000728434635438216 
-0.5716165533918875 
-0.7252183154093877 
0.2478676612408732 
0.4977996261078775 
0.1533569691480474 
0.06094463215878773 
0.5743117376279198 
-0.3240574109529267 
-0.1335872198549278 
0.9544581971832098 
0.1077663963866507 
-0.008376231876156628 
0.312547812874841 
-0.03622199997571544 
-0.6655288002229246 
0.6118322507009237 
0.06094463215878773 
0.1518952297573105 
-0.07831837863276908 
0.06126649292810867 
0.06094463215878773 
0.1225326448065946 
0.4916242449069299 
0.5903805499544443 
-0.7375631063368026 
0.4043208393498481 
-0.07806733056596334 
-0.7051880051441785 
-0.585688682147395 
0.02992571103376707 
0.8080624064891987 
-0.03534809068473696 
0.2511123701661048 
-0.4523496693399375 
-0.371816255101823 
-0.6147904039659373 
-0.1680800207060324 
-0.4986790646433459 
-0.3430330745312891 
-0.07388842386515597 
0.2687182123920682 
-0.1104785315466197 
-0.8102647945816411 
0.8218256899467739 
