solver_type L2R_LR
nr_class 2
label 1 0
nr_feature 133358
bias -1
w
0 
-0.1154628698848171 
0.01437835824380805 
0.4047458078250233 
0.3060731287027174 
0.04218295909722913 
0.06300372941509756 
-0.3559256916168863 
0.9290944556078321 
-0.5652778219936737 
-0.1822612925534 
-0.06272787934078014 
0.1539217330587691 
1.263877601708121 
-0.351029585366286 
0.008048094446164467 
0.3719872549290646 
0.4761515232298208 
-0.04648795400919317 
-0.1268902313694713 
0.3954261957949359 
1.790939962078413 
-0.286618685146487 
1.154708771431168 
-0.4127817679420826 
0.7313411912834615 
0.7737853651431776 
0.5385499106063294 
-0.4681745801960208 
1.404465303387897 
0.4482285375742189 
1.285123388197302 
0.5088246313602991 
0.1352355899701031 
0.4811711553303118 
0.1194433727052178 
0.1260378278184048 
0.06186019597829412 
0.3241085492558058 
0.4366854555452675 
0.8619732404751221 
0.1082452257455183 
0.1830388857244496 
0.4766205223102921 
-0.5434166508063338 
-0.0616288909626585 
0.07069383072101046 
-0.4627069534174447 
0.05487740292443665 
0.7061443080880069 
0.0495824987465716 
1.153548160306897 
0.8315456656936359 
0.06519155186271643 
0.1535747998756714 
0.09867787253335042 
0.01240909597594977 
-0.001473382756886596 
0.09670264396723312 
-0.006335132766082515 
0.07519135312096931 
0.4422741814704689 
-0.3376362979998819 
0.8326440382753684 
1.197578206700897 
0.774656329496527 
0.1450787505072886 
-0.05229516796528187 
0.1140601501515686 
-0.3225941028218274 
-0.1505070300096763 
-0.2564101691554425 
0.3376493565944921 
-0.5365763897590338 
-0.3120333809311052 
0.4784773122830348 
0.9637519221594922 
-0.06908696813976274 
0.6678035196419466 
0.2205950091545466 
-0.2507005680085624 
-0.1201548199743022 
1.286127603430467 
-0.1344848195824156 
0.4099212725085482 
0.1586557820008029 
0.4226975577971677 
0.8234682662680578 
0.06158755807516288 
-0.3439624038503167 
-0.05842513598574195 
0.1978939304898603 
0.3443612174947926 
0.2525425501702149 
-0.3130828871273451 
0.2792504496439899 
0.2707274901859569 
-0.4423122654449663 
-0.4034338599685123 
-0.5352846719702296 
0.004826184517634301 
-2.581499812525298 
-0.07365828487060556 
0.4902316921776945 
1.416986071580318 
-0.2213652206521873 
0.1705599042202413 
-0.1610139921896113 
0.1049412115313477 
0.9290755866280135 
-0.1666910768886993 
0.8905717364029871 
-0.1515412032193386 
0.4398315167557346 
1.828653675800671 
0.1156757311643316 
0.213854587493765 
1.12681638534761 
-0.007856896563113433 
0.6601556870131042 
0.01720659705101354 
0.2976404531060118 
0.09217995391163732 
-0.4908191431456438 
-0.0905846164641098 
0.605446265240795 
0.8308891413926499 
0.7932802621224573 
0.1511599537437163 
0.9709722417488823 
0.6161597881512006 
-0.05002537410995435 
0.001394729532337761 
0.09222151988527623 
-0.04203026750788362 
-0.3893524870084998 
0.2308553024840337 
-0.2497182132136589 
0.7912814399649277 
-0.4687986001479191 
-0.1098147650900214 
-0.08275557452080604 
-0.4200897917360757 
0.3450492442824135 
1.32641049254543 
0.4729846410014044 
-0.6783065976662078 
0.04074788586656739 
1.389339283448111 
-0.08580433604867803 
1.01452288281223 
0.1489874653811101 
1.511291311726301 
1.770284469240197 
0.6963585511500917 
0.208035057397323 
0.2962910817303159 
0.8314426182158213 
0.3678324991049101 
1.190566262269191 
0.8168090895490052 
0.4092774544251199 
-0.0875586040533527 
1.429362579917821 
0.1880112626386188 
0.5607349165990123 
0.1333556977437639 
0.06885948970527091 
0.5991727935928283 
0.04521488077157097 
0.2168137010829645 
-0.0564494303703028 
0.4064899371870825 
-0.06237516361921959 
0.4056287905719951 
-0.2172113778765771 
0.3496259724465621 
-0.4185957217773967 
1.214504193624264 
-0.6497177864110296 
-0.008586909199356882 
-0.1382441032792118 
0.3854777642178368 
-1.326553093257919 
0.1076972624120598 
-0.05705530909990232 
0.6054030712985492 
-1.11569218902781 
0.4065643373845855 
0.08682279291174602 
-0.1320349556066926 
-0.1665676993324224 
0.3528663293024381 
0.4406888734509896 
0.3274574768581719 
-0.2609099008001774 
-0.4421050590714057 
-0.4692123400421584 
1.241211134590413 
0.005096353828892106 
0.1091490362928888 
-0.06206036989029996 
-0.2725240510676136 
1.009338693355283 
0.09699837635577685 
0.1338185086344461 
-0.685862110471869 
0.4172774562070217 
-0.01444746999145479 
0.879615181315107 
0.2186936138147062 
0.8846649352415684 
0.2211466441369218 
-0.820595913176894 
-0.3918245415246457 
-0.05518994074758106 
-0.3171195049099657 
0.06563800178487678 
0.1470380702342153 
-0.8797563439374567 
0.003830305424737841 
0.5359649772740673 
0.9753265511585631 
0.8342249510818563 
0.6185605948321091 
-0.4162030896501789 
0.1218302352941483 
-0.1247658809877432 
0.2776796359020114 
0.1827223798345094 
0.2988147496609293 
0.3369983284058599 
-0.3528466169182352 
-1.18543126501958 
-0.2833212221101449 
-0.4205587834883286 
-0.855439559832228 
-0.06737387461645593 
-0.2270155631795015 
-0.03196138647332823 
-0.06761416895668948 
-0.1763841630670356 
-0.5929898182723301 
0.3028650556674156 
0.4301122617492271 
-0.3704760514708926 
-0.2150219549977616 
-0.2136399097945415 
0.8267787134174448 
0.1662040553840307 
0.03768516178045722 
0.06567593962351831 
0.492295553444405 
-0.3211169510993734 
0.3791694734586441 
-0.1305880885031713 
0.1655562976379307 
0.001676320520749558 
-0.4320247203764917 
0.6395886378795201 
0.2350735478767929 
0.4068700743123728 
-0.09325463854983221 
1.080884982143466 
0.1074882964847228 
0.5303337512761245 
0.632593124059829 
0.001676320520749558 
-0.01521137011781315 
0.1881490219730991 
0.1151867406130583 
0.41957429463159 
0.1848715454348878 
0.5978242658050616 
0.3190857525456422 
0.01344682054173251 
-0.5973328172537677 
0.321960110931271 
-0.06124724376367829 
-0.4173129729216464 
0.4558301749432771 
0.03535420994776901 
0.3447121578007737 
1.109434932956699 
-0.7052588307550172 
0.4424120014247884 
0.3110382925409808 
0.5184128979655637 
0.3755257040147699 
0.5510179269727 
0.2410973898049363 
-0.0450388645580243 
0.5202459961882825 
1.019389415548038 
-0.05053839828076025 
-1.144712164607037 
0.160573615514824 
0.07022451384356487 
0.4389939956872513 
1.045732291685895 
-0.05168223951274542 
0.1264868138368573 
0 
0.5930644145537274 
-0.2710996622638329 
0.3038517610530427 
-0.3532397127279832 
0.3830504890687206 
0.1794078141447824 
0.1350576353216847 
0.3675891014611159 
0.05542625382542252 
0.8551258257972914 
0.3523449720183709 
0.3634952461638328 
-0.2886782412428482 
-0.06286755001001579 
0.10103755829348 
-0.1750585578603728 
0.6657071750568688 
0.3327873474943229 
-0.328615752506803 
0.6220691652267444 
0.1941038785147853 
-0.2566620676388045 
-0.08997848285601258 
0.3328793848547679 
-0.08605713983118501 
0.7328747482336625 
-1.2867104821348 
-0.3617336876456864 
-0.9443318914575854 
0.2125965776059904 
0.4028178436403438 
0.6621773091420516 
0.2973169228258302 
-0.0651748961332055 
-0.08175685264546166 
0.09903078184163921 
0.7506415194932771 
0.509262569896024 
-0.2141580603549383 
-0.526277086280879 
0.02625379383235885 
0.2738288022269004 
1.108187617820344 
0.5375143798276835 
-0.4340132111360795 
0.381997447014704 
-0.1179444482450001 
-0.5360882591055037 
-0.1344045808628361 
0.08700078378004646 
0.0003910652687917296 
0.5695300601219151 
0.2006700259959045 
0.1097681825816307 
0.3843510998152935 
0.4156942887784515 
0.5491856655817265 
-0.2354550553097277 
0.07079927480742444 
0.9362917256369726 
0.5251294934572779 
-0.163876476826445 
0.2004921710034807 
0.4789432549126675 
-0.06577792870240086 
1.481171754943301 
0.7560851823487068 
-0.483726240102861 
0.9372737014883221 
-0.1373486644563736 
0.1518708143000614 
0.6234587976084206 
0.06857205463937655 
0.2330469002976959 
0.2952079083080683 
-0.2267795564915498 
-0.4808938473787219 
0.3740258004848902 
0.345186954520449 
0.5776779679680292 
1.014192348706311 
0.1108415060057308 
0.8734800169264991 
1.165720079160415 
-0.346311499938015 
0.4619826094523499 
0.5002899856899036 
-0.4241495269548265 
0.293380896629876 
0.05855510524498145 
0.2162907313576064 
-1.269759799317826 
0.2937594035203325 
0.1779113982769067 
0.2733915260753419 
0.7588005944703161 
0.1127755578308303 
-0.05668653793891845 
1.372782393695625 
-0.2225762058442184 
0.4561234224092493 
0.6073759151834263 
0.1699483457598434 
0.5261686597633106 
0.8945636750208696 
0.1268893618452272 
0.03100856395264562 
0.4004638407151872 
0.1469995500987509 
1.380082951526314 
0.01886897703988764 
1.099157230476745 
0.1483642319089427 
0.2921416871351113 
-0.2434284918129559 
1.162861993979517 
0.1041490674666224 
1.084351325518307 
0.2133905776916024 
0.3709534109379962 
-0.01447826843439912 
0.6795217519789861 
-0.7266898458826733 
-0.2455784319915425 
-0.3202201079525428 
0.004631584823545019 
1.377486295396409 
0.5221711658232076 
0.6718013876317781 
0.5157788117718627 
-0.03103155286158858 
0.1564079909436971 
-0.281860079881273 
0.6932728641404688 
0 
-0.4008274999124907 
-0.3322850329881225 
0.2528807598081702 
-0.4288707939971236 
0.2382171800274037 
1.435207395522082 
0.4816341955672773 
1.010460361741576 
0.719358498987328 
0.4402422335205007 
-0.4787349742243008 
0.02679190513687792 
-0.4580772065643993 
1.045438735709853 
0.4815344577885859 
-0.8621093993290945 
-0.009136269960997766 
-0.1855926868523211 
0.1871666042090936 
-0.5304198858698984 
0.1937478875683817 
0.8361683978053197 
-0.01469472305283126 
-0.1100054152507416 
0.3480801652944541 
-0.4185145553009897 
0.690478493530209 
0.8042560133501603 
0.2618035662416255 
0.1326604329297335 
0.5382980103463479 
-0.01503575287596836 
0.0526268874593827 
0.647337879827077 
-0.6265290056390451 
0.4012573173546203 
-0.1704025831940256 
-1.302962986711058 
0.1091801841933372 
-0.8536199997593588 
-0.2169471802774044 
0.1489565820561855 
0.0003243132222017497 
0.6160183507374265 
0.5229283236267144 
-0.8260082026811902 
0.2101877424240654 
-0.479532116871877 
0.07219580751138924 
-0.6745003046693244 
-0.283334436166817 
-0.002967666523116266 
-0.02579796982637786 
0.1606525831044207 
-0.2001775340040388 
0.01428454738537475 
-0.2706158296304716 
0.109207158028179 
-0.003925267670377666 
0.0263104065630487 
0.2368242169677767 
0.5354948272785579 
-0.5620652900353214 
0.4757646266059987 
-0.2188556435099112 
-0.4354221695198531 
-0.7944526068536164 
-0.4455320882399687 
0.1205275789506904 
0.1944397844107541 
-0.0363304546984474 
0.04799751061544695 
0.2356205065412169 
-0.4449633479841865 
-0.2400898542852304 
0.339424023278006 
-0.04133330722115851 
0.375182418767554 
-0.6202565722812314 
0.4256498433399693 
-0.08311513704843476 
0.7805441614750851 
0.4249381509330518 
-0.6498433493136063 
-0.5887366952297178 
0.6042574178226607 
-1.488089450816946 
0.3590741115739549 
0.02338916819533422 
0.9880584989264936 
0.2877741462952289 
0.6536377380207137 
0.297428629485798 
0.1418867897360046 
0.3697419925599422 
0.04491589334631667 
0.7943191112560483 
-0.1287230550837741 
0.632117752751423 
-0.01655844086836633 
0.00139482263784429 
0.004953512979491349 
0.2123306358915052 
1.028971071293321 
-0.09362462264449932 
-0.663507557067624 
1.035422191600287 
1.408494587513788 
0.6153332929170011 
0.4771514241186435 
1.31455042602417 
0.5842843782548914 
0.01091015886550802 
0.7301772211567564 
0.4169469812287785 
0.7729260530323487 
-1.025732837785625 
0.2448200822336875 
-0.1374076341110135 
1.53871279802364 
-0.2442944622616636 
0.1632956809133947 
0.4398122814687791 
-0.367945495055928 
0.3055264079568051 
-0.1955872797693992 
-0.1876908305474608 
0.05352715884835843 
-1.072266533564588 
-0.2332708837025378 
-0.8206599977759623 
0.5421376907702316 
-0.4796808720188243 
-0.1121952707074753 
0.405780417334667 
-0.4664688843718045 
0.8220597056941323 
0.5126826854004345 
0.1326609499490803 
1.114091941619077 
0.06490680789610628 
0.3823838580651983 
0.07748320664712945 
0.2959162858368175 
0.1274029839632782 
1.169766958817047 
-0.5040409743567946 
0.03325445383773423 
-0.4400945796225623 
-0.07412258228059208 
1.118494290130597 
1.115907357830394 
0.1373488044234329 
-0.8810369378713777 
0.1634627945441768 
1.138917064115063 
0.4543562806002616 
1.277397555874263 
0.7054942161045388 
0.03874307197325168 
1.130978312400479 
-0.04194354020205594 
1.600848878277388 
0.7144451694212937 
0.03386643794435018 
0.4509001973170312 
-0.02339828657056196 
0.7850548676333872 
0.8696062325829358 
0.1141196048663522 
0.4960291578838242 
-0.07536019117985672 
-0.1235886057188795 
0.2215295802550645 
0.2333930745846889 
0.3022482752552312 
-1.096615444695995 
0.7141119304124409 
-0.1784812794890825 
0.5984425195552714 
-0.3281039033901803 
0.1969109645442509 
0.03078809819365436 
-0.2686012837135376 
0.1705450344780872 
-0.475420615875461 
-0.9508572870493875 
-0.9571234092036893 
0.3441792147490522 
0.6785398969916507 
1.273458101438028 
-0.04119657327951642 
0.5521124302562493 
-0.2097998254638596 
-1.037314783622343 
0.06991397301140925 
0.0816664098786746 
-0.142483335277804 
0.05997241082751797 
-0.189082671690344 
0.2695923278668659 
0.4646713619993142 
0.4085374974574581 
-0.03861745925328993 
-0.02629005144090923 
0.8212766118007755 
0.0971242378658437 
0.1028234657138898 
0.1001520345021672 
0.8213369744692144 
-0.5873009475823397 
-0.342099901378761 
0.4480469395778298 
-0.84007933057394 
0.1855794753614378 
0.4492335126759655 
0.04020581602147271 
-1.266475585613553 
0.2560792689860096 
-1.45968610779561 
-0.3683927165801599 
0.510095770168713 
-0.3843543852501545 
-0.4840341012948232 
1.084811318134979 
-1.555496794063544 
-0.571277669974402 
-0.003589370919162588 
0.3124814401551484 
-0.04704614062473556 
0.199532346516708 
0.2732416216837756 
-0.2917241597176197 
0.04755307718136794 
1.032365132659069 
0.3702847121213131 
0.005781480354303412 
-0.09312867980863515 
0.514102503788412 
0.008856811867831297 
0.2215412465067015 
-0.4289331055963939 
-0.9186702811643102 
-0.6776966421455531 
-0.002501451655779417 
1.172730130281687 
0.7007739122607813 
0.01109643368543545 
-0.08568080095469167 
-0.08717051283246725 
0.04674672228126484 
-0.03479489274314605 
0.2008121494433803 
0.01153780372497017 
0.2873906108232431 
-0.3576056837712692 
-0.3415644002634847 
-0.3471748133904919 
0.8374264472785824 
-0.5116386554145881 
-0.3668482089312319 
0.004256522106327793 
0.1723484129876234 
-0.2846275119646673 
0.4746214191575734 
-0.04322737711988744 
-0.3737567808809237 
-0.02276007828246464 
-0.5824124232455469 
0.3669361113667245 
1.045865938816811 
-0.02879134133954259 
-0.009198048732593472 
-0.5728656090191515 
0.1354881562549003 
0.4467932030439613 
0.1193810268134126 
0.08639705236930245 
0.0182911748352224 
0.3706351689367298 
0.2246699445884759 
-0.6171594419354626 
-0.04580522516932434 
-0.2272482858538575 
0.3935928540177631 
-0.1102329885361797 
-0.5217976293074708 
1.048024469410918 
0.2426388097711033 
0.2405806484621727 
-0.06216671020567521 
0.5699927638411911 
0.3308377127224226 
0.7062480981102013 
0.2900351722843694 
1.090354627747524 
-0.5710802368917351 
-0.1924551367446958 
0.0110366018852135 
0.2460993298114997 
0.478731698547924 
-0.1746655734872172 
1.125484678652659 
0.7994007612718163 
-0.3860564297184852 
0.7472926187204399 
0.08728834659296143 
-0.1264050180245919 
-0.2739242581095236 
-0.1303591661663167 
0.1245509453683625 
0.2588955794320554 
1.571905811605179 
1.681897657931752 
-0.4296635107856023 
0.1302594029081804 
-0.2405139493070449 
-0.04721806064559082 
1.423838049062927 
-0.03513471252979268 
0.4555049947332243 
-0.4565165946748792 
0.1087723471987539 
0.3820932163368032 
0.4510227450018893 
0.903171809714421 
0.2097780254281342 
0.1836373321644237 
-0.08275679866146088 
0.5381561099977283 
-0.8330172171047687 
1.5000024136761 
0.9768549967350136 
-0.5454465721142774 
0.2153580636151626 
0.0002309720880163749 
-1.452200432702828 
0.08166957160752536 
-0.4932887745998644 
1.034696064566334 
0.559919805019669 
-0.02903526128493681 
0.7764043732303264 
0.3284416370174849 
0.6750215118407067 
-0.4434326993859798 
0.3063636171685108 
0.4404745971513928 
-0.3921472187559344 
0.1277077252819289 
0.3270730406259802 
0.824753176710078 
1.07570700184621 
0.43324570819402 
-0.2870202788763103 
-0.1963843379431177 
-0.5023215712103782 
-0.3455603101086213 
-0.1472005512043091 
0.2563657636493731 
-0.4728780705109876 
0.7548320881087683 
-0.2840175853330787 
-0.3782451777411656 
-0.3572055408314475 
0.3030765001436305 
-0.08353336148001084 
1.185753235156723 
-0.2043776836293264 
0.3497174970465327 
-0.3738717662023405 
0.7851507512013431 
0.70706926969869 
0.6507020953021248 
-0.579298844111082 
-0.1703626815281329 
-0.2440886985757087 
-0.1201490849922111 
-0.3205351660430952 
0.08958454572714632 
-0.348332975859714 
-0.3442072610210724 
1.634570410139389 
0.3430493743537979 
0.2312228465440782 
0.4126863503292106 
-0.1190130235669431 
0.4562417973279682 
0.2205123777628782 
-0.2848609887745359 
0.836509734964438 
0.7528592327795112 
0.2559598873264028 
-0.8235358274389233 
-0.03477878050618675 
-0.1747735031630106 
-0.9669693420453712 
-0.05618220424670441 
-1.056343048919201 
-0.2600070837942261 
0.635813356617977 
0.01109813667500767 
0.4668041422212207 
-0.2486908480777551 
-0.01283182421791777 
0.3130960276348815 
-0.9095348405041401 
0.3271152242764108 
-0.5035507727227482 
-0.08454740434885739 
-0.733433710348548 
-0.09630633968859323 
-0.3358007264463863 
-0.05997207516157652 
0.3998515553931865 
-0.4920881878499906 
0.2393244127538522 
-0.1897470110285228 
0.04723476716070062 
-0.03320689935551308 
-0.3069565381396508 
0.02240921289786023 
0.5391803915251745 
-0.1661959320180241 
0.5769661235624439 
-0.3286943266032917 
-0.03733322471624064 
0.2055102736926149 
1.182450933675838 
-0.2131371395998826 
0.0215218781825058 
1.019408354467027 
-0.4665868245759366 
-0.04520272336802368 
-0.437741257134206 
0.2262845186263732 
0.5346765169975214 
0.5851529150942462 
0.3589082316651998 
-0.3765916094638224 
0.6288155822086421 
0.5362036593851573 
-0.2459399089122752 
-0.08678786262919132 
0.3506300736874155 
0.1084906142458514 
-0.3707107802652989 
0.6556569453001297 
-1.272109761449383 
-0.008969680205567772 
-1.00187801589676 
0.736296202853309 
-0.2536923870962826 
0.2735792274792445 
0.5530645137733775 
0.09394169213359395 
-0.02520543589927915 
0.004335121148585894 
0.05692769646996333 
-0.883862223244819 
0.4033852343210912 
0.07582747895613232 
-0.425979450108756 
0.4754966260390703 
0.9589053553242772 
0.02540362997245096 
-0.3638469729831366 
0.02124642458631673 
-1.032656355936256 
0.1750552236804583 
0.1578771965940174 
0.01141343177184561 
0.4326433199401764 
0.08843266427497987 
0.3882048570075025 
-0.07266110347422759 
0.1087979246136928 
-0.1261426853873211 
-0.3726979692685407 
0.5768027909246174 
0.8136268162544358 
-0.1396263706548782 
0.2622566262522916 
-0.06516766560422432 
0.6878268299402005 
-0.34490094817689 
0.9659919457510434 
0.2668414049983711 
0.04821718785642541 
-0.0451489367955057 
0.8927791055742662 
0.3372755648950277 
0.6843330927671506 
-0.613187077619922 
0.6041991937713467 
0.06478010177285362 
-0.2273016262375226 
0.2717232914305609 
-0.1757088803467048 
-0.1854875851831327 
-0.1192582793897548 
-0.06852671477636001 
0.6912185856898694 
-0.3787633244966156 
-0.2697723382051056 
0.05001695770423598 
0.2905326964259225 
1.026685695452685 
0.6082534522649067 
0.3667596823017019 
0.5854440487665361 
-0.4302702828022075 
-1.233998497382555 
0 
0.2148513799032633 
-0.502151988148004 
0.000125208069849829 
-0.5390396852713291 
0.4244890027267484 
-0.2282884192896733 
0.3646255882159681 
0.4626258091337198 
-0.2482153131348614 
-0.5259827724485608 
0.5093604852779765 
-0.6519933444520124 
-0.9029696389554199 
1.006157725350025 
-0.1113523198870379 
0.9944274128215079 
0.167128592747629 
0.2587504343606982 
-0.7882854785613076 
-0.8894324514443569 
0.7579857321239226 
-0.9989329436418105 
-0.2494264911651593 
0.4365135640276389 
0.672775483517959 
0.2781475358142912 
-1.738147794772229 
-0.9171043787322704 
0.1097827879401208 
-0.8400676336590454 
-3.574527779341705 
-0.2625553141008915 
-1.121831010582185 
-3.65930852691002 
-0.1121429540130831 
0.1106042034670038 
0.4454808319888314 
0.2123029115629105 
0.8250655967975833 
1.170275666448594 
0.8870362608200867 
0.1582525171632234 
0.313137242541196 
0.03121554315151805 
-0.01746913719794531 
0.3271925041105868 
0.01292638108830817 
-0.1327409964035047 
0.5219119889735629 
0.2092477264339602 
0.4489103950295438 
-0.06595150449024179 
0.004712746739861064 
0.4773509637425235 
0.009955048015746593 
0.1016550656275543 
-0.1755089588552018 
0.2231879459748753 
-0.4182831853688605 
0.0644245019124601 
-0.06788894617330177 
0.453947241108188 
0.3582169856564681 
0.477241304686467 
-0.03546056104288395 
0.6019101005234174 
-0.3664551123789797 
1.767494967496419 
-0.3810146690617138 
0.8787384907680493 
1.253317084298032 
-0.09277571839387153 
-0.3192820689717412 
-0.7749141778412079 
0.929273439482305 
0.05140123976710442 
0.2343581039077604 
-0.5065972417149399 
-0.287568140690241 
-0.2172337890521575 
0.2412540055887382 
0.2257909537082293 
0.7583898371864405 
0.9508480033102801 
0.1253239498654642 
0.03711093268746399 
-0.1752190937591064 
-0.8255889747012922 
0.5844969011604677 
-0.2463310698769707 
-1.408998233139566 
-0.2874631654786621 
-0.3032697983992274 
0.1159730476979977 
-1.298688550426564 
-0.1671395803713874 
0.06375112876656142 
0.08979820740447576 
0.2133949611443019 
-0.2568383130750678 
0.6796649243517924 
0.4185994001396066 
-0.1985314940729345 
0.1208115442852992 
0.6496234346875764 
-0.4034512853815526 
-0.5054904221196657 
0.7608905006044846 
-0.6946408216353009 
0.2905600810634014 
-0.289900129488825 
-1.518018826605692 
0.3782427816074012 
-0.1396894853966687 
-1.081621715521486 
-0.1540884428104115 
-0.3939006851693789 
0.3090431494708138 
0.08958466319245206 
1.540225851798166 
-0.7122723046640872 
0.1526962652068566 
1.188053475152589 
-0.1409672656247983 
-0.8041034860977676 
0.1867670296959451 
2.030367465521322 
-0.7821299720345137 
0.04503619234745643 
0.1551094452905778 
0.7047071186732763 
0.6952785740902931 
-0.2286865130243768 
0.2728581279850874 
0.7921927208435474 
0.1537437170315812 
0.06715899679821015 
-0.3068198874411777 
-0.1191833440976925 
-0.06507176405781109 
-0.9105330799170552 
-0.1248147469915632 
0.9795106994348057 
-1.956131467436522 
-0.8821045103356911 
1.214339411189701 
0.7783002874704621 
0.3267254637291985 
0.686017127025801 
0.2263950042461633 
-0.4852594338095741 
-1.29312287378048 
-0.2244260177611783 
-0.1400748607690192 
0.08508380130850443 
-0.05900081173447269 
-0.3691288598009902 
-0.769017823353645 
-3.716788065620359 
0.2864453685646418 
-0.9160308259866508 
-0.7668941862899085 
-0.1666540972942366 
0.8779595128961933 
0.7241420596830468 
-0.04078742818806293 
-0.212752240545861 
1.379298065927659 
0.2924425928271985 
-0.2569046309605024 
0.6350049872762874 
-0.441028030642635 
0.1879628845057607 
-0.1833813987097927 
-0.5465063249852131 
0.02980815836659306 
0.3725376159186984 
0.08376903973360948 
-0.2110279930555765 
-0.2609158926635548 
-0.2575700068927665 
0.2347122651215089 
-0.09509944037078666 
-0.131856984558752 
0.2306370072005581 
0.05146528554655709 
-0.308986866034299 
-0.3900178104911475 
0.4206119536438744 
-0.3337398782857425 
-0.3900178104911475 
-0.6171427740520753 
-0.1515430719685397 
-0.8782504695734751 
0.4327288220451202 
-1.562305898791002 
-0.2478597060053991 
0.0629216767809635 
-0.5540392787722074 
-0.2501919819855167 
-0.4507315433035267 
-2.604418769825725 
1.321171518986322 
-1.065545486491132 
-0.2171885576771976 
0.7665506917957698 
0.2541721603617652 
0.8917651266206773 
-0.2641517063517391 
-0.3964572489093847 
-0.5742855774554271 
-0.3239202940688423 
-0.5307849887220292 
-0.2971225234957299 
-1.357353464952224 
-0.1030334866381013 
-0.3663555631352894 
-1.288377361935046 
0.1058825715518681 
-0.3275443003664157 
0.450840016497717 
0.3257802205059752 
-0.1359947647234366 
-1.145141518240778 
0.2072466302000167 
0.3652059676898113 
0.3710950836671838 
-0.7568100355276568 
-0.5342607652904454 
-1.227936791994999 
-0.56381937080835 
0.308396299257616 
0.3209330033509664 
-0.2434297799800743 
-0.1964016574252773 
0.0473768214996376 
0.7554763746537737 
0.1815391268489369 
-0.7675844872340166 
0.3414654142314144 
-0.3927714295373591 
-0.1713585346820419 
0.420145268539231 
-0.2841022362542572 
-0.4758778928644181 
0.2403752184968881 
-0.5038329200805481 
0.5688347849997367 
0.8274664872557596 
-0.08826302609235483 
0.6857058459712487 
-0.6029869014893275 
-0.2858406778944218 
-1.718439437799385 
-0.2708057019827298 
-0.5507820069081971 
-0.8395929335618042 
-0.8698455256156616 
0.3604091258794958 
-0.5340237795634079 
0.4273740402326868 
-0.1385540846075616 
0.0134687706626263 
0.417114712753762 
0.03079475483760553 
-0.1295115927452932 
-0.9867788574297112 
0.6612125680709724 
0.120247884566038 
-0.05066436405574835 
-0.1087179059160035 
-0.02284668844873178 
-0.7588925091119411 
-0.4906300863458906 
0.4790536543262985 
0.01973482788317006 
0.1342558383105197 
0.5644250512134491 
0.5720613385665668 
0.8270181722782852 
0.4342424861597053 
-0.154303681200805 
-0.5184656527800878 
1.126397779439369 
0.09511919934999018 
0.1527698228524025 
-1.061310792896246 
-0.1635715521402762 
-0.2906355513139785 
0.6925049802946401 
2.229462165084269 
-0.4441059877549731 
0.1985460877105806 
0.09728828982776488 
-0.390632408564693 
-0.7144140413282484 
-0.8278333619950357 
0.1766794456243738 
-0.6419949571335419 
0.1113881088364079 
1.097336452180872 
-0.3456146556997951 
0.6239400515007527 
0.8685856809951422 
0.6228347981259146 
0.08153618957850056 
0.2009305659144643 
0 
0.4703322950148493 
-1.048928936557751 
0.08220746291639276 
0.175033308261527 
0.2040391352543951 
-0.3668689984386776 
0.1667277501359553 
-0.5596150092144889 
-0.3597064816395903 
0.5873047532148052 
0.6622076773818688 
0.3325759076374696 
0.2408401459106337 
0.5047602554959841 
-0.5370936845467026 
-0.04265357225240684 
0.1608647733244438 
0.9510236472283499 
0.3729734183299506 
0.1103884107312236 
0.1122945778134215 
-0.3501527636935381 
1.027822737010097 
0.03571464091333796 
0.3499304177767759 
0.003154976401914436 
-0.1156477144003949 
0.1441246961053662 
0.02560335527488358 
0.1420634233779752 
-0.277400259586336 
1.403417440346507 
0.5916320090122484 
1.122845334745802 
-0.6174864101555265 
0.3330763245461518 
0.09116474509455665 
0.4905977650214826 
1.193740749477238 
1.29443473600268 
0.03034984738146492 
-0.6149143321311955 
0.4690485501273748 
0.3537113101629148 
0.3601908588585837 
0.7530131241638766 
1.009103230555142 
-0.2208386635262999 
0.5970403026425124 
0.253982315135921 
0.02426493992490301 
1.060197485508852 
0.2490485226701921 
0.1637795866125911 
-0.3432881662019631 
0.4543031983864411 
0.2618246972997567 
-0.1897804986358047 
-0.05509140132526846 
0.1696958570032169 
-0.9577251881562046 
0.06879885507666339 
0.4484784138684199 
0.6753934413054022 
1.550201255144627 
0.07581775106534606 
-0.2587347720854763 
0.4260535691698132 
-0.383297913833031 
-0.09976991887771296 
-0.03915034070003977 
0.09087824318118642 
0.2846658460500371 
1.008569484138112 
-0.1209338874164898 
-0.0394492895467434 
0.8296818758408341 
0.6531279129311964 
0.4906655690940432 
0.3337076805480242 
-0.5143546984426843 
0.8245630038047649 
-1.902670860423411 
0.1372256400402945 
0.05771699642102036 
-0.3038783287844994 
0.599785102770353 
-0.1245726319648621 
-0.7819180214394686 
-0.2423226033581751 
0.463523029394736 
0.09912053951032473 
-0.8677529356562194 
0.003689929763909953 
-0.30292216861667 
-0.8015940710722929 
0.02848402255182476 
0.03780523049637523 
-0.9641726542802834 
1.035752152759335 
0.257063435907332 
-0.2784162104658974 
-0.2082851872525897 
-0.5222393797505307 
0.8634475093263607 
0.4803770693719316 
0.08505360162216125 
-0.0974001610172571 
0.2878092920747232 
0.02663351948882029 
0.2994328306350211 
0.2075193204780789 
-0.1137616283925945 
-0.2848271378813257 
0.5275020139445638 
0.5719636430439613 
1.013544719701525 
-0.3025089135877223 
-0.06896269575367471 
0.1218266432765092 
0.2968493143311207 
0.0676654544936935 
-0.1018313007437367 
0.3778047166741801 
0.8889300778056538 
0.0635986525938373 
0.7264093370778182 
-0.1278639261190896 
-0.6923001555493705 
0.243111618174577 
-0.08138724170597605 
0.08238726597405467 
-0.4203388317179599 
-0.1338255774804576 
-0.03614715384853114 
-0.03614715384853114 
1.619118250991559 
-0.1973848137325741 
0.01040308144993 
0.1388609298602771 
0.381964658938141 
-0.4361813383872442 
-0.5675753035661644 
-0.2532274084593875 
1.812383147898032 
0.04065988533478417 
0.9264298090910639 
0.2974859773654525 
1.591085407033035 
-0.1027228580609895 
0.5586499158499812 
0.6067971512491084 
-0.2076203559359375 
0.3685502096207058 
0.4448390046645374 
0.3766624179850673 
0.3887274784046221 
0.3896663182690888 
-0.2660992217403388 
0.09063644154212258 
1.606294214024957 
-0.891162775419611 
-0.8974537584344978 
-1.222890066641615 
-0.4782985298122178 
-0.2895293244182464 
0.03867133716174036 
0.02939309011483524 
0.6144905473595451 
-0.2616603155061983 
0.5492065091546817 
-0.6360290114966014 
-0.375834770483816 
-0.1297640308166957 
-0.4302505129025794 
-0.5078629546204232 
-1.242228308415718 
-0.7081079224685091 
-1.182552420642825 
1.307005466803812 
-1.036145747686816 
0.7832723764325806 
-0.07694580160878846 
-0.06367425652562313 
-0.5431454995689815 
-0.3055795480934472 
0.2752240454826753 
0.5513867771392557 
-0.05502645496615981 
0.1923528226231207 
1.803335654012732 
2.207288426692897 
-0.247610194656341 
-0.367500613606004 
0.8899511322068276 
0.8447707703750753 
0.4286150215386094 
-0.7862539602736844 
-0.02653496103323483 
0.01231404999928695 
0.5257129997985039 
0.3952362632645557 
-0.3270969275959811 
-0.3875794305131844 
0.6991265909964192 
0.3503738331752243 
1.156922176686334 
0.6675384255699016 
0.6188951054817593 
-0.2111532127501201 
-0.07397877644614644 
0.3107639020703843 
0.353111268619052 
-2.848091266363527 
-0.2221495892844997 
-0.1584826997832657 
0.2384820893192507 
-0.422006343223965 
-0.403105686363589 
-0.7249415136808073 
-0.3638559793515656 
0.9750739010567234 
1.112058324267819 
0.6143380361257116 
0.195470472289241 
0.02703212618626652 
-0.7756571380255515 
-1.193512987834064 
0.3666207803673843 
-1.02823478929175 
-0.2205938675118894 
0.6922721543895076 
0.08043513693426932 
0.1101277441842916 
-0.003680647387608641 
-0.5359948080277787 
0.09813571704156004 
0.1169328182691072 
0.2041348715646664 
0.7454867154055831 
0.5263665300803511 
1.220944852381077 
0.07986106804321493 
0.107068810065559 
-0.458546041841302 
0.1767293990304371 
0.5758251169853111 
-0.02708268675130632 
0.2813630416411256 
0.6649955695557418 
0.6593014791850357 
-0.1954748569402986 
0.5653699061127789 
1.046617378686243 
0.03038795457311321 
0.004033663773656256 
1.11865934755916 
-0.1638165813270113 
0.0211945915856363 
0.3622659646839497 
0.1635883216334793 
0.9280274703064776 
0.5903028187135397 
0.003381611077622836 
0.4421006423308209 
-0.9371851375156621 
0.5142987827171498 
-0.1553778375761234 
0.3672916634867451 
0.5682622398019752 
0.4030245621854319 
-0.142684634342693 
0.4085572635617099 
0.07028037822739092 
1.220514416833793 
2.263962061357066 
0.563525838246417 
0.8136634334417692 
0.2363485299816211 
0.9193358915440445 
2.105019631827485 
0.7839075700558517 
2.36218938994849 
0.2634692526116627 
0.2766460785073219 
0.7116413836522577 
0.01152831104931396 
0.1059474012374637 
0.3595841942854245 
0.2742583857096864 
-0.4379340201152082 
-0.01875157369637943 
0.1949064713560895 
-0.2452492569233555 
1.151255640221439 
-0.3723957708447387 
0.3096462339524962 
0.3279349935546501 
1.49918919799802 
0.4681793880047141 
-1.32273666063045 
-0.5275295874472996 
-0.4745945204796551 
0.1392395173826085 
-0.1939810524713222 
-0.1582341307723013 
-0.0603892079786597 
-0.3356607460217391 
-0.104457835591394 
-0.2657087122998705 
0.3001911031871436 
2.021830171840106 
0.1481369833410187 
0.01075867111541823 
0.0001372982827926502 
0.01789965106403481 
0.8758496367048425 
0.8577668482055997 
0.5677942387984336 
0.5097867331796985 
6.36782888588076e-05 
0.1276100495945675 
-0.03600323807616131 
0.8526173371433756 
0.2889713470291856 
0.00101949578776747 
0.701364083970465 
-0.2191138573921361 
-0.2984774099032008 
0.339424275303798 
0.4273401926403555 
0.2020498644841185 
0.03683904410523588 
0.030533512598128 
0.3446436870121329 
-0.2212640224062195 
0.7983052307275966 
0.9963033705364199 
0.2222786679918966 
-0.4262014522931333 
-0.5051137676006772 
-0.2337409833771256 
0.5424879188621697 
-0.3505207717523418 
1.00424940927593 
-0.01384816024864874 
0.09726434078385267 
0.8337617315117998 
0.03127002258407513 
0.06724693506352747 
0.2765567927101269 
0.4602744398296335 
0.5528206554024551 
-0.00238073835743164 
0.1928300466467046 
-0.2337470768557977 
-0.06481477073562872 
0.8064110851149532 
0.0002837289263691357 
0.6154238511979083 
-0.5307270445509253 
0.4143323421288818 
0.03410481287090274 
0.7646521100562694 
0.7503500882657923 
1.046189210397905 
-0.3017200753042776 
0.1286557019638676 
0.1441793072195028 
-0.1124745680283181 
0.09465200827211279 
0.2997728730426671 
0.07920684278042077 
0.4977805750030919 
0.09093579782935068 
0.7621724014592866 
0.3652294527803243 
-0.6574827196927922 
0.0171068948677897 
0.07289336364660716 
0.9250613760747149 
-0.6941877461065596 
0.2625905686171812 
-0.2907030307582317 
0.5211642842378564 
-0.4077872875165318 
-0.2818407173429623 
0.3565257673116154 
-0.01387081120005918 
1.727337840931762 
0.2251514869770626 
0.145149634488815 
0.1219741595952558 
0 
-0.4539181201760698 
0.06780441807034523 
-0.1651579347613285 
0.5089056694614406 
-0.01585881652150432 
-0.3518516576186234 
0.9277496534121603 
0.1297009166997781 
0.9782654537969879 
-0.3622252888740478 
0.628787022481536 
-0.7391503102025109 
0.2832332261419362 
1.369995480803586 
-0.0924273711846042 
0.2055496052177375 
-0.9479453755003072 
0.5333099819819307 
0.9687623335311791 
0.7562042051930489 
-0.8853740221745932 
0.07511927495112909 
0.07628838967580023 
0.3583446408934813 
0.001578160373878178 
-0.105432065412657 
0.01504727140360106 
1.091351555316744 
0.6610859902129568 
0.01638421323635216 
-0.2800286620984381 
1.069168340756654 
-0.5723166849895862 
0.01984230962130379 
-1.385180160011496 
-0.3725387017584448 
0.2622524253005923 
0.618819551398705 
0.6360332947503803 
0.3358017822794016 
0.4956589464928392 
-0.01877163092554793 
-0.477463171468859 
-1.093879623635273 
-0.5526590170795733 
0.2708846239155932 
0.1287124239243154 
-1.009105298537554 
0.1989699739850108 
-0.2084163462689062 
1.656452714229447 
-0.4974572940134239 
0.1054326161126276 
0.0292429895567842 
0.05096569208479287 
0.07682538275412995 
0.05096569208479287 
-0.01704991522586331 
-0.03096731815518314 
0.5285176011903376 
-0.6276221475927232 
0.05615580582791091 
0.4839824777949402 
0.5564891210654882 
0.1514722361921052 
0.3701345106537886 
0.4490702092384001 
-0.2711125247933403 
0.6165282907708696 
2.296116702141679 
0.5685209313478365 
-0.2137763666939722 
0.3625253336965842 
0.2436340242683764 
0.3014668327606046 
-0.5021094539297233 
0.8605025260883741 
-0.580883654924831 
-0.7433496551258493 
0.04794016094411952 
-1.084343849975973 
0.1873047822019281 
0.6569632460655433 
-0.3250817858653644 
0.4499083873651338 
-0.2756764278063663 
-0.6339431571822611 
0.1521423807056147 
-0.3978208010995505 
0.4229910301705077 
-0.1863868679149173 
0.592338623175758 
0.1367727817935019 
-0.05573843405022486 
0.07562991857181214 
0.8510587912963617 
0.03440866268271225 
0.4459053640163737 
0.1672850679797038 
-0.3209250602372821 
-0.7678042235592633 
0.008344472806582556 
0.2678495570992596 
-0.2826303151175988 
-0.2682376758521619 
0.9135768127250791 
0.08321607551652051 
-0.3509787922101665 
0.6233210119196979 
1.277326242093025 
-0.8144030187083197 
0.557878713513183 
0.4746789224274685 
-1.1452355967072 
0.5589919411909446 
0.5544815514391572 
0.7809573738359753 
0.5505866026895444 
-0.5027248564785076 
-0.6607042990525817 
0.128933786454686 
0.1412912429335388 
-0.06523471620494535 
0.0980921608206981 
2.064055454122062 
0.2863649732075852 
0.2709521233542106 
0.2020538407622453 
-0.6779774689649929 
-0.5310931570475604 
-0.06098856931983615 
-0.7049440300658909 
-0.5360375915119013 
0.4742498086995856 
0.5265752254815078 
-0.2044177995934876 
0.8762266466575352 
0.148474115593839 
0.1600304941315035 
-0.8024541283676484 
-2.266665352410575 
0.1000490272107575 
0.6281564107308575 
0.48398893469573 
-0.2385774636298876 
-0.2994389151455487 
0.3763481595562814 
0.4212418392457393 
0.1614205211825973 
0.1938832274712499 
0.201229734584308 
-0.1597696187460774 
-0.4450514697173197 
-0.1642577793601019 
-0.4539703762288993 
-0.4596869542956792 
0.1858693726591926 
0.3198897757670152 
-0.5833592816532494 
0.6263922964647985 
-0.2897205468026447 
-0.3559799253755841 
-0.1727373138035977 
0.3032863733942159 
0.006182332122282773 
0.1415083773873014 
0.6929329942240119 
0.1065436512371301 
0.06860798595081177 
0.1559466205867821 
0.1008667636939949 
1.278929875827062 
0.4877539881740487 
0.5483804764487862 
0.3362629285500337 
0.6884721162109743 
-0.3483463002507542 
-0.5271160587308512 
0.0006799006229266972 
-0.5128602162269978 
-0.01493908101010523 
0.8647235421539931 
-0.4661164810321199 
-0.1412717608819406 
0.7233924366186129 
-0.1081264867621796 
0.3067144365143551 
1.324966336857807 
-0.1187157940837302 
-0.6713421470829384 
-0.3938531697422448 
-0.02979732175872738 
0.4698618713577508 
-0.7020186979133493 
-1.408842899672105 
-2.808033394717246 
0.2350530176534947 
-0.04472865600738917 
0.09804622542513271 
-0.1724155633931605 
0.3612329257402694 
0.3243110785514082 
0.01030369995753019 
0.07369357305826413 
-0.02779554860863451 
0.6273639187263735 
0.8186796486851773 
0.2831043306223428 
-0.0795348464934531 
0.0450115487901896 
-0.09405042104760185 
0.7158376125721402 
0.993554582278505 
-0.2514267489831413 
0.6634191545605297 
0 
-0.1015027202727777 
0.4009642343961519 
-0.1239819071253041 
0.1971806803187728 
-0.3404148587130473 
-0.02155153111203131 
-0.4419547633235188 
0.3046842590663781 
0.7535043546410759 
-0.3332387699149954 
0 
-0.5437708616730597 
0.1299398250729195 
0.5672771060139186 
0.2680721964904727 
-0.8135610078420903 
-0.4255835552290774 
-0.1432952299581347 
-0.4850961398191815 
-0.9169496127957322 
0.1526284016693231 
-1.467214277638339 
-0.03846867741711524 
0.5785886377173977 
0.002059604451371806 
0.5097622723823245 
-0.3639776184538421 
-0.2113989779253568 
-0.3712498117679423 
0.2399973228991847 
-1.185668761147467 
0.1494758732462717 
0.003129526991584158 
1.984910601529096 
0.007328980393161872 
0.6919198291998543 
-0.3857862191952773 
-0.5332610146951462 
-0.7248214519355458 
0.6730791968684549 
0.1307346559065581 
-0.1047693604943869 
-0.1769442622172379 
1.114209531059741 
0.1963708098834459 
0.3668931401648377 
1.562092813551238 
0.6816718490011771 
1.298799846247329 
-0.4603693988135391 
0.05559306198786191 
0.1004401067438822 
-0.1392159117741248 
1.361285756706262 
0.09793272496172457 
1.511281751384353 
-0.02115690405089966 
-0.03855354788592005 
0.4157393468757739 
-0.1496701197168051 
0.1352651204406977 
0.189670113382517 
0.2757645861550914 
0.2841095138675071 
-0.4274658910530501 
5.237506994370972e-06 
-0.481946261399916 
0.8309807060155638 
-0.5030895102878647 
0.1496921057162724 
0.605421833253238 
0.1310974873541291 
0.1445898818649605 
-0.8616494828957296 
-0.2506444226087201 
0.1501527670372053 
1.00868199979784 
0.3089356394340749 
0.08434218778622471 
-0.7604388439341407 
0.1107883220798766 
0.05269951053678754 
-0.1497761366446578 
0.0006568614390052451 
-0.1548875619292706 
0.9921182247091943 
1.213318619132441 
0.2200849694409104 
0.4784896575620294 
0.392260937298886 
1.060769807850461 
0.3332436220906294 
-0.2476226588436807 
0.2045833070659246 
-0.4167627205300854 
0.04571601699595 
0.06729319415801668 
0.487253316465319 
0.009366866852360703 
-0.317704820114793 
0.3150393303813573 
0.756663636855909 
0.7757182464523082 
0.5468566619623318 
-0.5943546240894052 
0.1814321746149921 
-0.7364142467642311 
1.684462336982369 
-0.4645338645226591 
-0.009970079393551386 
0.5321092996342863 
-0.2352553068441513 
0.7669072437863238 
-0.5858096197290205 
-0.5061838256530083 
-0.4157794802080612 
0.4947816394293582 
-0.176782457433081 
0.1581095212534949 
0.3666105339863577 
0.1567766386822084 
-0.5210550433599743 
-0.2352553068441513 
-0.05248141651880229 
-0.1762189930901819 
-0.2237501959927612 
-0.2352553068441513 
-0.2352553068441513 
0.06184758531799361 
-0.3819149397695131 
0.03268392978528584 
-0.235111193806101 
-0.224425963936489 
0.4693477838154085 
-0.2083029289109171 
0.4196214949633462 
0.5507032197729407 
0.6111722308478083 
0.9918091948451425 
-0.1340904316238555 
-0.697851253768655 
0.2798790322333882 
-0.1620453641443422 
-0.4569731496126711 
-0.109013753678698 
-0.6385094519567946 
0.3703357105166127 
0.3837080348090947 
0.3312426015410754 
-0.2448469961106739 
-0.9732690818512193 
0.02702572316694292 
-0.3911433260431756 
0.9269500694961772 
-0.09865018150698703 
-0.2418667412117019 
-0.7164187346699314 
-0.03910981732741239 
-1.80701275288211 
-0.111762600428653 
0.1677847789109398 
-0.1441456653411752 
-0.7178271261754431 
0.7051426333552926 
0.6689686446715338 
0.2275460516289714 
-0.2229589612234953 
-0.4345616044499268 
1.173936266626878 
0.5278637348770534 
0.1325311221702458 
-1.024843060179571 
-0.483345921213701 
0.275769317153334 
0.2087837004283126 
0.05037870672683111 
0.781135370746966 
-1.505742944935372 
1.537024472550952 
-0.6035817168419402 
-0.5303769191706164 
-0.1146491194937611 
0.09614953347288681 
1.361516246390951 
0.06186138348756122 
0.1050678169914017 
1.202387049642299 
2.097798224286914 
0.6403159166286198 
0.33794893398586 
0.2487788129240729 
0.5799649548545319 
0.3825505687712961 
-0.5364671992638638 
-0.1842368139003685 
0.01752089036100722 
1.073726880875875 
1.475905714613762 
1.468462959218364 
1.136992429588826 
0.3441579443155722 
0.3631557668309007 
0.7654172594841516 
-0.5667729586146246 
-0.7519203263912413 
1.35662140655879 
0.5405454551921099 
0.03369029163245997 
0.03369029163245997 
1.172998699570581 
-0.351784153940318 
0.9137592920705574 
0.8603771577942894 
1.597769997909629 
0.1025090362567603 
0.5059756930554642 
-0.01321928368516607 
-0.2377975030000992 
1.344552347878233 
-0.1627526030851947 
-0.6391592326836439 
-0.09293020852964134 
0.8549193230500231 
-0.2223707278667224 
0.02958623065892167 
-0.9450050034301498 
1.376041537537584 
0.3907094506836234 
0.04079107802689685 
-0.7348427619359814 
0.09293167270351679 
1.293490547319402 
-0.4065699780410499 
0.3095059235860068 
0.3593788885673017 
-0.1621509742491195 
0.7446353414580225 
-0.02060157160824431 
1.948077899335712 
0.8611814192855324 
0.07857476806603458 
0.007010110811369405 
0.007010110811369405 
0.02782767478654165 
0.3749764804172833 
-0.9281864667338887 
0.3482292761113739 
0.3561954270133713 
-0.03333874734128696 
0.6465006822581106 
0.3641613264293787 
0.3423668749845721 
0.1778831874215292 
0.171090852824893 
0.1142575316215187 
0.4296582994066666 
-0.2966696081010623 
0.3420252090386322 
1.24128277281003 
-0.4245663332409414 
-0.8448049761716971 
-0.8693621613653482 
0.1132747594424687 
0.2807040890418387 
1.432684980921935 
0.5287762299539729 
-0.3469706345793835 
-0.4021700667978467 
0.06805094507723983 
0.6709177815879395 
-0.2906311255540212 
0.7046963091291263 
0.2505126004009359 
0.1032749268827425 
-0.29268126964699 
-0.3166049075766596 
0.6752670761765601 
0.4087493133304673 
0.3487232294045161 
0.6639113769941378 
-0.1671782066357893 
0.7183973175632625 
0.02871713133693021 
0.319125036951503 
0.656497319148503 
0.7268121322428612 
0.8754891559203617 
-0.1428820766092808 
-0.08118933050278584 
0.2626565887193905 
-0.3248018334315371 
0.7519395697682347 
0.5955853454481062 
0.2373228844240107 
-0.02330988894805318 
-0.2692377776118188 
0.2640228419209249 
0.5053795479092091 
-0.8585697560986278 
-0.2701352899377185 
-0.1697076893826872 
-0.6213241750599456 
0.09397782784599444 
-1.711492772220588 
-0.0440201613413013 
-0.1000694324180568 
0.6406919074924643 
-0.6161642866313982 
-1.086937543201402 
-0.4852136868953707 
-0.6957973969805276 
-0.2763932603681106 
0.09363728077575523 
0.9356723269799678 
-0.4570175879379387 
-0.09252424192543401 
0.6806546039594705 
-0.1259689783737594 
0.85727089142043 
0.2236674772361986 
0.4268466697121179 
0.8509721955748373 
0.4671612557338155 
0.570265255478271 
-0.1884335541771831 
0.4275428904173988 
0.02025376798609937 
-0.2079397580193499 
0.9472206191254648 
-0.2681752612019273 
0.3665547225101231 
1.07730492707823 
-0.4793280987529979 
-0.2424495090183662 
0.0100867444177827 
-2.839701871475689 
0.5341942380817205 
1.107246755839939 
0.239754027122842 
-0.1376672692892323 
-0.09628577834615924 
-0.01748640841847459 
0.2302560729252905 
-1.047691586434178 
0.01923433922869991 
-0.08539538971459827 
-0.07160326682881091 
0.001956324540602133 
0.004589511353926346 
0.4237929070277437 
0.6915437244769366 
0.1719122044602198 
-0.3089699979906106 
0.2060947008653926 
-0.07265770041397644 
-0.2645330769915406 
-0.1984563911687016 
-0.5624582857300009 
-0.6604851299099435 
-0.8195980619113231 
-0.8808220807082902 
0.5735368393468807 
-0.03121300247658267 
0.0188747287805765 
0.4041650547183796 
-0.7405273873299526 
0.1852173587197349 
0.1775586302614608 
1.75096645451673 
0.1024605535094268 
-1.540791872238331 
0.6038160707326242 
0.2214405262271942 
0.1911536802425498 
-0.1671528322896351 
0.2865763050919101 
1.015632726601565 
-0.5315478031835119 
0.7189746807730466 
0.1207627905151853 
0.6797490523047924 
0.3600199097714612 
0.2684165921950644 
0.2683833658991787 
-0.09923113035660766 
0.3282444429858944 
0.05280396027278632 
0.3034640535812058 
0.06322773420738947 
0.8578058922056315 
1.402507603692474 
-0.5030653678314153 
-0.4558043181901275 
0.2696658352070134 
0.2066135391796831 
0.1143432026110788 
0.7350426893526157 
-0.202250892975108 
0.7869211272522201 
-0.0308540433793702 
0.4842052194297181 
0.1431076337180902 
0.801030195701676 
-0.03765494796445632 
1.815444296800869 
-0.08587217365540964 
0.3460202177685618 
0.1080582874083987 
-0.09786368361452311 
0.03983412764908461 
0.1711167255398588 
0.1005890602168203 
0.06225857693021142 
-0.01646121090693929 
-0.4045358425494521 
-0.9049126763533228 
-0.9390579473061363 
0.1132931857145975 
0.568678832328265 
0.1496339151079827 
0.0648022701108826 
0.1752700209937904 
0.03983412764908461 
0.09958699609350313 
0.06137117087729739 
0.06311060805970721 
0.1002401127125404 
-0.2592193901657031 
0.03983412764908461 
-0.0393079474338002 
0.005711437736354019 
0.208140731907492 
-0.3083952729681163 
0.03983412764908461 
-0.4169813540493471 
1.309824598858616 
-0.2213056837766418 
0.2767433850379811 
-0.1683955238139993 
0.2150673095916679 
0.01300753412253042 
-0.5453993822106534 
0.05881786864457567 
0.3233363042401252 
0.07997799088910655 
-0.3403758003636773 
0.03983412764908461 
0.04231462852271653 
0.1171004469542771 
-0.434456278656703 
0.04904136329504409 
-0.028338846503969 
0.1323695961544543 
-0.140592123317576 
0.1631698657427844 
0.1216918861508551 
-0.7152542261073351 
0.09965012750640899 
0.2180492320766736 
1.325687249711526 
0.01905371942943837 
0.2989338843908724 
0.1954059493758414 
-0.005777098180969881 
-0.3107020515328996 
-0.3628681994523955 
0.767824789573622 
0.7302950951470584 
0.3499038883802363 
0.3654437350346889 
0.2059424084230587 
0.2540716967365196 
-0.2081446528345186 
-0.5209937491476968 
0.09002170408686339 
-0.02745746448461076 
-0.0870306150184465 
0.5312432375162197 
0.4026954054749564 
0.1916401311374588 
-0.4651110280047491 
-0.8305668012706048 
-0.07645615391718424 
0.9207920305320229 
0.09371477349582344 
-0.4348059446018894 
0.7595758360210318 
0.322455730785987 
0.04823500323680468 
-0.2556447973463813 
-0.004415742006685705 
0.1369941242538641 
0.04866591179057921 
-0.1784110368373104 
-0.08374285584615979 
-0.3878878826789751 
1.302150116814737 
0.01469322305351437 
0.3099080011999391 
0.4095617828494731 
0.1682070705071278 
1.349100074306961 
0.06057320348280382 
-0.4284012467400645 
-0.2084439519261499 
0.09786909382380422 
0.2504405704328938 
0.6278469257323666 
0.226370041477802 
0.09496830022815789 
0.09496830022815789 
0.3763843440502248 
0.1689088746393827 
0.2109315203335306 
0.7674959310161299 
0.7930052994232012 
0.3831268840963609 
0.1957806052723265 
0.2512437785879367 
0.05322850188275163 
0.4149240105524757 
0.2669608797278572 
-0.06516551796017325 
0.1042106574681201 
-0.3880242860822082 
1.440897248440073 
0.1965915994007836 
0.2448450609896473 
0.06163890681790714 
-0.1194612934738467 
-0.1069323536238053 
0.6152779859451014 
-0.1505108587850275 
-0.268671515903785 
1.062295501278336 
-0.3183660319532103 
0 
0.9116542243675744 
0.778611005971287 
0.6085598338767967 
0.2227802182444714 
0.4555452366969158 
-0.9325221343796928 
0.2258772108211032 
0.01907345465273925 
0.6113072359324478 
0.5540518008929716 
0.5062353685169064 
-0.2217477981765689 
0.5004299566794449 
0.1667846720684779 
0.08589552092042441 
0.2724282729878242 
-0.605357217823893 
-0.14852950087155 
0.01400528167245484 
0.4747048522943863 
0.07811849549694425 
0.09124885816689904 
1.002230894551162 
0.2970084284814457 
0.04528348775131644 
0.3713105058310304 
-0.7064151360417427 
0.2408332088663199 
0.4013881927426984 
-0.504110242221102 
-0.7782184673115529 
-0.54513198363194 
-0.3056057490263039 
-0.3386457353042742 
-0.1068097358559588 
-0.3750100693888196 
-0.9664969012477799 
-0.08460568691985927 
-0.2780776060155741 
0.2486979170815004 
-3.141858426043309 
-1.083210060046143 
0.2975536336463523 
-0.5372629620582852 
-0.0008418316718861556 
-0.6917576357090306 
0.6436581782979391 
0.6430634036793365 
0.7675480765494272 
0.2838645079545538 
0.3373032308381054 
2.017273846032137 
-0.06227595193260205 
0.4040546976166121 
0.07152950919912596 
0.4048911158667437 
1.400562303597961 
-0.1587562229324361 
0.4211512756916528 
0.1372197023024286 
0.04480438074777546 
0.3386043162252819 
-0.6664409975517783 
0.2693795831757232 
-0.3624213206175383 
0.8024065335504341 
1.738246218160194 
0.4462419321445609 
0.0003685081896517609 
0.1916789246966207 
-0.2439316072762888 
0.2232149628493687 
0.2804165177742124 
-0.8855596889946084 
0.6817787441123964 
-0.4204301438387074 
0.2415738459190237 
-0.1869127839852474 
0.1252056061296019 
0.8374854318916811 
0.3071248861859314 
0.003673627294541487 
0.07690445312002374 
-0.05503500155968731 
0.8298138361188681 
-0.04856042451522709 
0.2687394332777526 
-0.5794509223374639 
-0.4872032864329573 
0.760463391655208 
0.2856734188571318 
-0.4835049887038567 
0.8871439764115063 
0.5403994268058225 
-0.6944157073232037 
0 
0.3498724685363703 
0.6415363334378058 
-0.02412948302749435 
-0.1392373850714462 
0.2567314194806762 
-0.8560524596670562 
0.332643808084245 
-0.1574195371810444 
0.2466687971757601 
0.7039728948274452 
1.214602347782354 
-0.03792012384507989 
-0.4681856189064949 
-0.5952828587660203 
-0.4640707679235274 
0.8957091150470134 
-1.601342868791556 
-0.365983059743824 
-0.6139753230259939 
0.4181067720375694 
-0.707815792456758 
-0.1439737292626596 
-0.6007569465087562 
-0.8117253703979699 
-1.756579250990855 
0.4534016270146575 
-0.5355169087446808 
-0.3519120862318664 
0.05003141117787008 
-0.6444456973186238 
0.4206105637020762 
0.5530873744304539 
-0.2751073811266772 
-0.472583855512237 
0.09539888845624631 
0.1049098230967558 
-0.1532486698805833 
-0.09725403451243862 
1.064759244796512 
0.8165496408409461 
0.6040700409628351 
0.8130312987660722 
0.01384064560270286 
0.4000854911550608 
0.2213561557674326 
-0.7443764634951345 
-0.1443734807965153 
-0.1185754743295087 
0.09066743746912082 
-0.322507080411802 
-0.6174835924367053 
-1.261537476798767 
-0.1165800826494668 
0.9152679475357559 
0.0303794193059304 
-0.1336085890705039 
0.000497227070946106 
-0.363688219512083 
0.8338147066587041 
1.211510128681033 
0.09707283742501431 
0.1477602541177824 
0.1978560285672435 
1.367720561884944 
-0.9189528108470187 
-0.3345894599820049 
0.1160780494280118 
-0.08049552822706599 
0.1075962533254364 
0.9160624884888945 
-0.2832208923754117 
-0.1952137424013094 
1.298245152423076 
0.5821414882147096 
-0.3622784997210888 
1.402921236008589 
0.5420193515558543 
-0.2018295198976413 
-0.03690419947326704 
0.5078976408258388 
0.8237482455863757 
0.1233687059811367 
-0.04210911893174933 
-0.6876457474758233 
0.07790410991138888 
0.2884305054816619 
0.1527667068401183 
0.2688931504053525 
1.047415749505143 
-0.0749426880022091 
0.1435581466347636 
0.4757424985601729 
-0.01943418368467659 
-0.1822131915785683 
-0.7341844941212413 
0.7048020625763608 
0.4350342540547829 
0.9151446025647088 
2.044185728664952 
0.01140407112908435 
-1.053883490405537 
0.9203321765627749 
0.1619714223801037 
0.5975577388401645 
1.399247245599413 
0.2260297839173198 
-0.2518507362589794 
0.03789026288733106 
-0.2832674290970651 
1.971601893958526 
0.3382957634330478 
0.635143958425017 
0.622409039821221 
-0.2560252065855202 
0.6629853455196636 
-0.2390433155572111 
0.3531021524031011 
0.2620262297936902 
-0.1398873778867635 
-0.3359987091346076 
0.05027279691987447 
1.712616867408763 
0.9448176511728085 
-0.14561784527566 
0.04144872001903242 
0.003449644493824479 
-0.1966559920145251 
0.4581815789772766 
-0.2358451344409995 
0.5736170916422306 
0.5797368135034705 
0.203453214382193 
-0.3210209790934507 
1.252837225509557 
-0.01214731994094139 
1.60699754188697 
0.4195964123923608 
0.5922492457789811 
-0.1047351730052242 
0.6605317685179751 
0.1923846070966251 
0.03346118367714681 
0.006850113476744047 
0.4197945968344073 
0.6569382712810885 
-0.1541261639399504 
-0.009574245044962109 
-0.1752409601363542 
1.081586542555128 
0.003739276415232664 
0.5488013042131857 
0.9561683031246023 
-0.06433569075862146 
0.6474021289345389 
0.2069185553786033 
0.2144877003749656 
0.8120876551201048 
0.555226763670593 
0.4752324536196157 
1.138205120391779 
-0.5601404774020596 
-0.5438832041704903 
0.05919994632585864 
-0.05052044356803237 
0.1455597128755165 
0.3453340880709233 
0.2711208114515405 
0.2288650961905024 
0.3736262514906189 
0.03601003074249759 
-0.0050827947425947 
-0.1219773935869249 
-0.3292046114365516 
1.009343560329651 
0.5100761731749182 
0.5919174531157994 
0.2304365600050275 
-0.1586501799485805 
0.04764166891745955 
1.862952735792101 
0.1825091629031146 
0.04949734865646033 
0.04946026100396111 
0.2236087233501797 
0.2148923634160892 
0.5119224122216147 
0.1256888170636823 
0.03710397098744631 
0.4083364905737261 
1.685078903415576 
0.8004328723298952 
0.9257246175707464 
-1.812927027006108 
-0.1298891022901093 
-0.5958396073468772 
0.3336919660334949 
-0.6744147318277012 
-0.09434241032570137 
0.6497112927887559 
0.05112071098581403 
0.4712037168510591 
0.4166273613309437 
-0.2256134696614496 
-0.04357446018099208 
0.1767701819207433 
0.3500693239947853 
-0.04871521688982478 
-0.1826928134419551 
0.04419391265594528 
0.05199897611866978 
1.041678619973444 
0.4325372569354948 
-0.1004396092620582 
0.1581622554658826 
0.4115908855761753 
2.559722835557696 
0.3927501204821244 
0.1583774365999505 
-1.05461594263638 
-0.1821028646943617 
-0.0985537663389148 
0.02598263679378205 
-0.03835654676011942 
0.01431743510119592 
0.200459672522756 
0.5534041577281581 
-0.01364466620115563 
-1.132845147164842 
0.7875550090077665 
0.4366678867302899 
0.6436158527184049 
-0.01396495686873057 
-0.3557020854457649 
0.430142120010152 
-0.2294292163246486 
0.2124568104824733 
0.01958334458881689 
-0.4665024940361576 
0.01097763019441796 
0.5191068497506499 
0.1096750263054299 
-0.3214052290733853 
-0.1667437899680199 
0.3689604334955252 
0.1526732759409303 
0.1759016406602306 
0.7457228305994903 
-0.5404189298939921 
0.8665275287293193 
-1.064055447373424 
0.06218583065554044 
1.270158703053337 
0.01549176120302566 
0.05067055168883222 
0.0005265627802353652 
0.1410301938137644 
-0.7308690298399699 
-0.09576598513156964 
0.1479166029136903 
-0.07132868787615822 
-0.1825525670218273 
0.1545361099973774 
-0.281223135877423 
-0.1001564373744432 
0.02391479834932113 
0.1787281973318731 
0.008079151614163562 
0.01303794864440864 
0.03451597208901645 
0.3235954646998156 
1.779181848656963 
1.254301139307958 
0.2048163967207725 
1.513037263940182 
-0.09295789223880088 
0.03428173346609087 
-0.8608989533451185 
0.8431492367749023 
-0.9696048494257854 
0.2441871924470933 
0.5996462429246061 
1.532475113401285 
0.6905258487867121 
-1.371000747004052 
-0.003708468191925223 
-0.2105873937183935 
-1.261063578720229 
0.6560959164501822 
-0.2576327276643481 
0.4718899561599144 
0.9509572091282598 
-0.3906908353999112 
-0.1577944140528692 
-0.6305175424093524 
0.1660368657976388 
-0.3639115835868594 
-0.9702378674558871 
1.068979527365515 
0.2148602866190569 
0.5245855699981095 
0.1650605724025518 
0.141923077385327 
0.5436539905433533 
-0.3257980598865477 
0.2579054740737247 
-0.5067280577858686 
0.1468429897238343 
-0.5184859969932913 
0.7002297010975176 
-1.095618440555401 
0.3399016739477573 
0.3049862600779056 
0.6519032963076737 
-0.7506292392771308 
0.5993183817192066 
0.3489787359157383 
0.7643046053188471 
0.7252742651058164 
-0.5541934899275358 
-0.2662078782832612 
0.02817820152025742 
-0.3046410069831914 
-1.826622272916488 
0.1761017650059161 
0.2897765777321547 
-0.08337447337920804 
0.7358711584503748 
-0.3759567490981238 
0.1404779319034768 
-0.9866295893104067 
0.1616418979858576 
0.2846466272544009 
0.4557666218257608 
-0.3076514099150684 
0.000954358084208649 
-1.390019789251914 
0.1144187212621545 
0.3356406392292916 
-0.8118970781490217 
0.04265154980960565 
-0.002547698405470199 
0.1700310072424369 
-0.5235059820997571 
0.2178320254175277 
0.2661367445567075 
0.2345469794246358 
0.2423129396121713 
0.1203602388627981 
-0.734457041137789 
0.5361609968934371 
-0.1921276016711814 
0.7832696227604871 
-0.5264247822824051 
0.09428411743157533 
0.8007773432005627 
0.7612011582784869 
0.7219406884094909 
0.5566824136061301 
0.005317364029951651 
-2.032089516773339 
-0.3161340539522737 
0.4139320903755742 
-1.047596587524591 
0.3292396115928741 
-0.2505261977345294 
0.4642543587574872 
0.005927672783058511 
0.3580908344484581 
0.1567220138705837 
0.1166010353541859 
-0.3215884817202957 
0.2572583870124368 
0.3103250468047308 
0.01465380180447066 
0.1137829331529615 
1.171476275921888 
-0.6438138933980233 
0.02461401504334638 
-0.3071249528250701 
0.6206555933342504 
1.05145021223202 
0.1631624476860414 
0.04289700750723839 
-0.2086344889990933 
-0.7127232215286039 
0.2511330734130542 
0.6853583255727879 
-2.166094473862963 
1.745394038255952 
0.2041753403736903 
0.6898849174306354 
0.174854411779405 
0.003228493951268827 
0.3679330526764952 
-1.3154563928869 
0.6141335109186851 
-0.2010458454883009 
0.02566692127222026 
-0.2745481117414135 
0.6002065495434674 
-1.079483330394903 
-0.08205330383318804 
-0.1486111483005109 
0.02385609841241478 
0.02339831105553778 
0.1018075696639805 
0.7191258203491071 
-0.1569510624648315 
0.4298051500926793 
0.2026564076683267 
-0.08419671015685179 
-1.159430033310146 
0.105234152495924 
0.5825859110281879 
0.5385204036107678 
0.1507322106812103 
0.2811182815892321 
1.85592979054628 
0.3346553627488105 
-0.1838015044743118 
0.004212508659068762 
0.3028149786622869 
0.2232025715365509 
-0.5225124106213658 
-0.5866007808249921 
-1.460065812565951 
0.07968369646639342 
0.4705434428591627 
0.0436529927898788 
-0.4913864353533197 
-0.4898506324263583 
-0.7205342589475291 
0.2159463461153861 
0.9059483617895727 
-0.3463235191140006 
-0.8289543818810683 
-1.325271246592497 
1.492066256109219 
-0.06457469401017585 
-0.2344553302489882 
0.3731054766703371 
-0.009110327838976952 
1.319417472485521 
-2.388838842835986 
0.9084718709465053 
0.1892752372102643 
0.58681953421497 
-1.185830550121251 
0.3645333662693237 
-0.007724046389112421 
-0.276333890760169 
0.4339691583451468 
-0.235569838943487 
0.007959911375850164 
1.201746438898558 
-0.2719294303428961 
0.3789906736869166 
0.9444538989783098 
2.286561549457557 
-0.2488451650952551 
-0.1287059854551205 
0.3275206165427573 
0.02886580153074988 
-0.3475686011442119 
-0.2635887680397681 
0.8340824263664144 
0.3313509776437649 
0.1643171468058867 
0.2296964377811593 
0.05326733238300593 
0.5005985685978325 
-0.523383892992186 
0.246506215220776 
0.6587339068010734 
0.4088310755999375 
-0.068567212932258 
0.6807545274923678 
-0.002686930072729996 
0.2589666623636449 
-1.239261935308463 
0.06581217172994448 
0.8501666263134539 
0.5197121263791364 
-0.3257406264259993 
0.5108446348941891 
0.4482170353859194 
0.6630033458331406 
-0.009799620641050536 
-0.4461310579642262 
0.1485090083571259 
-0.1075733866406298 
-0.6503739934448439 
0.4082870085022393 
-0.3507521345604814 
-0.2421155642009465 
-0.5642798992202968 
0.06499389384077232 
-1.017946676091601 
-0.5736819023514457 
0.492566922090564 
0.05895186654143453 
-0.3381651857950385 
0.03719448662956473 
-0.1808762180234581 
0.05909088819102078 
-0.4423631942143726 
0.1644840276566977 
0.3074508729899118 
0.8773127052055734 
-1.515614157082346 
0.03719448662956473 
0.1594909374418902 
0.03719448662956473 
1.068781408162524 
0.08636292348009869 
0.1722277037582908 
0.03719448662956473 
-0.320379165280426 
0.5837985466303574 
0.06097894412809719 
0.03719448662956473 
-0.3092040396242937 
0.07539792561679642 
0.4726157568827997 
0.6991792081124596 
0.04441686344116245 
0.0376194397547569 
-0.08880835223708007 
-0.2270936983794777 
-0.8675585869337641 
0.2486674081076568 
0.2168679901990562 
0.774366044887736 
-0.1347290483063409 
0.13724324183528 
0.1256503883423805 
-0.8265561835600107 
-0.5192147658707069 
0.1163681509630261 
-0.6698896716415346 
0.03719448662956473 
-0.1029377641812692 
0.6528679886589583 
0.808124212245407 
0.06571459049776511 
-0.3364271686319499 
-1.017556706608371 
0.03719448662956473 
0.1930564587681746 
0.04167358486727292 
0.03719448662956473 
0.03719448662956473 
-0.7777795731838042 
-0.3077392489557063 
0.1374338501862405 
0.03719448662956473 
-0.4237142273889489 
1.252137574738119 
-0.3822213742503436 
-0.3870882657892158 
0.2551021361834955 
-0.2828352052506177 
0.1881631451999313 
0.1217001520102089 
0.9957717603820684 
0.2513924921063891 
0.1938716282365429 
0.8645051779695647 
0.8283767284889407 
0.1900954432299527 
-0.1570556969861729 
-0.6076481216645996 
0.1202515428458503 
0.2136170393167425 
0.1697911709385438 
0.2755006429950245 
0.120415663901541 
0.01791180935690816 
0.4570618566836191 
-1.209258385620355 
0.2607446790652475 
0.2381637937177014 
-0.2104963924331734 
0.5306437485406302 
0.6245967024805379 
-0.08440430493139391 
0.4075342239873904 
0.2124938017656263 
-0.6396809324548075 
-0.4638896371737351 
0.4698234300716981 
0.7251436108745297 
0.02475325528314426 
0.5179072262280811 
0.4797833440319413 
0.4268746451130239 
-0.122370307873203 
9.103459499350222e-05 
1.741790607540035e-05 
1.502483192547106 
0.1912285047984085 
0.2832412262592634 
1.517357260544262 
0.0007195619571889609 
-0.09041751699740096 
0.2816740918862563 
0.8399656310209274 
0.1625633966994855 
-0.6167133536204985 
0.0006475277389313208 
0.6408807544105536 
-0.06517301126079512 
-0.007203254100229355 
-0.06253898768830915 
0.07437634359373513 
0.1189345868753011 
0.828701678233036 
-1.185838015607129 
0.02432495237683763 
-0.8717988596379388 
0.2145305413122581 
0.1200866277548115 
-0.4256818031265677 
0.2115551442316609 
0.4756156752541815 
0.1397415952341536 
-0.2151892584418435 
0.8147288637666439 
0.2299507268804421 
0.0001579288180473157 
0.574334539516038 
0.5810095297639255 
0.02251421252374825 
1.39094364953105 
0.2328521968923123 
-0.8133207102118618 
0.1033726541074635 
0.7059355051040427 
0.348234149012504 
0.0121071920710519 
0.05680943138552984 
-1.3245923038886 
-0.568919145749382 
-0.6229145849405689 
-0.1500336234074769 
0.529600971872365 
0.8029205542667956 
0.5121892430429882 
1.099270215558041 
-0.2003527541251952 
-0.07396987512946351 
0.0639373556423507 
1.659130196061204 
0.4819800724027561 
-0.1791284877644501 
-0.1802022776356029 
0.2789630229936992 
-0.5583674148344653 
0.5637675838244645 
-0.7294691653769827 
0.5462492992901608 
0.4289305247731716 
0.3158685994608313 
0.1334558964187353 
0.5608241979373539 
1.462483431436673 
1.10203422428679 
0.3926354313618039 
-0.07226226115578591 
-0.05361318444167547 
0.08664182136870005 
1.270419492517378 
0.5634014093153694 
-1.277869225313146 
-0.4093491226570414 
0.5649555853178687 
0.2591680475480922 
0.2728787841592547 
0.5535748026809243 
-0.2088638665623048 
-1.298791999734113 
0.7067414077299927 
0.3807973502182213 
0.01556890366524704 
0.6896737993122546 
0.1487154545331017 
0.006233548443433885 
1.26106404899612 
0.1575389968646119 
0.142624410673366 
0.002608553404450022 
0.3365948462818644 
-0.3292757805250963 
-0.4924488999522175 
0.2238470359801926 
-1.417505616033836 
-1.495345874712251 
0.02900227060978161 
-0.3199535747055267 
0.07739999092849278 
0.1590511724612761 
0.2449723500454246 
-0.3136697807387111 
0.009143574675389489 
0.3347371573039118 
0.2501989083501828 
0.5423440513079134 
-0.2485501683064291 
0.004930229139242171 
-0.05274850712804342 
0.2364762909121215 
0.8909301300974665 
0.1235386874957388 
0 
0.6853788022324827 
0.5470945917074241 
0.1407712996489907 
-0.8682894324806291 
0.5012488546931489 
0.6671117283345551 
-0.391158683844399 
-0.4076410135911002 
0.4662792988487827 
0.4102878300476426 
-0.06161839539156259 
-1.561755769585542 
0.6072715169356628 
-0.195010608364605 
-0.004976434011991333 
-0.6282071541348536 
0.4236877837919911 
0.9655702019719858 
0.6861036180436432 
-0.6110585197962306 
0.145838777665378 
-1.144668085908954 
0.01222123287524954 
0.529722630004141 
0.199617904171483 
0.5068097845695273 
0.06485917260650895 
-0.2664301488925561 
0.2644999418254347 
0.8317702145141513 
0.2703650323908953 
-0.04623379616292565 
0.1643005299923248 
1.856586029402917 
0.9843774152909687 
-0.2478586711480104 
-0.6114548512767796 
0.4910412958451147 
-0.126895622810143 
0.6821599156068188 
-0.2280975275000904 
-0.09894157566954959 
1.17456917182757 
0.4347312828787955 
-0.2937997656726553 
-0.15336265254436 
0.3138146791840626 
0.5656469316469622 
0.02408752568340806 
0.4635936276401535 
0.356802546180361 
1.336521374773445 
0.07403807748472466 
0.5256799020465928 
-1.097153532354435 
0.02147364940794994 
0.06989129526953561 
-0.1647240095882745 
-0.5893672213733174 
-0.3242471661387313 
-0.9770581615722104 
-0.3947360757987609 
-0.4778982567668622 
0.8662322473912465 
0.00732127109708864 
0.70438642761212 
0.5205115974337839 
-0.0383218606539792 
0.08008140077413028 
-1.211231422845557 
0.3541275601433657 
-0.522581046968019 
0.4449724791659513 
0.4817049761149816 
0.1971883393081966 
-0.092184306098199 
-0.6569392335792555 
-0.4139196492163402 
0.2344244298895982 
-0.1263193835759761 
-0.257064260308374 
-0.4273958637667979 
-0.03929858727402686 
0.04646876233940014 
0.3550994323039744 
-0.2052904823823919 
-0.2925588738688987 
-1.90284339708572 
-0.5367044918255546 
-0.6522668556485657 
-0.4625254678570035 
0.1880473639907485 
-0.1790802380949859 
0.3498140829311952 
-0.5751921749669332 
1.388910405614874 
0.8252564342407174 
-0.6139471143027772 
-0.6265648994462886 
0.04351264962784465 
-0.2429739893085561 
-0.1893459602360139 
-0.03009301834624279 
-0.3414042123712636 
0.318818220143361 
-0.8992918353439818 
-0.5279998750548068 
-0.3586334510524309 
-1.190528069621663 
0.185315431780374 
-0.6361106973429373 
-1.733933711604369 
-0.1950690858571528 
-1.341808016096971 
-0.5427506533152768 
0.0449763160454795 
0.698369379887148 
0.1549072706082297 
-0.4535590393474018 
0.5588545942219829 
0.05240358251829883 
0.1524465684330738 
0.351145289912265 
0.7096769076980251 
0.619200854470053 
0.3060498856534904 
0.2756718318998353 
0.860606838806124 
0.2358899568696699 
0.06229881890860491 
-0.492611354358083 
-0.5129392421593176 
-0.2676708447328229 
0.5959304443975215 
-0.2068884027923915 
0.4870229969082923 
0.001513573851530912 
1.038472498661152 
0.003258560953304169 
0.3192185264722356 
0.1388857360024136 
0.222473663538466 
1.50620517795854 
0.6076582703867167 
1.064257753842088 
0.7708316401383989 
-0.1371915030343031 
0.02848965230400193 
0.7528730056474137 
-0.746921121403886 
0.02848965230400193 
0.2125601502623879 
-0.2044660617882455 
0.3060203681610064 
0.4724336571608515 
0.1647090175256412 
1.712011244431709 
0.2200831406897177 
0.1923914234199356 
0.1986565713714851 
0.4381029200068596 
-0.02906071782384711 
-0.06187637049751558 
-1.571265321745392 
0.1609801264138239 
0.3938709092623295 
0.7891686202856721 
0.5845104160794838 
-0.09940146212340269 
0.7604430380435656 
-0.1070045144999232 
-0.7532828277448094 
0.7057967607214466 
-0.1070137383421212 
0.410096509906779 
0.4991744487023263 
0.1574374646076936 
0.4126067087521925 
0.1306318144784083 
0.877108855103399 
-0.1289083978682919 
0.1452981573018311 
0.7629471828459923 
0.4478943548221193 
0.1254804311477788 
0.9422302352188975 
-0.04379293029956953 
0.5941398762264689 
0.07216268105955444 
-0.06173262349516175 
-0.5743316220456356 
0.9443961365737839 
0.07675948244017369 
0.380967148214144 
-0.6041872773616992 
0.4014091635635469 
-0.1252303305497827 
0.09527385384308086 
-0.3427557147818413 
0.02239499271650798 
-0.259793667200279 
0.08723110503538482 
-0.1878709532346967 
-0.08882781755357101 
0.3397025314147115 
-0.251789377006591 
0.2356651775185501 
0.06039718266173102 
0.01989393321997768 
-0.4629334694897682 
-0.196284544843421 
-0.09604965235883992 
-0.3026765496546729 
0.0006039507559892984 
0.168902765663035 
-0.1221861935688947 
-0.6961040839595783 
0.02992246494158195 
-0.1383305199336767 
0.006955287096897482 
0.006092755459299137 
-1.134339077635061 
-0.2158673076657785 
0.2883371762203708 
-0.4240583045787581 
0.1324154824198308 
0.04837278984610745 
0.2190866295992474 
0.1673175958926104 
0.2150664268858199 
1.01094650257886 
0.6038008632305341 
1.273659604956292 
0.006301671367965531 
0.4960845121062182 
-0.02292158306527606 
-0.07757108630062226 
0.4473087963191503 
0.1388946955266665 
-0.03821502313645989 
0.147396531553855 
0.01192849447175149 
-0.06761510410476013 
0.4256724366217853 
0.1005986964075733 
-0.7233939866051518 
0.1824837744671624 
0.0926852440024627 
0.213079686896284 
-0.3906421037278482 
-0.2502991068683005 
1.280322199170301 
-0.1168585775432026 
-0.2022388585592974 
-0.1274549211700869 
0.05280364609266967 
0.3968934446500403 
-0.7287390283678775 
0.6045058675904876 
-0.07432181159869623 
0.9729949910647886 
0.02350025293424938 
0.1127116486566563 
0.6471038466349222 
0.64462944030786 
0.8763970982792478 
-0.09335932717134179 
0.08245447949491416 
0.4012996864917324 
0.06569588005248543 
1.067157557788245 
0.02007765677127737 
-0.5825222557286377 
0.2583548786356915 
0.5881670014447999 
-0.5351282107503461 
0.1647843852947062 
0.1617164587605587 
-0.2275361794837913 
-0.5681227846236343 
0.08052378615296214 
-0.2042219587693523 
0.9340939652945819 
-0.5079948347230966 
0.8241942018568316 
0.8537926962685185 
0.672328781034933 
0.1479923141109984 
-0.2947718207747571 
0.2819869545318406 
0.4690249909870984 
0.2873010092449821 
1.312253976362093 
0.2505873024815774 
0.37034558579221 
2.142563377748947e-05 
0.07901631461325016 
-0.6362021316602315 
-0.3553350093162513 
-0.6269888422469241 
0.4142358695233996 
0.2574082708623374 
0.4024453672072164 
-0.6031232583838759 
-0.255333974255576 
-0.4822840112650904 
0.2516402986939377 
0.8015014494890624 
-1.088792042641946 
0.2683103393539108 
-0.5464452667549411 
-0.6848204345980298 
-0.529214651494804 
-0.7808361733150363 
-1.285591443981939 
-0.1494201255051855 
-0.4112464893488237 
0.5036869379891343 
0.8512231784884643 
0.1631456998559795 
0.05964054015386432 
0.4974534709048449 
-0.3584591634291012 
0.9145852695575629 
-1.046551763614131 
0.6331179823414406 
0.2103526057381653 
1.549413569095115 
0.03623720295003142 
0.1060211216868507 
0.4183118089923572 
0.394043475931084 
0.05301537851485434 
0.3278810925210259 
0.6356566180551031 
0.0163671003740126 
-0.5103943438948851 
-1.111627642962493 
0.04988324365851979 
0.5335622257598693 
-0.5734094513224673 
-1.11686129315905 
-0.7572165412208447 
2.584112961239043 
0.02189570178565601 
0.7750865141285964 
0.1887619650372703 
0.8054435709555008 
-0.0301549641235981 
2.827863138503764e-05 
0.3244545645255479 
-0.140008904788723 
-0.00104751635023774 
0.5478235676201616 
0 
0.1462980566098351 
0.5684323298341944 
-0.5153820344100416 
0.04383515610209358 
-0.8292726427404097 
0.5893960640792913 
2.180757513761344 
-0.2347918777411432 
-0.01083215672718302 
-0.6481822569542999 
0.1984210742597192 
-0.8037953890299873 
0.4411854055514349 
-1.726819655058178 
-1.321798109154572 
-0.1534712592292137 
-0.2057496415618615 
0.01482769935157684 
-0.5006668451456763 
0.3441300660123122 
-0.3603172579667727 
-0.05883918453020917 
-0.05318187274232389 
-0.8800715208649602 
-0.2600628347029325 
-0.03680815535380882 
1.185547963752979 
-0.4419461202169896 
0.1601161736974817 
-0.5148138664923274 
0.5969597414410764 
-0.01104708131060392 
-0.8820188068755177 
0.7653073468935937 
-0.2221005699283323 
1.232741416712536 
-0.1209051109915542 
-0.3983251964602502 
-1.509928141583346 
-0.209815825832224 
-0.3136186328580284 
0.0424433526916571 
-0.6016597517563569 
-0.1671619131611713 
0.4124273279024383 
1.294398043206337 
-1.867448347344614 
0.2288007108374178 
0.9805007431720749 
-0.339610777732624 
0.8349495934479817 
0.4061410445004169 
0.3374065554771271 
0.4625596499614823 
-0.4135793429603234 
-0.1776269071069535 
0.00150861882471774 
1.167660310760043 
0.2289171583541801 
0.5679133485582539 
0.1754228017437418 
1.002405021770423 
0.3967156321303638 
-0.08242477159036851 
0.1639679777512218 
0.3887572466690808 
0.4343129794993333 
-0.1252797364464116 
0.01681931842024713 
0.2852299360065721 
-0.02919949361479368 
0.7051322672279556 
1.439280634397222 
1.3803557567593 
0.5616792193186637 
-0.1063611916179848 
0.5481068275348392 
-0.2744752058116423 
-0.2857585683192407 
-1.142596502603995 
0.4110209879001132 
0.2464925760666 
0.1344089354007175 
1.626918062717317 
0.5792696332457762 
0.6985958110132466 
0.2786875083299752 
-0.430377120736574 
-0.2977583817121112 
0.01353675580888343 
0.08329234247633252 
-0.6398786739508715 
-0.2162002009326494 
0.0879075188600405 
-0.1714413806623125 
0.3405318109979709 
-0.3172833818677593 
0.561157226634496 
0.02842662641671293 
0.2676322620015456 
-0.1005613392594878 
0.3315529981532514 
0.2151796297401456 
0.3970618429333765 
0.7548106430381787 
-0.5675468146375444 
0.006790300437646809 
0.140401566788717 
0.5124004197432006 
-0.2005959797045788 
0.4892352992495227 
1.012451838978022 
0.03751698146520051 
1.109611968961752 
-0.1947440424474994 
-0.4373706276553632 
-0.3008216208421426 
0.5728304649027638 
1.064819094524619 
0.06807333933969072 
-0.2707574452679284 
-0.1804761866360871 
0.0674089930447897 
0.01363810278252171 
0.0005930602409555542 
0.3765612658516934 
0.1053741355544074 
0.5548747034055886 
-1.176672070840157 
1.533031981175186 
0.1411714266251348 
0.4921361311388314 
1.164952824843518 
-0.408367052101807 
0.2121892411301522 
1.291062402213443 
0.1135102949592862 
-0.1095644133949713 
1.63554100110495 
0.136621020881574 
0.9191186323323395 
-0.5833155851706427 
0.2373831405421169 
0.2234085650043965 
0.2003219829468024 
0.6424103252677322 
-0.003780080414644373 
-0.3886896699180789 
1.175275982512991 
-0.6215424470016744 
-0.4368785025497907 
0.5386809822147004 
0.5263352538067244 
-0.005112647968212924 
0.0004638289289904679 
0.8294897488919459 
-0.5795640477387002 
0.7038362855593809 
0.6018137371687442 
-0.03503060394990964 
-0.3756781877145411 
0.6369997715381157 
0.6141402989577341 
0.3517320429926889 
1.414546313258102 
0.3829925492620339 
-0.03463065242104049 
0.4369854350242044 
0.4683943214544655 
0.6869863665719802 
-0.2448994009696893 
0.04424279087527819 
0.1479354653759695 
4.46627177690419e-05 
0.2405289088336742 
0.7271428896715306 
1.749915718724372 
-0.172907640586912 
-0.9226670042771987 
0.2717460181838888 
0.06787785809875398 
-0.1287428325733886 
1.244737437985257 
0.21640247855112 
-0.4859103627112127 
1.008727985047493 
-0.8310754558777207 
0.3856503717459439 
-0.08741412752759098 
0.4305032637255206 
0.2245299428648083 
0.8139102546844442 
-0.1635800871165518 
0.5826893839976245 
-1.134532335241909 
0.7873874644616974 
-0.4016380604264007 
0.9234507174051362 
0.3949187901557515 
0.37618266883764 
0.3100676906490253 
-0.3238530352167356 
0.4456288995011982 
0.7501143256983327 
0.1036945177934405 
0.06171655651114898 
0.5655244507498012 
-0.352407147493827 
0.2863001343535939 
0.2221912334102053 
0.6422869549796617 
-0.2702066722520942 
0.0538445633396955 
-0.1151539411162722 
0.2060417911223694 
-0.03392901138862896 
0.5010024265129283 
-0.04771767593706272 
0.04382163435818075 
-0.2429088483493836 
0.8585566348648298 
-0.2570795003405605 
1.7466890043693 
0.5313811928194705 
-0.2652267061399564 
0.5160261305768878 
0.6070607241336438 
0.4306938605375175 
-0.07646271694181545 
0.6470840975186004 
-0.1393644004899718 
0.4777495020020706 
-0.3195058045200492 
-1.281907697058797 
-0.346648285103099 
0.2960945918294386 
0.2335298108588161 
0.3592281827606327 
0.518552383437253 
0.6063810340574005 
-0.5364850928203908 
0.7805248587048195 
0.4036917049232046 
-0.6826467435177939 
-0.3568042682163197 
0.04142731689741388 
-0.2306650400883848 
1.341296912854203 
0.4834831775225428 
0.5056308152794958 
0.4758376929226191 
-0.4827904241590387 
1.192709728877182 
-0.1853480125049582 
0.004685659734745518 
0.003949915376122297 
0.175523281600917 
0.06303526026473395 
-0.02502488194145693 
0.8571047162322811 
1.747223680090095 
0.8589902694116882 
0.7232265193041457 
0.172568077848499 
-0.2332313593770171 
-1.376375807731592 
0.5183383246725497 
0.01871872573998719 
0.553963663382249 
0.03953599474016654 
0.01871872573998719 
-0.4916017859019158 
-0.05008278362868022 
0.02491441150176685 
0.658864710504404 
0.1401915811102865 
1.044099971849738 
0.127294053441227 
0.01178189640871618 
0 
0.1798603424506132 
1.155174582163527 
1.36953845135998 
0.01848723277762003 
-0.4587520692669152 
0.4721331564710078 
-0.4980111243105952 
0.7479022776208952 
-0.4238710413654598 
-0.1839181307260919 
0.6041905548039854 
-0.3379408144377672 
0.117145201339571 
0.6692415400373155 
0.2422646917146742 
0.6723875918678226 
-0.2603050717709225 
0.782301242389897 
0.4186568578679151 
1.188040502583684 
0.650186920930156 
0.9883583468918773 
0.7648405555568155 
0.63014721891132 
0.3377402603001017 
-0.2586630873821793 
0.02115435145300832 
0.834696731887246 
0.5286124212372536 
0.02115435145300832 
0.5225400604693138 
0.8353448228589789 
0.3125642242338871 
0.02125227745241145 
-0.488164802978316 
0.1556893299027641 
0.740193960236352 
0.4669029386156211 
0.01482836307376776 
0.7220343847890535 
0.01352371684025644 
-0.1413802136029551 
-0.0416193762761507 
0.3839474476627065 
-0.5635493696426753 
0.05613209718147973 
-0.0971130097457245 
0.7293414491090735 
-0.4395437210854069 
-0.3076150504896074 
-1.322321336212746 
0.08801689489589093 
0.5684775270854487 
-0.4661658456773429 
0.1147784642164031 
-0.1770962131904717 
-0.2627615443051673 
0.4294391673504885 
0.1319258178252748 
0.01961738929938986 
0.6846088259504656 
0.0002656633000730547 
0.01453240094006337 
0.7171637735229754 
0.1420541351751854 
-0.07833407715170421 
1.443079666786556 
-0.6222883801903694 
0.3496727239761295 
0.1599962008860095 
0.1077892600384903 
0.19060652963815 
0.6016744238646112 
0.2664176339639137 
0.1759021701381246 
-0.5608400715655972 
0.4977811905902576 
0.3702683099657264 
0.2843366775639968 
0.1640695884449327 
0.611735794478328 
0.9899766916741798 
0.3371301616500472 
0.1928514297798449 
0.3137455843088914 
0.2739365561178542 
-0.4297701452661061 
0.2338014205454899 
-0.2357718985792062 
0.1075384426843611 
-0.2584537382956655 
0.06279295957202594 
0.8267992256511306 
0.03191250705618515 
0.422836179214218 
0.1705117866146623 
0.7244966264507626 
0.1658958336099086 
0.5767761140903319 
-0.4736617620175291 
0.1016817673412056 
0.2509343420763155 
-0.293678860271641 
0.9431128171564892 
0.4174124716039995 
0.1694379155827687 
-0.2437626877645983 
0.4743168418407306 
-0.06170759326102532 
0.049608150996065 
0.08556143445209211 
-0.09227441982187198 
0.07834233055666462 
0.4163868747289527 
0.1108613799059621 
1.147302516697243 
0.7409866961861751 
-0.1620080253793556 
0.06110754715580463 
0.6832206281789539 
0.05205516484232511 
-0.2687669202773059 
0.1433943436352286 
0.4963035499616179 
0.3575662154745347 
0.0733874952699658 
0.07419415753802316 
-0.163477641670136 
0.3046402890565326 
0.08452323823836394 
0.05323644274109014 
0.2966991175438807 
-0.1294402316307373 
-0.4354191339272329 
0.5650928209155126 
-0.4571007106316382 
0.9437803698358994 
0.3008293530916138 
0.1798517766866319 
0.3378829707633699 
1.090277570324567 
0.2779636064401272 
0.2590677977459017 
-0.4274648656316964 
-0.6991627315879496 
0.8672133031814386 
0.07004614514430073 
0.1766033616826995 
0.003236619824820881 
0.005707542875445393 
-0.002365862838199732 
-0.05018078658452743 
0.1558809315563189 
-0.08009881374858203 
0.09867601751914887 
-0.1092377079856978 
-1.322200492060802 
-0.04075809542155071 
0.7102673010001108 
0.5535098846526859 
0.06024300919744191 
-0.4824630549370391 
0.05468992075810537 
-0.111574360981021 
-0.06366629468786227 
-0.698938704303585 
0.55001145029879 
0.008461940272383698 
0.08396650886055292 
-0.9864822401709495 
0.4148981717123044 
0.08695610796477209 
0.3153868966000567 
-0.4514351753086138 
-0.009686377310016493 
1.204397272438112 
-0.6598637960840418 
-0.08101041793242751 
-0.09489259418015256 
0.2879506791728406 
-0.7617205246360181 
-0.3396768818683157 
0.2563275730135867 
0.7287395739891996 
0.8095033920497524 
1.423662306669971 
0.7151830003963713 
-0.2983860156737868 
0.7904001915338134 
0.5412319802564054 
0.4832927002407298 
-0.03489790083468863 
-0.8519829898248543 
-0.7010832195790512 
0.1997214007152033 
-0.3128108922724159 
0.1944783835418096 
0.1073869018872074 
-0.1117897551481812 
0.6730607251061367 
0.132028844970745 
0.4419924523761938 
0.4780407168803005 
0.575462768534312 
0.3416827538654023 
-1.148013733640385 
-0.3047944828742439 
-0.05101657372057823 
0.8172160504629452 
0.434535028206934 
0.4584885183896668 
-0.1392821762421585 
0.102326227081666 
0.2229442830531749 
0.3791850324532735 
3.086692125359596 
-0.6574708525646097 
0.07402715741304074 
0.7736910165323586 
0.0739960223161385 
0.1343520646258104 
-0.9278317275401067 
-0.34593187131068 
0.991996130772094 
0.6980897446689672 
1.519057709426491 
0.02158652034614757 
-0.5325475021241318 
0.1115348756639072 
0.4003901974735234 
0.9105163396682265 
0.2391469035909107 
1.578912904018468 
-0.9356166798176241 
0.6176093787938006 
0.2049937894835363 
0.5932568707490068 
-0.3030943554462388 
-0.7832350423875951 
-0.4776917275075657 
0.8886219781124206 
0.3046497138811198 
0.06741267510920634 
0.4072605137015629 
0.01179571359291885 
-0.3586065956601736 
0.4007964633754247 
0.668788786206742 
0.1974712335242003 
0.2318432566937431 
0.0819579004010365 
-0.07973019006464552 
-0.1495957850459035 
-0.1334578935137763 
1.449417558919625 
-0.6479470210252238 
-0.05160279551278595 
0.4587740355092065 
0.7689545094094627 
0.1588897778580272 
-0.1282693259068745 
0.2735548889492889 
0.3327463815705384 
0.3460420415821848 
0.654326608554139 
0.5161399366130426 
0.232702191953952 
0.1196941032397248 
-0.5943035708253372 
0.04097756078407412 
0 
0.3801552291589064 
-0.3610655267955419 
-0.2977955369741684 
0.4177640532148655 
0.4262816206611921 
-0.1852937464568395 
0.430445194673265 
-0.2187072317163145 
0.1455654251759483 
0.9698176686360003 
-0.2871937973848906 
-0.3207701807421328 
1.281548992279127 
0.1525914905943202 
-0.03660720239134743 
-0.1284139803379501 
0.100860070579954 
0.4846000842904581 
-0.2668745279209791 
0.4632441092589696 
-0.1595926401318239 
0.09467726368406855 
-0.2188550962340898 
0.3929608688058192 
0.02156047625171663 
0.7307604398121276 
-0.7131328401800157 
0.2168004821210803 
0.3489560778591919 
0.2488404101944851 
0.2595955888727244 
-0.3353397544180425 
0.4949675982643348 
-0.1874128504884194 
1.052950162274734 
1.606625851979659 
0.2243422975610584 
-0.1004915304111686 
0.5876339835120039 
0.04682721611015792 
-0.03898026593588844 
-0.4399506235721258 
0.3139454429549327 
0.2395752730489527 
-0.3762966340599914 
1.27339707149166 
0.1783684680469383 
0.433135128953043 
0.3387112295422 
0.3438394971251462 
0.1424324220844887 
-0.1504694439745289 
0.2645224847706446 
-0.703414280043694 
0.9229962255224291 
1.292720337200895 
-0.5837733162885922 
0.135669950553362 
0.5540038023727374 
-0.3370770207683849 
0.1470478554783544 
-0.7634739797530692 
-0.4939463435693289 
0.4266051312171255 
0.7996061107618394 
0.88929102097423 
0.1661764171656758 
0.4518635157037997 
-0.2005298065223581 
-0.1341170479143444 
-0.3498176359785395 
-0.08821071055790461 
0.3120412411669281 
-0.4850658095843024 
-0.05840238536633588 
0.2938500962774021 
0.5069571639653613 
0.6861160392009439 
0.202962012582397 
0.4918016663981545 
0.3611790744635724 
0.6841546882094209 
-0.2845034778771394 
0.4258241258750031 
0.3330899572559636 
-0.2449888696619358 
-0.04208295493201546 
0.4619447151603926 
0.2573060163305535 
0.4429206988127515 
0.108088952170674 
0.5441751103355998 
0.1473417184903692 
-0.5552109776672506 
0.7528923698547032 
0.02853938580716806 
0.3916318055823006 
-0.666731751570703 
0.5507470893418199 
-0.8812269519013326 
0.3073331924300339 
0.05673330198397281 
0.03707019228402998 
-0.8542561171321496 
0.6302803952826098 
-0.03150168153331975 
-1.265168957900509 
0.6832209143881346 
-0.7224310756895586 
-0.08565141493120938 
0.479281912483891 
0.0008160310338103115 
-0.9838464189980443 
0.335233732549457 
0.7855443791827926 
-0.499736318112886 
0.4388065413197692 
0.5073976931260912 
0.278581476817297 
0.4270817231963804 
0.6684323918107805 
0.5477318847127941 
-0.01213650864790536 
0.7186825935985431 
0.1275024367468745 
0.001301670548640919 
0.09932178829012972 
0.2859997995916287 
0.1639258940927519 
0.2681110024968386 
-0.09106164749896364 
0.4173345033908355 
0.8440570095323567 
0.19949754979912 
0.2151818063689182 
-0.07554384032482428 
-0.2045960582228517 
0.1087849960003468 
0.2991328306934568 
0.311629020365269 
0.4772402924950079 
0.6181139064645808 
-1.008474208280094 
0.7538037682695424 
0.01415392958922212 
0.03047782761747868 
-0.3337708132949279 
0.03127262961288382 
0.4574183553620905 
0.002810055944442174 
0.201197660525092 
0.9255678525394886 
-0.2559459742920193 
-0.4975393061119657 
-0.6778769478311105 
1.105191673234292 
0.3512374562394836 
0.8873234423811656 
-0.686989209588503 
-0.5428077590164505 
0.3726059188153887 
0.2502607200309978 
-0.1076949442696475 
0.1700897732918708 
-0.1253154239593942 
0.3526303921832651 
-0.5080824441373863 
0.1368885030450251 
0.9120897499334271 
-0.09679284215553903 
1.045045703071039 
0.03689043896994782 
-0.6908068817144123 
-0.4631569250729549 
0.0788588673400579 
0.23511603954169 
0.8490052255427059 
0.7174602238406409 
-0.4898586971961356 
0.05997595263280962 
0.2606927489240465 
1.159343561944088 
-0.5976965778608484 
0.02640833143739976 
-0.3706677956869709 
0.5338933384441448 
-0.6015929601196885 
0.2109124823036787 
1.029648869128824 
-0.2874473332670935 
0.2916287809900295 
0.277259366017626 
-0.3670931184925492 
0.5879332524771238 
0.3429292580699478 
-0.5395148076094373 
0.0106861170288921 
0.7636263521227157 
0.4121937610684852 
0.05567385494891836 
-0.2273200346229726 
-0.08377576468723547 
0.8014527878102218 
0.3106289430589224 
2.007492455951679 
0.02614350377636994 
0.07998318777202694 
-0.1058247465360445 
-0.5984589115108599 
-0.1990885836767229 
0.3625054920424518 
0.3208696619812391 
-0.05711038761395367 
-1.796018027035166 
-0.2213117958290302 
0.03232482513363938 
1.073567407965329 
-0.3682806816717526 
0.04652265393954311 
0.3399625056788743 
0.7295493877280659 
-0.1978772998774274 
-0.5810097812417044 
0.1252957178138258 
-0.2312220795751312 
0.4078865352547731 
-0.1693103816735859 
0.05402063594629362 
-0.1953123445525828 
-0.238858147824582 
0.01348384657471889 
-0.16026727900157 
0 
0.1160824430608585 
0.37514370864804 
-0.6721741123638203 
-0.0978836193700169 
0.4531016884009466 
0.5366756943649782 
0.1184490178852908 
-0.06474972816132502 
0.5186234288352624 
0.2675458496080553 
0.005594012115107809 
-0.7855420153228596 
-0.8189721731116367 
0.5090266667505519 
0.6589971957032945 
0.7270590252729348 
-1.000924959519423 
-0.03765935647750343 
0.5311575304253484 
-0.3147222488524952 
0.4863451565188489 
-0.2371180378230256 
-0.122548758912689 
-0.3250982988007937 
-0.1118841548434725 
0.05897048925994462 
0.2776826159041521 
1.214748505187192 
0.4136635608630904 
-0.7123412550929787 
-0.7726291014256593 
0.8947428005989914 
1.58095507551644 
0.5451455199393394 
0.5769416850944746 
1.565099119578323 
0.07252042682286351 
0.3121705407732418 
0.1957794351417505 
0.2780310700640174 
0.07211538935289705 
0.4950430341725026 
0.04136688846726327 
0.9108467041444596 
0.6851466929446819 
0.5911745900503753 
0.9902375661850835 
0.1223124042596608 
0.7762083666376617 
0.8587812661957137 
-1.794864605118713 
-0.5842952162317068 
-0.3127616041933285 
0.007417262072729983 
-0.1372866866057516 
0.7937558615656307 
-1.111509352027038 
-0.02055455051688826 
0.368783238308903 
0.9575721007005467 
-0.2652047530197633 
0.003037511479966711 
0.9115748204527432 
0.08066795577115946 
0.02627334546624019 
-0.2322944745182493 
0.0876599776238457 
-1.36060579194494 
-0.7117492806890443 
-0.282475633183381 
-0.3971248108481089 
0.933639162366614 
-0.1431994103690034 
0.3160289056585704 
0.06206555844458148 
-0.3013225601650094 
0.2561996549929243 
-0.1270819080991805 
-1.56210602785661 
0.2265628603874183 
-0.87125807116791 
-0.3824883490139216 
0.04475462353280649 
-1.004547103314647 
-0.07076722461842516 
1.654208913549269 
-1.080629005363681 
-0.1110269266611663 
1.064494462875121 
-0.801221561561128 
1.032904859305159 
-0.08990405405906667 
-0.3907715637855107 
0.1053629090288145 
0.6470030881828198 
-0.7279891986546256 
0.1034053994791161 
-0.4105959431761592 
-0.04139322215720245 
-0.0650523499445811 
0.09534189064327184 
0.003774029979779145 
-0.5290287706721568 
0.5440284446722196 
0.07669941483652938 
-0.163469678681914 
0.6827724245394955 
0.3067977533729463 
0.1760649257026907 
0.05530182740747838 
0.07363096722204183 
0.1547035531313938 
0.502220277256626 
-0.5210454114628347 
-0.4127148363890271 
-0.06539810029952356 
0.2130567663059689 
-0.3043540039954251 
0.8237665640465859 
0.1550593510369372 
-0.3992783669627638 
0.4110820220586462 
0.2904271874367267 
-0.03419975069096634 
-0.5944254111828366 
-0.2211341310724594 
-0.5501538285441938 
0.2122476972559627 
0.0006391952579356505 
0.1990528397475521 
0.4760302175286854 
0.2683975544934364 
-0.001278632783793279 
-0.2138599782140907 
0.5668743057462304 
1.163326233148607 
-0.4107433602860805 
-0.6252167995505115 
0.5038011284446511 
-0.09433503409587811 
0.2123118418628945 
-0.5340603030705953 
0.1594605728263829 
-1.041246124180119 
-0.5958218517048984 
-1.681511439975302 
0.2674987789863089 
-0.3980457167188852 
-0.1109874444837524 
0.07551064857037339 
1.045248479226512 
-0.283631809117015 
0.000205108057501076 
0.9477867448327602 
1.130041107434671 
0.0205554928404786 
0.4869233160774999 
0.06948272184381921 
0.3735022391150367 
0.147464688751286 
0.04552998522390993 
0.3553029062660368 
0.03114261147308591 
1.048320624976362 
-0.5268101703020199 
0.1449631171194521 
-0.127248474619217 
0.05337263939754781 
0.3898662897591552 
0.3252558455245881 
0.9823375263550039 
-0.07383599085740969 
0.3129468755899533 
-0.04445736801921842 
0.06096808043515006 
0.02543716210095837 
0.02529767504339677 
0.4595966194386033 
1.142106413643655 
1.926229636406486 
-0.6086207226729684 
-0.0516587158891943 
0.5805328030108169 
-0.06105205154437195 
0.7865972785921416 
0.05352969559996826 
-0.1123022321106916 
0.3666059875099186 
-0.6743400529476765 
0.5086499886947629 
-0.009106179036928489 
-0.3780816044363979 
-0.1213290138099639 
-0.4583509966373918 
1.032934754282485 
-0.9486519448801279 
0.2260215715337299 
0.04484362445846046 
-1.085236392733173 
-0.7725656873429169 
0.2266361197737191 
0.1468325374935674 
0.04686520098745772 
0.1193104843570631 
0.08021270518572168 
0.1083583663649957 
0.5403292562417213 
0.1629786792831409 
0.05520768506485912 
-0.6688899900170495 
-0.2291308515279755 
-1.378591028037997 
0.3214267033560382 
-0.9850394157690572 
0.2743435542944836 
0.8658235454923052 
0.04609394653245006 
0 
0.2176712349445197 
-0.0177726710021719 
-0.00196574467380715 
0.06805199227968969 
-0.3534130333203254 
0.2312717252272015 
0.6796883338050015 
-0.1543807990070491 
0.01942120908461105 
-0.3625819054142347 
0.835118300183632 
0.7239669355949704 
0.2046621564339099 
-0.01784954033530265 
-0.03028047180398089 
-0.07864219983707518 
-0.3915233703386511 
0.01684794916124775 
-0.3645112101858175 
-0.3801567001005095 
0.5998482898816354 
-0.06442795373962265 
-0.2502316148789136 
0.1403422853878997 
0.8655909546609172 
-0.5308059330355901 
-0.2311834220542967 
-0.108968867702052 
-1.405806414793602 
0.2277732990490551 
0.5016716715085823 
0.1397998842325301 
0.3215692371544724 
0.08337712530154068 
-0.3217825324548603 
0.6646444933527583 
0.0007553910742254818 
0.750797548308471 
0.1762459654447488 
-0.08121586652934773 
0.3403602741574253 
0.0003527783311694436 
-0.2172017449623335 
0.09071832741973709 
1.534702138159814 
-0.07539150413975793 
-0.3821462302531202 
-0.458391612432173 
0.4347876426412545 
-0.02355121823610673 
-0.4343489932884791 
-0.7636304603322128 
0.1176305633385503 
0.01410480069099092 
-0.08338951794969962 
0.3975089571275761 
0.569092686045447 
0.02680555750198154 
-1.800108841114816 
-0.4733609690720568 
0.1405712770463763 
0.02010371555897653 
-0.1790590420475457 
-0.2736252072489679 
0.001987230900924241 
0.2315038458693593 
-0.1644226967468849 
0.01138909753777295 
0.103279109230308 
0.1433793045608706 
-0.8623124224042387 
-0.1338633962108161 
-0.04883463104401783 
-0.05758044013671293 
0.6915757241818609 
0.2647249211841236 
-0.266214108404841 
0.8571223064977394 
-0.2208201004840743 
-0.5447108223251093 
0.09328174052674792 
-0.7672158364596621 
0.1181904548163428 
-0.026000179088317 
0.1435110920457457 
0.03428053391082637 
0.7155699476311886 
-0.03646578807892538 
0.001545777281157386 
0.3600876144679839 
-0.1685530252658407 
0.05339011769303236 
0.3281504318297067 
-0.482888050765485 
0.0003106558237579667 
0.2536476494638287 
0.07656156908987249 
0.1919206835165427 
-0.144364857903498 
0.201529055192667 
-0.003301861186957544 
-0.3598137349099378 
0.003133713239885429 
0.01875445227630821 
1.159855583595701 
0.583627213299056 
0.0128048742355363 
-0.6546399369629389 
1.252948976826786 
-0.2850787166282114 
1.496190686137757 
-0.6472439088628736 
0.1641215279001634 
-0.1546085970839323 
0.1282599952739117 
0.8135411636394076 
0.1232896058858524 
0.03211487105990805 
-0.2641149138659253 
0.1731396708302362 
0.4856224279238402 
-0.4626953015289957 
0.0085224933820231 
0.1275313301402037 
-0.6820446746691688 
0.6687768464601348 
-0.01199539888267824 
0.1339452099454484 
0.05925377115720347 
0.8317315743118153 
-0.1435601034277827 
-1.031323463157512 
0.3584936807722365 
0.5131127562849958 
0.2985554179258564 
0.4551813687339957 
-0.1627732198786882 
0.6211122321700099 
-0.06138065493950657 
-0.5123820086602996 
0.06989121144691682 
1.462589692553277 
0.04101625886272849 
0.6825417567694134 
-0.2905669848370546 
0.5899270682447685 
0.7387428493374985 
-0.9665878688542605 
0.4173682663675324 
0.5070104339552324 
1.389877513094119 
0.5247616572188216 
0.2476377957709827 
0.3029979885948898 
-0.1345979586937394 
1.267729577391687 
-0.3269524307715632 
0.6718375638304346 
-0.3441792424485273 
-0.786305278302181 
-0.2682362806222203 
-0.6473551485363612 
0.04462470287831599 
-0.4775348601498493 
-0.06357943232546187 
0.4826858144726403 
0.02515277480780483 
0.5688906059575412 
0.2378877869859302 
-0.00187671974931683 
0.9918729967910349 
-2.128358924300914 
-0.2445437917296339 
1.686777060908133 
0.4539365076711617 
-0.7437128177421625 
-0.2108893204134798 
0.4774463495976597 
0.6298659764106131 
0 
-0.1609214082933053 
0.5483065834166913 
0.3857764593506906 
0.2289508444529306 
0.4207474246738028 
0.4875814862932661 
0.417547204416045 
0.164639152526894 
0.03636841385634889 
-0.5187358160069522 
-1.522831294973813 
-0.3869197229305928 
-0.1400698268471737 
0.119708629035425 
-0.4340255108090734 
-0.8042154027417731 
0.1346756362699575 
-0.8215611366502675 
-0.09865138067400089 
-0.9749245220741847 
-1.326858914065975 
-0.4805705019208171 
-0.08442488209597945 
0.9120238548501669 
0.4693106921862171 
0.02375760409608018 
0.454692086195557 
0.3607185352166517 
0.4004254349440264 
-0.4663155635059343 
-0.02758426137563346 
0.4907179451270401 
0.1065433555102825 
0.06588880712862522 
-0.3644405425215197 
0.1052709817185015 
0.02252831759899369 
0.003691173937168709 
-0.1699241083992407 
0.8734812769352418 
-0.01136741568223738 
0.07171703705937643 
0.2236373001128365 
-1.512696066191786 
0.06817217519320623 
0.4175493691132642 
1.255552006705797 
-0.4325697791358179 
0.3062217947586192 
0.09656015134389766 
-0.2263079171087755 
-1.011070529324664 
-0.3677404203043753 
0.02223223667234754 
-1.241292676998978 
0.258511890170984 
1.562978952239056 
0.02392892696150401 
1.181032762014513 
0.8700807587784962 
-0.7366500260478452 
-0.2844998198320121 
0.4022416818861815 
0.114429754710069 
0.2426109371745299 
1.248262310471342 
0.1258066168221111 
1.015073132185302 
0.808522802706291 
0.001564899711411518 
1.146145346241208 
0.7439376515389489 
-0.3584355265701901 
0 
0 
1.017075506755267 
-0.938200887360999 
0.9398409331615685 
-0.0111009709042373 
-0.5313383267647752 
-1.020940971790734 
-1.032345431007651 
0.6013335742938327 
0.4133756900080912 
0.9854164644193528 
-0.6764783024250228 
0.2211344483003537 
0.08081343444483709 
0.2932532925729012 
0.1793656076979335 
-0.8955031386862269 
-0.4143718617829321 
0.3483956138956982 
-0.2189407549151347 
-0.7858240934007306 
0.3724219364808227 
-3.186254125020344 
-0.6268396488699474 
0.3042648298734536 
-0.2285440089971816 
0.2943535425621274 
-1.175368832990767 
-0.07219586788459824 
0.03978626258506064 
-0.4636507405672718 
0.1925404354528938 
-0.08813525287066451 
-0.6508241616731973 
-0.4625799828158768 
1.091891458920274 
0.02316496315469955 
-1.210535777420487 
-0.684203376843982 
0.3652463096185224 
-1.226731086753791 
-0.3362486693081923 
-0.6048817073396719 
-1.699189453514246 
0.03175043036089722 
-0.5029227697068472 
-0.7382060897987571 
0.2247888642250578 
0.4970515559104089 
0.1364835768822673 
0.05566130950097514 
0.5934190636026015 
-0.299797540802156 
-0.1199770442423034 
0.9488509304064584 
0.1072966849882915 
-0.009441541571881724 
0.3172120861495459 
-0.03662064706653508 
-0.6581445211414372 
0.5987023567135907 
0.05566130950097514 
0.1688287439790399 
-0.06908128168640215 
0.05595572505661855 
0.05566130950097514 
0.1639316758595163 
0.446542066771529 
0.4032517808476659 
-0.7601084180172383 
0.4111484186471148 
-0.06395890629935949 
-0.7172991644439644 
-0.5174296844780977 
0.04942866168431765 
0.7526555808694988 
-0.05135797207859653 
0.250762774628231 
-0.4198228359128596 
-0.3454239826332136 
-0.577380845650082 
-0.1711919656763697 
-0.4615013957553825 
-0.3338680445659404 
-0.07758121551102022 
